#include "bnn_params.h"
int conv1_wt[N_CONV1_WT] = {14610455,2146960382,-1838341600,-306185354,-750164837,614156720,162960237,-1495610963,1294392137,54555802,-29367298,1844445955,5017627,637215216,1872644388,-2147323914,218110825,603064288,989835774,-268370832,-2082488093,-225765,-2147483135,268337151,1056968640,-1599669120,495057439,-1061418008,-2116615265,-529153801,-263620550,-1831113326,-1330198163,757390157,-785841518,-56377109,-1057353792,1452710935,-1879032229,-1881053184,-1279906199,770198480,-1228315615,1832162157,1227138715,-1840693509,2010343716,534788832,937435080,532677488,460345056,-131080,-1840660485,-2112747228,-1879048192,-708,1617807615,-266366913,397927439,16647164,-2137030209,613571374,-312175927,-1090420782,-801177472,-57820897,-1067454416,-1577541505,477001884,-1021606361,-246947443,2085746881,-537903312,1836274,-547113977};

float shift1[N_SHIFT1] = {[[[1 1 1]
  [0 1 0]
  [0 0 0]
  [0 0 0]
  [1 1 1]]

 [[1 0 1]
  [1 1 1]
  [0 1 1]
  [0 0 0]
  [0 0 0]]

 [[0 0 0]
  [1 1 1]
  [1 1 1]
  [1 1 1]
  [0 0 0]]

 [[0 0 0]
  [0 0 0]
  [1 1 1]
  [1 1 1]
  [1 1 1]]

 [[1 1 1]
  [0 0 0]
  [0 0 0]
  [1 0 0]
  [0 1 0]]],[[[0 0 1]
  [0 0 1]
  [0 1 1]
  [0 1 1]
  [0 0 1]]

 [[0 0 1]
  [0 0 1]
  [0 1 1]
  [0 1 1]
  [1 0 1]]

 [[1 0 1]
  [1 1 1]
  [1 1 1]
  [1 1 1]
  [1 0 1]]

 [[1 0 1]
  [1 0 1]
  [1 1 1]
  [1 0 1]
  [1 0 0]]

 [[1 0 0]
  [1 0 0]
  [1 1 0]
  [1 0 0]
  [1 0 0]]],[[[1 0 1]
  [1 0 0]
  [1 0 1]
  [1 0 0]
  [0 0 1]]

 [[1 0 1]
  [1 0 0]
  [1 0 0]
  [1 0 1]
  [1 0 1]]

 [[1 0 0]
  [1 0 0]
  [1 0 0]
  [1 0 0]
  [1 0 1]]

 [[1 0 1]
  [1 0 1]
  [1 0 0]
  [1 0 0]
  [1 0 1]]

 [[1 0 1]
  [1 0 1]
  [1 0 0]
  [1 0 0]
  [0 0 1]]],[[[0 1 1]
  [0 1 0]
  [1 1 0]
  [0 1 0]
  [0 1 1]]

 [[0 1 0]
  [1 1 0]
  [1 1 0]
  [1 1 0]
  [0 1 0]]

 [[1 1 0]
  [0 1 0]
  [0 1 0]
  [1 1 0]
  [1 1 0]]

 [[1 1 0]
  [1 1 0]
  [0 1 0]
  [0 1 0]
  [1 1 0]]

 [[0 1 0]
  [0 1 0]
  [1 1 0]
  [0 1 0]
  [0 1 0]]],[[[1 1 1]
  [0 0 0]
  [0 0 0]
  [0 1 0]
  [1 1 0]]

 [[0 0 0]
  [0 0 0]
  [1 1 1]
  [1 1 1]
  [1 1 1]]

 [[0 0 0]
  [1 1 1]
  [1 1 1]
  [1 1 1]
  [0 0 0]]

 [[1 1 1]
  [1 1 1]
  [1 1 1]
  [0 0 0]
  [0 0 0]]

 [[1 1 0]
  [0 0 0]
  [0 0 0]
  [0 0 0]
  [1 1 1]]],[[[1 1 0]
  [1 1 0]
  [1 1 0]
  [1 1 0]
  [1 1 0]]

 [[0 0 0]
  [0 0 0]
  [1 0 0]
  [1 0 0]
  [1 1 0]]

 [[0 1 0]
  [0 0 0]
  [0 0 0]
  [0 0 0]
  [0 0 0]]

 [[1 1 1]
  [1 1 0]
  [0 0 0]
  [1 0 0]
  [1 1 0]]

 [[1 1 1]
  [1 1 1]
  [0 1 0]
  [0 1 0]
  [0 0 0]]],[[[1 0 0]
  [1 0 0]
  [1 0 0]
  [1 0 0]
  [1 0 0]]

 [[1 1 1]
  [1 0 0]
  [1 1 1]
  [1 1 0]
  [1 1 0]]

 [[0 1 1]
  [0 1 1]
  [1 1 1]
  [1 1 1]
  [0 1 1]]

 [[0 0 1]
  [0 0 0]
  [0 0 0]
  [0 0 0]
  [0 0 0]]

 [[0 1 1]
  [0 0 1]
  [0 1 1]
  [0 1 1]
  [0 1 1]]],[[[0 0 0]
  [0 0 0]
  [0 0 0]
  [0 0 1]
  [0 1 1]]

 [[0 0 0]
  [0 0 0]
  [0 0 0]
  [1 1 1]
  [1 1 1]]

 [[0 0 0]
  [0 0 0]
  [1 0 0]
  [1 1 1]
  [1 1 1]]

 [[0 0 0]
  [1 0 0]
  [0 1 1]
  [1 1 1]
  [1 1 1]]

 [[0 0 0]
  [1 1 0]
  [1 1 1]
  [1 1 1]
  [1 1 1]]],[[[0 1 0]
  [1 1 1]
  [0 0 0]
  [0 0 0]
  [1 1 1]]

 [[0 0 0]
  [1 1 1]
  [1 1 1]
  [0 0 0]
  [0 0 0]]

 [[0 0 0]
  [0 0 0]
  [1 1 1]
  [1 1 1]
  [0 0 0]]

 [[1 1 1]
  [0 0 0]
  [0 0 0]
  [1 1 1]
  [1 1 1]]

 [[1 0 1]
  [1 1 1]
  [0 0 0]
  [0 0 1]
  [1 1 0]]],[[[1 1 0]
  [0 0 0]
  [1 1 1]
  [0 0 0]
  [1 0 0]]

 [[1 1 1]
  [1 1 1]
  [1 1 1]
  [1 1 1]
  [1 1 1]]

 [[0 0 0]
  [0 0 0]
  [0 0 1]
  [0 0 0]
  [0 0 0]]

 [[0 0 0]
  [0 0 0]
  [0 0 0]
  [0 0 0]
  [0 0 0]]

 [[1 1 1]
  [1 1 1]
  [1 1 1]
  [1 1 1]
  [1 1 1]]],[[[1 0 0]
  [1 1 1]
  [1 1 1]
  [1 1 1]
  [1 1 0]]

 [[0 0 0]
  [0 0 0]
  [0 0 0]
  [1 1 1]
  [1 1 1]]

 [[0 0 0]
  [0 0 0]
  [0 0 0]
  [0 0 0]
  [1 1 1]]

 [[1 1 1]
  [0 0 0]
  [0 0 0]
  [0 0 0]
  [1 0 0]]

 [[1 1 1]
  [1 1 1]
  [0 1 1]
  [0 0 1]
  [0 1 0]]],[[[0 0 0]
  [0 1 0]
  [1 1 1]
  [1 1 1]
  [0 0 0]]

 [[0 1 0]
  [1 1 1]
  [1 1 1]
  [0 0 0]
  [0 0 0]]

 [[1 1 0]
  [1 1 1]
  [0 0 0]
  [0 0 0]
  [1 0 1]]

 [[1 1 1]
  [1 0 1]
  [0 0 0]
  [0 0 0]
  [1 1 1]]

 [[1 0 1]
  [0 0 0]
  [0 0 0]
  [1 1 1]
  [1 1 1]]],[[[1 0 0]
  [1 1 1]
  [0 0 0]
  [0 0 0]
  [1 1 1]]

 [[0 1 0]
  [1 1 1]
  [0 0 0]
  [0 0 0]
  [1 1 1]]

 [[1 0 1]
  [1 1 1]
  [0 0 0]
  [0 0 0]
  [1 1 1]]

 [[0 1 0]
  [1 1 1]
  [0 0 0]
  [0 0 0]
  [1 1 1]]

 [[0 1 0]
  [1 1 1]
  [0 0 0]
  [0 0 1]
  [1 1 1]]],[[[0 1 0]
  [0 1 0]
  [0 1 0]
  [0 0 0]
  [0 1 1]]

 [[1 1 0]
  [1 0 0]
  [1 0 0]
  [1 1 0]
  [1 1 0]]

 [[1 1 0]
  [1 1 0]
  [1 1 0]
  [1 1 0]
  [1 0 0]]

 [[1 0 0]
  [1 1 0]
  [1 1 0]
  [1 1 0]
  [1 0 0]]

 [[1 0 0]
  [1 1 0]
  [1 1 0]
  [1 1 0]
  [1 0 0]]],[[[0 0 1]
  [1 0 1]
  [1 0 1]
  [1 0 0]
  [1 0 1]]

 [[1 0 1]
  [1 0 1]
  [1 0 0]
  [1 0 0]
  [1 0 0]]

 [[1 0 1]
  [1 0 1]
  [0 0 0]
  [1 0 0]
  [1 0 0]]

 [[1 0 1]
  [0 0 0]
  [0 0 0]
  [1 0 0]
  [1 0 1]]

 [[0 0 1]
  [0 0 0]
  [1 0 1]
  [1 1 1]
  [0 1 0]]],[[[1 1 1]
  [0 0 0]
  [0 0 0]
  [1 1 1]
  [1 0 0]]

 [[0 1 0]
  [1 0 0]
  [1 1 1]
  [1 1 1]
  [0 0 0]]

 [[0 0 0]
  [1 1 1]
  [1 1 1]
  [0 0 0]
  [0 0 1]]

 [[0 1 1]
  [1 1 1]
  [0 0 0]
  [0 0 0]
  [1 1 1]]

 [[1 1 0]
  [1 0 0]
  [0 0 0]
  [1 1 1]
  [0 0 1]]],[[[0 1 1]
  [0 1 0]
  [0 1 0]
  [1 1 0]
  [1 0 1]]

 [[0 1 1]
  [0 1 1]
  [0 1 0]
  [0 1 1]
  [1 1 1]]

 [[0 0 0]
  [0 0 0]
  [0 0 0]
  [0 0 0]
  [0 0 1]]

 [[0 0 1]
  [0 0 0]
  [0 0 0]
  [0 0 0]
  [0 0 1]]

 [[0 1 1]
  [0 1 0]
  [0 0 0]
  [1 1 1]
  [1 1 1]]],[[[1 0 0]
  [0 1 1]
  [0 0 1]
  [0 1 1]
  [0 0 1]]

 [[1 1 0]
  [1 0 0]
  [0 1 1]
  [0 1 1]
  [0 1 1]]

 [[1 0 0]
  [1 1 0]
  [1 0 0]
  [0 0 1]
  [0 1 1]]

 [[1 1 0]
  [1 0 0]
  [1 0 0]
  [0 0 1]
  [0 1 1]]

 [[1 1 0]
  [1 1 0]
  [1 0 0]
  [1 0 0]
  [0 0 1]]],[[[0 0 0]
  [0 1 0]
  [0 1 1]
  [0 1 0]
  [0 1 0]]

 [[0 1 1]
  [0 1 1]
  [0 1 1]
  [0 1 1]
  [0 1 1]]

 [[0 1 1]
  [0 1 1]
  [0 0 1]
  [0 0 1]
  [0 0 1]]

 [[0 1 1]
  [0 0 1]
  [0 1 1]
  [0 1 1]
  [0 1 1]]

 [[0 1 1]
  [0 0 1]
  [0 1 1]
  [0 0 1]
  [0 1 0]]],[[[0 1 0]
  [0 1 0]
  [0 1 0]
  [0 1 0]
  [0 1 0]]

 [[1 1 0]
  [1 1 1]
  [1 1 0]
  [1 1 1]
  [1 1 0]]

 [[0 1 0]
  [0 1 0]
  [0 1 0]
  [0 1 0]
  [0 1 0]]

 [[0 1 0]
  [0 1 0]
  [0 1 0]
  [0 1 0]
  [0 1 0]]

 [[1 1 0]
  [1 1 0]
  [0 1 0]
  [1 1 1]
  [1 1 0]]],[[[1 1 1]
  [0 0 0]
  [0 0 0]
  [1 1 1]
  [0 1 0]]

 [[1 1 1]
  [0 0 0]
  [0 0 0]
  [0 1 1]
  [1 1 1]]

 [[1 1 1]
  [0 0 0]
  [0 0 0]
  [1 0 0]
  [1 1 1]]

 [[1 1 1]
  [1 0 0]
  [0 0 0]
  [0 0 0]
  [1 1 1]]

 [[1 1 1]
  [0 1 1]
  [0 0 0]
  [0 0 0]
  [1 1 1]]],[[[0 1 1]
  [0 0 0]
  [0 0 0]
  [0 0 0]
  [0 0 0]]

 [[1 1 1]
  [1 1 1]
  [1 0 0]
  [0 0 0]
  [0 0 0]]

 [[1 1 1]
  [0 1 1]
  [1 0 0]
  [1 0 0]
  [0 0 0]]

 [[1 1 1]
  [0 1 1]
  [0 1 1]
  [0 0 0]
  [0 0 0]]

 [[1 1 1]
  [1 1 1]
  [1 1 1]
  [1 1 1]
  [1 1 0]]],[[[1 1 1]
  [1 1 1]
  [1 1 1]
  [1 1 1]
  [1 1 1]]

 [[1 0 1]
  [1 1 1]
  [1 1 1]
  [1 1 1]
  [1 0 1]]

 [[1 0 0]
  [1 0 0]
  [1 0 0]
  [1 0 0]
  [1 0 0]]

 [[1 0 0]
  [1 0 0]
  [1 0 0]
  [1 0 0]
  [1 0 0]]

 [[0 0 0]
  [1 0 0]
  [1 0 0]
  [0 0 1]
  [0 0 0]]],[[[0 0 1]
  [0 0 0]
  [0 0 0]
  [0 0 0]
  [0 0 0]]

 [[0 0 0]
  [0 0 0]
  [0 0 0]
  [0 0 0]
  [0 0 0]]

 [[0 1 0]
  [0 1 0]
  [0 1 1]
  [1 1 0]
  [0 1 0]]

 [[1 1 1]
  [1 1 1]
  [1 1 1]
  [1 1 1]
  [1 1 1]]

 [[1 1 1]
  [1 1 1]
  [1 1 1]
  [1 1 1]
  [1 1 1]]],[[[0 0 0]
  [1 0 0]
  [1 1 1]
  [0 1 1]
  [0 1 1]]

 [[0 0 0]
  [0 0 0]
  [1 1 0]
  [1 1 1]
  [1 1 1]]

 [[0 0 0]
  [0 0 0]
  [1 0 0]
  [1 1 1]
  [1 1 1]]

 [[0 0 0]
  [0 0 0]
  [0 1 1]
  [1 1 1]
  [1 1 1]]

 [[0 0 0]
  [0 0 0]
  [1 0 0]
  [1 1 1]
  [1 1 1]]],[[[0 1 1]
  [0 1 1]
  [1 1 0]
  [1 0 0]
  [0 0 0]]

 [[1 1 1]
  [1 1 1]
  [1 1 0]
  [0 0 0]
  [0 0 0]]

 [[1 1 1]
  [1 1 1]
  [1 0 0]
  [0 0 0]
  [0 0 0]]

 [[1 1 1]
  [1 1 1]
  [0 1 1]
  [0 0 0]
  [0 0 0]]

 [[1 1 1]
  [1 1 1]
  [0 0 1]
  [0 0 0]
  [0 0 0]]],[[[0 1 0]
  [1 1 1]
  [0 1 0]
  [0 1 1]
  [0 1 1]]

 [[0 1 0]
  [0 1 0]
  [0 1 0]
  [0 1 0]
  [0 1 0]]

 [[0 1 0]
  [0 1 0]
  [0 1 0]
  [0 1 1]
  [0 1 0]]

 [[0 1 0]
  [0 1 0]
  [0 1 0]
  [0 1 1]
  [0 1 0]]

 [[1 1 0]
  [1 1 1]
  [0 1 0]
  [0 1 0]
  [1 1 1]]],[[[1 1 1]
  [1 1 1]
  [0 1 0]
  [0 0 0]
  [0 0 0]]

 [[1 1 1]
  [1 1 1]
  [0 1 0]
  [0 0 0]
  [0 0 0]]

 [[1 0 0]
  [0 0 0]
  [0 0 0]
  [1 1 1]
  [1 1 1]]

 [[0 0 0]
  [0 0 0]
  [1 0 1]
  [1 1 1]
  [1 1 1]]

 [[0 0 0]
  [1 0 0]
  [1 1 1]
  [0 1 1]
  [0 1 1]]],[[[0 0 0]
  [1 0 0]
  [1 1 1]
  [1 1 1]
  [0 0 0]]

 [[0 1 1]
  [0 0 0]
  [0 0 0]
  [1 1 1]
  [1 1 1]]

 [[1 1 1]
  [0 1 0]
  [0 0 0]
  [0 0 0]
  [1 1 1]]

 [[1 1 1]
  [1 1 1]
  [0 0 0]
  [0 0 0]
  [1 0 1]]

 [[0 0 0]
  [1 1 1]
  [1 1 1]
  [0 0 0]
  [0 1 0]]],[[[1 0 0]
  [1 1 1]
  [0 0 1]
  [0 0 0]
  [1 1 1]]

 [[1 0 0]
  [1 1 1]
  [0 1 1]
  [0 0 0]
  [1 1 1]]

 [[0 0 0]
  [1 1 1]
  [0 0 1]
  [0 0 0]
  [1 1 0]]

 [[0 0 0]
  [1 1 1]
  [0 1 1]
  [0 0 0]
  [1 1 0]]

 [[0 0 0]
  [1 1 1]
  [0 1 1]
  [0 0 0]
  [1 1 0]]],[[[0 0 0]
  [1 1 1]
  [1 1 1]
  [0 0 0]
  [1 0 1]]

 [[0 0 0]
  [1 1 1]
  [1 1 0]
  [0 0 0]
  [0 1 1]]

 [[0 0 0]
  [1 1 1]
  [1 1 1]
  [0 0 0]
  [1 0 1]]

 [[0 0 0]
  [1 1 1]
  [1 1 0]
  [0 0 0]
  [0 1 1]]

 [[0 0 1]
  [1 1 1]
  [1 1 0]
  [0 0 0]
  [0 0 1]]],[[[1 1 1]
  [1 1 1]
  [1 1 0]
  [1 1 0]
  [1 0 0]]

 [[1 1 1]
  [1 0 0]
  [1 0 0]
  [0 0 0]
  [0 0 1]]

 [[1 1 0]
  [0 0 0]
  [0 0 0]
  [0 0 0]
  [0 1 1]]

 [[1 0 0]
  [0 0 0]
  [0 0 1]
  [0 1 1]
  [0 1 1]]

 [[1 0 0]
  [0 1 1]
  [0 1 1]
  [1 1 1]
  [0 1 1]]]};

float bn1_alpha1[N_BN1_ALPHA1] = {3.2948668060986592,4.880586407224664,1.6249744882949826,2.695806428025219,4.60416031996479,11.957111163348243,3.8348289638317343,10.006113137331702,3.481814575060252,3.121233701173918,6.463625375145531,4.135524210819106,3.560867750048201,1.972775148863458,4.4987054002785225,2.2063786433884136,11.327982885820116,3.265752163450678,2.5947129904212156,6.658882784590491,2.058800185275586,8.379597616741414,5.474991566911692,7.017464933982612,3.3117602282527963,3.80969776226285,2.2411222864239253,3.130958177008685,3.3613280290797025,3.606381773926305,2.7440230402754393,3.9119903407828716};

float bn1_alpha2[N_BN1_ALPHA2] = {0.39099167635216364,0.09814984374395362,0.22931711503357957,0.2188716277755808,0.2802181986216723,0.1647498474514377,0.34372084092606137,0.16248063294534196,0.2983099442868596,0.4459350963233167,0.24006522233631844,0.26537446448500035,0.2840843515936909,0.14197658752719464,0.23765462478640112,0.5274331015527609,0.14332156539861737,0.4204124295551012,0.14560935412012782,0.1892613804449396,0.5254957385241071,0.1629831739526093,0.07217563697075181,0.15396122682051372,0.32111561603415884,0.33284882386688996,0.32654321465194924,0.3745186386565475,0.3604257884960258,0.3025598190029506,0.41885663262089506,0.41040015030307125};

int conv2_wt[N_CONV2_WT] = {520793496,462989724,-1970935652,-1949177836,-1885878160,-1616336712,-1950291812,-1950291812,-1954162538,-1954035504,-1681086306,-1950222146,-876218210,-1948858218,-1631593107,-1948731202,-880478058,-1948919626,-654403265,482284843,-880498662,-875243470,-540239830,478024995,1955397929,487155437,492992492,431170733,1541547138,-920581726,-1895177988,-1929238884,-1954372401,199624915,-1688009629,-1895208804,-1886738276,-1949946154,-1947826221,192282947,118089884,-1887000428,-1886417708,-1680465982,461325635,101394616,-1894012724,-7938348,-10493999,2069831043,2008692589,2000364839,875500833,543532773,-257693977,367666989,931005805,457057577,913192261,840972109,926033229,524158219,522585377,1396049155,305538337,365418095,889587011,356386057,1060508937,1932928361,-722470938,-455094074,1812827522,1897323975,2020801807,-1382299280,-274736910,-1425683760,-2008749922,-364254564,-1886192738,-807995174,-275973926,-939205998,-2142762348,-279135784,-270861860,-338237294,-1609823598,1073745926,-1076691112,2138813805,1425147237,271385891,2163235,-1879964631,1035683693,1899890021,1903568231,1885435175,111979098,388024155,360867681,1167853121,901514753,-426971558,1056173951,1385383791,818141037,1637832281,35716864,2058420085,988872565,464742245,346247013,1351468625,581005173,1353901941,1542612837,411256613,1070493708,466118500,729874037,-74383595,2073049092,384971274,1605441387,467732259,295012303,1620325964,532719369,1475483501,2146666273,1609631587,886900577,997209865,1475491653,1072838469,1597150979,1464876801,597485327,1941591885,2075301829,2079465285,1408370197,1900828493,58459983,331118341,2008954626,264110080,2050967525,918246965,1327548981,-11413324,-912270092,-1899112924,911242009,520682333,1464921884,231525172,235464856,236993304,1410902809,353418013,480553757,743504536,651735836,1687724877,1959833373,955294541,1746481810,1288222489,76066649,611366671,1923136325,1587473204,-1701328522,294634837,59758977,421492993,-895358732,-1964770954,-1683764873,428332471,496585089,-895358248,-1885214540,-1078863435,496192949,1025320353,-1901991748,-878581572,-878589804,2143503789,497484201,-1347831656,-1881032516,-1884182356,935657900,1837445417,76088026,210577115,1918129447,1397939588,2073484677,72165114,351020747,989213996,1930943780,1796274572,-2067175702,82585290,371341095,-15475451,-552408176,-2066914562,-2033450247,-1162176139,2132270949,2140839313,-2117769474,-2134376294,-1411041022,2064907655,2065076481,1348552319,460811742,2049973255,2049973521,372329635,1920038638,1668445358,1920348196,1798707233,1731288228,-1057409331,1937142958,2067148800,2067140608,-416198496,-1593872644,-469877522,1651914766,2067667200,1195332001,-2063597858,-1569734946,-1031885415,-499214336,-2042638270,659689728,1530009563,1940954777,2071117778,184597010,2008221473,2142443341,-1649078447,-1880629538,-368977166,389502949,-537704475,-1612460043,-1612591115,-1616519434,1102014156,-2136250673,199435999,-1679612161,-1696370945,18818058,55321158,20980234,-2109399038,-1975181278,-1911633742,-1625408103,421443841,-1726077457,-1138876179,-2040637324,-14772075,2031230221,1935308197,1159491788,-149497536,-15540836,2064685313,2131784879,-520030116,-277456464,2131926421,1796258180,-82773784,1750612155,-1506501226,2098370957,-785340260,-918913829,1879582655,522915209,469116395,452109733,-1622528755,520761097,453462018,468846019,464659757,536028653,355083629,-884615022,469224843,468854221,464725357,398075309,-1973565294,-882517870,468141455,468854061,531834117,-827352912,-1023027018,-1964947268,460418313,464594309,-552310272,-284639431,243449629,-99423404,525223021,1864250121,-10830055,-91160715,1867946773,458382608,2082126601,-48719023,1041940249,1528475477,-32056464,1007576939,-1805775013,1745660761,-1743996329,-98641034,-1874010005,1346905955,411608954,684632949,-1865511882,47054856,-2033973142,-1698375626,-875372833,-40863510,-1027342296,-338180046,-2695209,-2687009,1670396072,-539633102,-2958377,-74383467,-107955560,1091614744,-1633944589,-640221289,-1719620643,-846680424,537534984,147745473,-1718980641,13115986,-2142477708,-2146538950,428890949,25461046,512630595,1606385921,532586320,467069206,332853511,969704707,364776811,1321079043,1674639372,1540668687,1004155149,1977386247,1071425802,550565645,1943043868,2023027981,349863215,1959567402,1981298505,-82264307,2064711484,1520367139,-2067239302,76030581,-1060328812,-1886856560,-15279206,420851003,349128557,-2066879882,-850732910,-11338571,2066822442,-2066798733,-2066881922,-318047594,-80569216,2066880648,-2064783745,-2066913539,-1084482412,-349038464,1932529800,-1731205515,-2000066953,-1504922212,2066911617,1932595592,-1343309742,-1883592493,-1610650669,-1678807337,451307479,151656448,-881166302,-346556234,-614996521,310797615,1798846600,1798846602,-482905984,-210341722,1399873608,621425672,-482994046,-485011328,-478784377,-217022968,498742816,-12962460,-9208663,-346816571,-1903153576,-1489879677,-12927538,859713949,611254346,-2033384950,-210554492,-214287988,-415616824,-1527954718,-1530019088,1932735620,-80594548,-163924355,-2064824586,-2068853007,1668512932,1933185160,-470136596,-2064693511,-1259386891,1664268296,-349030268,-482414580,-2065889596,-1527838876,253755913,-550102078,-72966205,523671506,260309160,-1925804429,-71902253,-608772109,-71905293,1577320954,430868563,1509857619,-69297837,2063523155,-98694701,952511607,1640925282,818842722,181326178,-1965151821,2144501100,1968331820,13463656,-1605871442,-329666,-460483901,-460520638,109904475,245013466,1607541370,-460516661,-322010414,-1932621096,-1882280998,-2083462177,260999760,-1882279972,-1886606632,-476123436,-1887411235,-993019884,-1477642028,-338240812,-1950038060,-1043139635,1664473140,1668732964,-342370044,-212348732,-469403179,2132070660,1731989505,873236772,1694765108,1864275972,2069278989,2068855043,2099028224,1668593670,2069018904,957528321,2031270145,2064693523,2050013458,1779738898,425666539,2078252923,-119558273,-361768105,-360723846,13453169,-1630972299,-1939257603,-1983134083,-1913796874,-1005655846,-468854018,-200419457,1410275181,909055273,-414521140,-429990864,-144711811,-178299087,828179753,-1021674203,-147793644,-32383211,-49029227,1964072201,454697993,-747495615,-552149165,2131795863,-32448880,403318019,405417315,413764935,-1467373550,-1969182702,2059550724,1372674055,-775464954,1086622363,281382923,47203876,-1609481692,-2055087596,-2071199020,-2071198104,-2069837839,-727450640,-2071861262,-2071190789,-1800632725,1807662044,2109717498,-438390818,82585309,883828717,-476530472,1941617503,1710273486,548938443,1890596687,1396716335,1269213983,182887038,-1549080044,782950992,1514827583,-1966151817,-1966150785,-1966448011,-2079374732,457287287,-1689604261,-1678776453,-1888582831,-1909652992,-1639829895,-1621979267,-1882943663,-1895559599,-1895495808,-10441104,-1625252239,-6943151,-15428864,2130973448,97348123,13574282,-2133908934,-2133973397,351019627,-926123038,-2141450234,-2141321144,819868784,419169576,-225395664,1985404797,-111747771,1934810385,-82649276,2142289408,-15671451,-7086219,-15671340,-279913584,244322824,-17301649,-1075970177,1300588244,265300608,458657037,433071909,530352445,247523640,-1895503848,456398125,465708821,467446193,-1968387941,-821774184,454470407,458271127,467970449,-1956210671,-1961056104,457449363,440585621,415291673,-1693914338,1561102778,465882046,-1951618155,-1951879267,230206256,530481207,454379523,198667527,433153029,-1716554297,-1783087384,461327397,469132589,469132645,-1713740019,-1735496065,-549544671,527850789,1542909221,-1680119953,426456655,2132743177,2134252801,2067158305,464676653,1480812397,1964905512,2134807809,1060510977,2066910465,1977624425,-1599871257,1088710390,15491686,-1595644314,1626306406,-523706659,-251723777,-220268553,-235110409,-252809348,1637226048,-404873664,-472080832,-208366016,-226228736,1687426753,-426502584,-409725360,-443279792,-189786552,1725507177,616830536,1686124104,-443244984,-460246312,263701805,463865941,193121229,-1617768508,-1953270323,-1616411327,535168849,464389953,199378641,-1652404523,514754145,464389953,162399825,231474769,-1920457775,-1901090993,481175159,149890687,-1999689873,-1731239425,-1095854056,418251869,149431401,-2000149395,-1664605907,-1954543472,-2099091238,69825772,287450312,271197440,-913528232,-1951959426,-1519425681,91121133,78390281,-1601185198,-458240138,-184563857,-39441,337339695,-2002327344,-71835661,-201336841,2079553007,279848297,1665144832,-479027373,-78454845,2079497698,995238144,411993872,-1900471682,-1948787914,189815478,789881498,-2134025639,-816190790,-346891532,-284099946,-352310632,-1883182448,-284099874,-1957627244,-351208812,257206800,-1010763048,-351077738,-351209324,-350954856,-484697320,-1547687280,-350798958,-2091083214,-417407280,-2040620432};

float shift2[N_SHIFT2] = {[[[0 0 0 1 1 0 0 1 1 0 1 1 0 1 0 1 0 1 0 1 0 0 0 0 1 1 1 1 1 0 0 0]
  [0 0 1 1 1 0 0 1 1 0 0 1 0 1 0 1 0 0 0 1 1 0 0 1 1 1 0 1 1 0 0 0]
  [0 0 1 1 1 0 0 1 0 0 0 1 0 1 1 1 1 0 1 0 0 0 0 1 0 1 0 1 0 0 0 1]
  [0 0 1 0 1 0 0 0 0 0 0 1 0 1 1 1 1 0 0 0 1 0 1 1 1 1 0 1 0 0 0 1]
  [0 0 0 0 1 1 1 0 0 0 0 1 0 0 1 1 1 1 1 0 1 0 0 1 1 1 1 1 0 0 0 1]]

 [[0 0 0 1 1 1 0 1 0 0 0 1 0 1 0 1 0 0 0 1 0 1 0 1 1 1 1 1 1 0 0 1]
  [0 0 1 1 1 0 0 1 0 0 0 1 0 1 1 1 0 0 0 0 0 0 1 1 1 1 0 1 0 0 0 1]
  [0 0 1 1 1 0 0 1 0 0 0 1 0 1 1 1 0 0 0 0 0 0 1 1 1 1 0 1 0 0 0 1]
  [0 1 1 0 1 0 0 1 0 0 0 1 1 0 1 1 1 0 1 0 0 0 0 1 1 1 0 1 0 0 0 1]
  [0 0 0 0 1 0 1 1 0 0 0 1 0 0 1 1 1 1 1 0 0 0 0 1 1 1 0 1 0 0 0 1]]

 [[0 1 1 1 1 0 0 1 0 0 0 1 0 1 0 1 0 0 1 1 0 0 1 1 1 1 0 1 1 0 0 1]
  [0 1 1 1 1 1 0 1 0 0 0 1 1 1 1 1 1 0 0 0 0 0 1 1 1 1 0 1 0 0 0 1]
  [0 1 1 1 1 0 0 1 0 0 0 1 1 1 1 1 1 0 1 0 0 0 1 1 1 1 0 1 0 0 1 1]
  [0 1 1 0 1 0 0 1 0 0 0 1 0 0 1 1 0 1 1 0 1 0 1 1 1 1 0 1 0 0 0 1]
  [1 0 1 1 0 1 1 0 1 0 1 1 1 0 1 1 1 1 1 1 1 1 0 1 0 1 1 1 1 0 0 1]]

 [[0 1 1 1 1 1 0 1 0 0 0 1 1 1 0 1 0 0 0 1 1 0 1 1 1 1 0 1 0 0 0 1]
  [0 1 1 0 1 0 0 1 0 0 0 1 1 1 1 1 0 0 1 0 0 0 0 1 1 1 0 1 0 0 1 1]
  [0 1 1 0 1 1 0 1 0 0 0 1 1 0 1 1 1 0 1 0 1 0 1 1 1 1 0 1 0 0 0 1]
  [1 1 1 1 1 1 0 0 1 0 0 1 1 0 0 1 0 1 1 1 1 1 1 1 0 0 0 1 1 0 1 1]
  [1 1 0 1 0 1 0 0 1 0 1 0 1 0 0 0 1 1 1 1 1 1 0 1 0 0 1 1 1 0 0 0]]

 [[0 1 0 1 1 0 0 0 0 0 0 1 0 1 0 1 0 0 1 0 0 0 0 1 1 1 0 1 0 0 1 1]
  [0 1 0 0 1 1 0 0 0 0 0 1 1 0 1 1 0 0 1 0 1 0 1 1 1 1 0 1 0 0 1 1]
  [0 1 0 1 0 1 0 0 0 0 0 1 1 0 0 1 0 0 1 1 0 0 1 1 1 1 1 1 1 0 1 1]
  [1 1 0 0 0 1 0 0 1 0 1 0 1 0 0 0 0 1 1 1 1 1 1 0 0 0 1 1 1 0 0 0]
  [1 0 0 1 0 1 0 0 1 0 0 0 0 0 0 0 1 0 1 1 0 0 0 1 0 0 1 0 1 1 1 0]]],[[[1 0 1 1 0 1 1 1 0 1 1 0 0 1 1 0 1 0 0 1 0 0 0 0 1 0 1 1 1 0 0 0]
  [0 0 1 1 0 1 1 1 1 1 1 0 1 1 1 0 0 1 0 0 0 1 1 0 1 0 1 1 1 0 0 0]
  [1 0 1 1 0 1 0 1 0 0 1 0 0 1 0 0 1 1 0 0 1 1 0 1 1 0 0 1 1 0 0 0]
  [0 1 0 0 0 0 0 1 0 0 1 0 0 1 0 0 0 1 0 0 0 1 1 1 1 1 0 1 1 0 1 0]
  [0 1 0 0 0 1 0 1 1 0 0 1 0 0 0 0 1 0 0 0 0 1 0 0 1 0 0 1 0 0 1 1]]

 [[0 0 1 1 1 1 1 1 0 0 0 0 0 1 1 1 1 0 0 1 0 0 0 0 1 1 1 1 0 0 0 1]
  [0 0 1 1 1 0 0 1 0 1 1 0 0 1 0 0 0 1 0 0 0 0 0 0 1 0 1 1 0 0 0 1]
  [1 1 1 1 0 0 1 1 0 0 1 0 0 1 0 1 0 1 0 0 0 0 0 1 1 1 0 1 0 0 0 1]
  [1 1 0 0 1 0 1 1 0 0 0 1 0 0 0 0 0 1 1 0 0 1 1 1 1 1 0 1 0 0 0 0]
  [1 1 0 0 0 1 1 0 0 0 1 0 0 0 0 0 1 1 0 0 0 1 1 0 1 1 0 1 1 0 0 1]]

 [[0 0 1 1 1 0 0 1 0 0 0 1 0 1 1 0 1 0 0 1 0 0 0 0 1 1 1 1 0 0 0 1]
  [0 0 1 1 1 0 0 1 0 0 0 1 0 1 0 1 0 1 0 1 0 0 0 1 1 1 1 1 0 0 0 1]
  [0 1 1 0 1 0 1 1 0 1 1 1 0 1 0 0 0 1 1 0 0 0 1 1 1 1 0 1 0 0 0 1]
  [1 1 0 0 1 0 1 1 1 1 1 0 0 0 0 1 0 1 1 0 0 1 1 1 1 1 0 1 0 0 0 1]
  [1 1 0 0 0 0 1 0 1 0 0 0 0 0 0 0 0 1 1 0 1 1 1 0 1 1 0 1 0 0 0 0]]

 [[0 0 1 1 1 0 0 1 0 0 0 1 0 1 1 1 1 0 0 1 0 0 0 0 1 1 1 0 0 0 0 0]
  [0 0 1 0 1 0 0 1 0 0 0 1 0 1 0 1 0 1 1 0 0 0 0 1 1 1 1 1 0 0 0 1]
  [0 0 1 0 1 0 1 1 0 0 1 1 0 0 0 1 1 1 1 1 0 0 0 1 1 1 1 1 0 0 0 1]
  [0 1 0 0 0 0 1 1 1 1 1 1 1 0 0 0 0 1 1 0 1 0 1 1 1 1 0 1 1 0 0 1]
  [1 1 0 0 0 0 1 0 1 0 1 0 0 0 1 0 1 1 1 1 1 1 1 0 1 1 0 1 1 0 0 0]]

 [[0 0 0 1 1 1 0 1 0 0 0 1 0 1 0 0 1 1 0 1 0 0 0 0 0 1 1 0 0 0 0 0]
  [0 0 1 1 0 0 1 1 0 0 0 1 0 1 0 1 1 1 0 1 1 0 0 0 1 1 1 1 0 0 0 1]
  [0 0 1 0 1 0 1 1 0 1 1 1 1 0 1 1 0 1 1 0 0 0 0 1 1 1 1 1 1 1 1 1]
  [1 0 0 0 1 0 1 1 1 1 1 1 1 0 1 1 1 1 1 1 1 0 1 0 1 1 1 1 1 1 1 1]
  [1 1 0 0 0 0 0 1 1 0 1 1 1 0 0 0 1 1 1 1 1 0 1 0 1 1 0 1 1 1 1 0]]],[[[1 0 1 1 0 1 1 0 1 1 1 0 1 1 0 0 0 1 0 1 1 1 0 1 1 1 1 0 1 1 1 0]
  [1 1 1 0 0 1 0 0 1 0 1 0 0 1 0 0 1 1 0 1 1 1 0 0 1 1 1 0 1 1 1 0]
  [1 0 0 0 0 1 0 0 1 0 1 0 1 0 0 0 1 1 1 1 0 1 0 0 0 0 1 0 1 1 0 0]
  [1 0 1 0 0 1 1 1 0 1 1 0 0 1 0 1 1 0 1 0 0 1 1 0 0 0 0 0 0 1 0 0]
  [1 1 1 0 0 1 1 1 0 1 1 0 0 1 1 1 1 1 0 0 0 1 0 1 0 0 0 0 1 1 1 1]]

 [[1 0 1 1 0 1 0 0 1 1 1 0 0 1 0 0 0 1 0 1 0 1 1 1 1 0 1 0 1 0 0 0]
  [1 0 1 1 0 1 1 0 1 0 1 0 0 0 0 0 0 1 1 1 1 1 1 0 1 1 1 0 1 1 0 0]
  [1 0 0 1 0 1 0 0 1 0 1 0 0 1 0 0 0 1 1 1 1 1 0 0 1 1 0 1 1 0 0 0]
  [1 0 1 0 0 0 1 0 1 0 1 0 1 1 0 0 0 1 1 1 0 1 1 0 0 1 1 0 1 1 0 0]
  [1 0 1 1 0 0 1 0 1 1 1 0 1 1 0 0 0 0 0 0 0 1 0 0 0 1 0 0 1 1 0 0]]

 [[1 0 1 1 0 0 1 0 1 0 1 0 0 1 0 0 0 1 0 0 1 1 0 0 1 1 1 0 1 1 0 0]
  [1 1 0 1 0 0 0 0 1 0 1 0 0 0 0 0 0 1 1 1 1 1 0 0 1 1 1 1 1 0 0 0]
  [1 0 0 0 0 1 0 0 1 0 1 0 0 0 0 0 0 1 1 0 0 1 0 0 1 1 1 1 1 0 0 0]
  [1 1 0 0 0 0 0 0 1 0 1 0 0 0 0 0 0 1 1 0 1 1 0 0 1 1 0 0 1 0 1 0]
  [1 0 0 0 0 1 0 0 1 0 1 0 0 1 0 0 0 1 1 0 1 1 0 0 0 1 0 0 1 0 0 0]]

 [[1 1 1 1 0 1 1 0 0 1 1 0 1 0 1 1 1 1 1 0 0 0 1 1 1 0 1 0 1 0 0 0]
  [1 1 0 0 0 0 1 0 1 0 1 0 0 0 0 0 0 1 1 0 0 0 0 0 1 0 1 0 1 1 0 0]
  [1 0 0 1 0 0 0 0 1 0 1 0 0 0 0 0 0 1 1 1 1 1 0 0 1 0 1 0 1 0 0 0]
  [1 0 0 1 0 0 0 0 1 0 1 0 1 0 0 0 0 1 1 0 1 1 0 0 1 1 1 1 1 1 0 0]
  [1 0 0 1 0 1 1 0 1 0 1 0 0 1 0 0 0 1 1 0 1 1 0 0 1 1 0 0 1 1 1 0]]

 [[0 1 1 0 0 1 1 1 1 1 1 0 1 1 1 1 1 1 1 1 0 1 1 1 0 0 1 0 1 0 1 1]
  [0 1 1 0 0 0 1 1 0 0 0 0 1 0 1 1 1 1 1 1 1 0 1 1 0 0 1 0 0 1 1 1]
  [0 1 0 0 0 0 0 1 1 0 1 1 0 0 0 1 1 0 1 1 0 0 0 0 0 0 1 1 0 1 1 0]
  [1 1 1 0 0 0 1 1 1 0 1 1 1 0 1 1 0 1 1 0 1 0 0 0 1 0 0 0 1 1 1 0]
  [1 1 1 1 0 0 0 0 1 0 1 1 1 1 1 1 0 1 0 0 1 1 1 0 0 0 0 1 1 1 1 0]]],[[[0 0 0 0 1 1 1 0 1 0 0 1 0 0 1 1 1 1 0 1 1 0 0 1 1 0 1 1 0 1 0 1]
  [0 1 0 0 1 1 1 1 0 0 0 1 1 0 1 1 1 1 1 1 1 0 0 1 1 1 1 1 0 1 1 1]
  [0 0 0 0 1 0 1 1 0 1 0 1 0 0 1 1 1 0 1 0 0 0 0 0 1 1 0 1 0 1 0 1]
  [0 1 1 1 1 0 0 1 0 0 0 1 0 1 1 1 0 0 1 0 0 0 1 0 0 0 0 1 0 0 0 1]
  [0 0 1 1 1 0 0 1 0 1 0 1 0 1 1 1 1 0 0 1 0 0 1 0 0 1 0 1 0 1 1 1]]

 [[0 1 1 1 1 0 0 1 1 1 0 1 1 1 1 1 0 1 0 0 1 0 0 1 1 1 1 1 0 0 0 1]
  [0 1 0 1 1 0 1 1 0 0 0 1 1 1 1 1 0 1 1 0 1 0 1 1 1 1 1 1 0 0 1 1]
  [0 1 0 1 1 0 1 1 0 0 0 1 1 1 1 1 0 0 1 1 0 0 0 1 1 1 1 1 0 1 1 1]
  [0 1 0 0 1 0 0 1 0 1 0 1 1 0 1 1 0 0 1 0 0 0 0 0 0 0 0 1 0 0 1 1]
  [0 0 1 0 1 0 0 1 0 1 0 1 0 0 0 0 0 0 0 1 0 0 1 0 0 0 0 0 0 0 0 1]]

 [[0 0 0 1 1 0 1 1 1 0 0 1 1 1 0 1 0 0 1 1 1 0 1 0 1 1 1 1 0 1 1 1]
  [0 0 1 1 1 0 1 1 1 0 0 1 1 1 1 1 0 1 0 1 1 0 1 1 1 1 1 1 0 1 1 1]
  [0 1 0 0 1 0 0 1 0 0 0 1 0 1 1 1 0 1 1 0 1 0 1 1 1 1 0 1 0 1 1 1]
  [0 1 0 0 1 0 0 1 0 1 0 1 0 0 0 0 0 0 1 1 0 0 0 0 0 0 0 0 0 1 0 1]
  [0 1 1 0 0 0 0 0 0 0 0 0 1 0 0 0 0 0 0 0 0 0 0 0 0 0 0 0 0 0 1 0]]

 [[0 0 0 1 1 0 1 0 1 1 1 1 1 1 1 1 0 1 0 0 1 0 1 1 1 1 1 1 1 1 0 1]
  [1 0 1 1 0 1 1 0 1 0 1 0 1 1 0 1 1 1 0 1 1 1 1 0 1 1 1 1 1 1 1 0]
  [1 0 1 0 0 1 1 0 1 0 1 0 0 0 0 0 0 1 0 0 1 1 1 1 0 0 1 0 1 0 1 0]
  [1 1 0 0 0 1 0 0 1 0 1 0 0 0 0 0 1 0 1 1 0 1 0 0 0 0 0 0 1 0 0 0]
  [1 1 0 0 0 1 0 0 0 1 0 0 0 0 0 0 1 0 0 0 0 1 0 0 0 0 0 0 0 0 0 0]]

 [[1 0 0 1 0 1 0 0 0 0 1 0 0 0 0 0 0 1 0 0 1 1 1 1 1 1 1 1 0 0 0 1]
  [1 0 1 1 0 1 1 0 1 1 1 0 0 0 1 0 1 1 0 1 1 1 0 1 1 0 1 1 1 1 0 0]
  [1 0 1 0 0 1 1 0 1 0 1 0 0 0 0 0 0 1 1 1 1 1 0 0 1 0 0 0 1 1 1 0]
  [1 1 1 0 0 1 1 0 1 0 1 0 0 1 0 0 0 1 1 0 1 1 1 0 1 0 0 0 1 1 1 0]
  [1 1 1 0 0 1 0 0 1 0 1 0 1 1 1 0 1 0 0 0 0 1 1 0 0 0 0 0 1 1 1 0]]],[[[0 1 0 1 1 0 1 0 0 1 0 1 0 1 0 1 0 0 1 1 0 1 0 1 0 1 1 0 0 0 0 0]
  [1 1 0 1 1 0 1 0 1 1 1 0 0 0 1 1 0 0 0 0 0 1 0 0 1 1 1 0 1 0 0 0]
  [1 0 0 0 0 1 1 0 1 1 1 0 0 1 1 0 0 1 0 0 0 0 0 1 1 0 1 0 1 0 0 0]
  [1 0 0 0 0 0 1 0 0 1 1 0 0 0 0 0 0 0 1 1 1 0 0 1 1 0 1 0 0 0 1 0]
  [1 0 0 0 0 0 0 0 0 1 1 0 0 0 0 0 0 0 1 1 1 1 0 1 1 0 1 0 1 1 0 0]]

 [[0 1 0 1 1 0 1 0 0 1 1 1 0 1 1 1 0 0 1 1 0 0 0 1 0 1 1 0 0 1 1 1]
  [1 1 1 1 1 1 1 0 1 1 1 1 0 1 1 1 1 1 0 0 1 1 1 1 0 1 1 1 1 1 0 0]
  [1 1 1 1 0 1 1 0 1 1 1 0 0 0 1 0 1 1 0 0 1 0 0 1 0 1 0 0 1 0 1 0]
  [1 0 1 1 0 1 1 0 1 1 1 0 1 0 1 1 1 1 0 0 0 0 1 1 0 0 0 0 1 1 0 0]
  [1 0 0 1 1 0 1 0 0 1 1 0 1 0 1 0 1 1 1 1 1 0 0 1 1 0 0 0 0 1 1 0]]

 [[0 0 0 0 0 0 0 0 1 1 1 1 1 1 1 1 0 0 0 0 0 1 0 0 0 1 0 0 0 0 0 0]
  [1 0 1 0 1 1 1 0 1 1 1 1 1 1 1 1 0 0 0 0 1 1 0 1 0 1 0 1 1 1 1 0]
  [1 0 1 0 1 1 1 0 1 1 1 1 1 1 1 1 0 0 0 0 1 1 1 1 0 1 0 1 1 1 0 0]
  [1 0 1 0 0 1 1 0 1 1 1 0 0 1 1 0 1 1 0 0 1 1 0 1 1 1 0 1 1 0 0 0]
  [1 0 1 0 0 1 1 0 1 1 1 1 0 0 1 0 1 1 0 0 0 1 0 1 0 0 1 0 1 0 0 0]]

 [[1 0 0 0 1 0 1 0 0 1 1 0 0 0 1 1 1 0 1 1 0 0 0 1 0 0 0 0 1 0 1 0]
  [1 0 1 0 1 1 1 0 1 1 1 1 0 1 1 0 1 0 0 0 0 1 0 1 0 1 0 0 0 1 0 0]
  [1 0 1 0 1 1 1 0 1 1 1 0 0 1 1 1 0 1 0 0 1 1 0 1 0 0 0 0 1 0 1 0]
  [1 0 1 0 0 1 1 0 1 1 1 0 0 1 1 0 0 1 0 0 1 1 1 1 1 1 0 1 1 0 1 0]
  [1 0 1 0 0 1 0 0 1 1 1 0 0 0 1 0 1 1 0 0 0 0 0 1 0 0 0 1 1 0 0 0]]

 [[0 0 1 1 0 0 0 0 0 0 0 0 1 1 1 0 0 1 1 1 0 0 1 1 1 1 1 1 1 1 0 0]
  [0 0 1 0 0 1 1 0 1 1 1 0 0 1 1 0 0 0 0 1 0 0 1 1 1 1 0 1 1 0 0 0]
  [1 0 1 0 1 1 1 0 0 1 1 1 1 1 1 1 0 0 0 0 0 0 0 1 1 1 0 1 0 1 0 0]
  [1 0 1 0 1 0 0 0 1 1 1 1 1 1 1 1 0 0 0 0 1 0 0 1 1 1 0 1 1 1 1 1]
  [0 0 1 0 0 0 0 0 0 0 0 1 1 1 0 0 0 0 0 0 1 0 0 1 1 1 0 1 1 1 1 0]]],[[[0 1 0 1 0 0 0 0 0 1 0 0 1 1 0 0 0 1 0 0 1 1 1 1 0 1 1 0 1 0 0 0]
  [1 1 0 1 0 1 1 0 1 1 1 0 1 0 0 0 1 0 0 0 1 1 0 1 1 1 1 1 1 0 1 0]
  [1 1 0 0 0 1 0 0 1 1 1 0 0 0 0 0 1 0 0 0 0 1 1 1 1 1 0 1 1 0 0 0]
  [1 1 1 1 0 0 1 1 1 1 1 0 0 0 0 1 1 0 1 0 1 0 0 1 1 0 0 0 1 0 0 0]
  [0 0 1 1 0 0 1 0 0 1 1 0 1 1 0 0 0 0 1 0 1 0 0 1 0 0 0 0 0 1 1 0]]

 [[1 0 0 1 0 0 0 0 1 1 1 0 0 1 0 1 0 0 0 0 0 0 1 1 1 1 1 1 1 0 0 0]
  [1 0 1 1 0 1 1 0 1 1 1 0 1 0 0 0 0 1 0 0 1 1 1 1 1 1 1 0 1 0 1 0]
  [1 0 0 0 0 1 0 0 1 1 1 0 0 0 0 1 1 1 0 0 1 1 1 1 1 1 1 1 1 1 1 0]
  [1 1 0 0 0 1 1 0 1 1 1 0 0 0 0 0 1 0 0 0 1 1 1 1 1 1 1 1 1 0 1 0]
  [1 0 0 0 0 1 1 0 1 1 1 0 0 0 0 0 1 0 1 1 1 0 1 1 0 0 1 0 1 1 0 0]]

 [[1 0 0 1 0 0 0 0 1 1 1 0 1 1 0 0 0 0 0 0 1 1 1 0 1 1 0 1 1 1 0 0]
  [1 0 1 0 0 0 1 0 1 1 1 0 1 1 0 0 0 1 0 0 1 1 1 1 1 1 1 0 1 0 1 0]
  [1 0 1 0 0 0 1 0 1 1 1 0 1 1 0 0 0 1 0 0 1 1 1 1 1 1 1 1 1 1 0 0]
  [1 1 0 0 0 0 0 0 1 1 1 0 1 0 0 1 0 1 0 0 1 1 0 0 1 1 1 1 1 0 1 0]
  [1 0 0 0 0 0 0 0 1 1 1 1 1 1 0 0 0 0 0 0 1 0 1 0 1 1 1 0 1 0 1 0]]

 [[1 1 1 1 0 0 0 0 1 1 1 0 0 1 1 1 0 0 1 1 1 0 0 1 1 1 0 0 0 1 0 0]
  [1 0 1 1 0 0 1 0 1 1 1 0 1 0 1 0 0 1 0 1 1 1 0 1 1 1 0 0 1 1 1 0]
  [1 0 1 0 0 0 1 1 1 1 1 0 1 0 0 1 0 1 0 0 1 1 0 1 1 1 0 1 1 1 1 0]
  [1 0 1 0 0 0 1 0 1 1 1 1 1 0 0 0 0 1 0 0 1 1 1 1 1 1 0 1 1 1 1 0]
  [1 0 1 0 1 0 0 0 0 1 1 0 0 0 0 0 0 1 0 0 1 1 1 1 1 1 0 0 1 0 1 0]]

 [[1 0 1 1 0 0 1 0 1 1 1 0 1 0 1 0 0 0 1 1 0 0 1 0 1 0 0 0 1 1 1 0]
  [1 1 1 1 0 0 1 0 1 1 1 0 0 0 0 0 0 0 1 1 1 1 1 0 1 1 0 0 0 0 0 0]
  [1 0 1 0 0 0 0 0 1 1 1 0 1 1 1 0 0 0 1 1 1 1 0 1 1 1 0 0 1 0 0 0]
  [0 1 0 0 0 0 0 0 1 1 1 0 1 1 0 0 0 1 1 1 1 1 0 1 1 1 1 0 1 1 1 0]
  [0 0 0 0 0 0 0 0 0 0 0 0 0 0 0 0 0 1 1 1 1 1 0 1 1 1 1 1 0 0 0 0]]],[[[1 0 1 0 0 1 1 1 1 1 1 0 0 0 1 0 1 1 1 1 1 1 0 0 0 1 0 1 1 1 1 0]
  [1 0 1 0 1 1 0 0 0 1 1 0 1 0 1 0 1 1 0 1 1 1 0 1 0 1 1 0 1 1 0 0]
  [1 0 1 0 1 1 0 0 0 1 0 1 0 0 1 1 0 0 0 0 0 1 0 0 1 1 1 1 0 0 1 0]
  [0 0 1 0 1 1 0 1 0 0 0 1 1 0 1 1 1 0 0 0 1 0 1 0 1 1 1 1 1 1 1 1]
  [0 0 1 0 1 1 1 1 0 0 1 1 1 0 1 1 1 1 1 1 1 0 0 1 1 0 0 1 0 0 1 1]]

 [[0 0 1 0 0 1 0 0 0 1 1 0 1 0 1 1 1 0 1 1 0 0 1 1 0 1 1 1 0 0 0 1]
  [1 0 0 1 1 0 0 0 1 1 0 0 1 1 1 0 0 0 0 0 1 0 1 0 0 1 1 0 1 1 0 0]
  [1 0 1 1 1 0 1 0 1 1 0 1 1 1 1 1 0 0 0 1 0 0 0 0 1 1 1 1 1 0 0 0]
  [0 0 1 1 1 0 0 0 1 1 1 1 0 1 1 1 0 0 0 0 1 0 1 0 1 1 1 0 1 0 1 0]
  [0 0 1 0 1 1 0 0 1 1 0 1 0 0 1 1 0 0 1 1 0 0 1 1 1 0 1 1 0 0 0 0]]

 [[0 0 0 1 1 0 0 1 0 0 0 1 0 1 1 1 0 0 0 1 0 0 0 0 0 1 1 1 0 0 0 0]
  [0 0 0 1 1 0 0 0 1 1 0 1 1 1 0 0 0 0 0 0 0 1 0 0 0 1 1 1 0 0 0 0]
  [1 0 0 1 1 0 0 0 1 1 0 1 0 1 0 1 0 0 0 1 1 0 0 0 0 0 1 0 1 0 1 0]
  [1 0 1 1 1 0 0 0 1 1 0 1 1 1 0 1 0 0 0 0 1 0 0 0 1 0 1 0 1 0 0 0]
  [1 0 1 1 1 0 0 0 1 1 0 1 0 1 0 1 0 0 1 0 0 1 0 1 0 0 1 1 1 0 0 0]]

 [[0 0 0 1 1 0 0 1 0 1 0 1 1 1 1 1 0 0 0 0 1 0 1 0 0 0 1 1 0 1 0 0]
  [0 0 1 1 1 0 0 0 1 1 0 0 1 1 0 1 0 0 0 1 1 0 1 1 0 1 1 0 0 1 0 0]
  [1 0 1 1 0 0 1 0 1 1 0 0 0 1 0 1 0 0 0 1 1 0 0 1 0 0 1 0 0 1 1 0]
  [1 0 1 1 1 0 0 0 1 1 1 1 0 1 0 1 0 0 0 0 1 0 1 1 0 0 1 0 1 1 1 0]
  [1 0 1 1 0 0 1 0 1 1 0 0 0 1 0 1 0 0 0 0 1 1 1 1 0 0 0 1 1 1 0 0]]

 [[0 1 0 0 1 0 0 1 0 1 0 0 1 1 0 0 1 0 0 1 1 0 0 0 0 0 0 1 0 1 1 0]
  [1 0 0 1 1 0 0 0 1 1 1 0 1 1 0 1 0 0 0 1 0 0 1 1 0 0 1 1 0 0 1 0]
  [1 0 0 1 1 0 1 0 1 1 1 1 0 1 0 1 0 0 0 1 0 0 0 1 0 0 1 0 0 0 0 0]
  [1 1 1 1 0 0 0 0 1 1 1 0 1 1 0 1 0 0 0 0 1 1 1 0 0 0 1 0 0 1 0 0]
  [1 0 1 0 0 0 1 0 1 1 0 1 1 1 0 1 0 0 0 0 0 1 0 1 0 1 0 0 1 1 1 0]]],[[[0 0 1 0 1 1 0 0 1 1 0 1 0 1 1 1 0 1 1 1 1 0 0 1 0 1 1 1 1 0 1 0]
  [0 1 1 0 1 1 1 0 1 0 0 1 0 0 1 1 1 1 1 0 1 0 0 1 0 1 0 1 1 0 0 1]
  [1 0 1 0 1 0 1 0 1 0 1 0 0 0 1 1 1 1 1 1 0 0 0 1 1 0 0 0 1 0 0 0]
  [1 0 0 0 0 0 0 1 1 0 0 1 1 0 1 1 1 1 1 1 0 0 0 1 1 1 0 0 0 0 0 0]
  [1 0 0 0 0 0 0 0 1 0 0 1 1 1 1 0 1 1 1 1 1 0 0 0 1 0 0 1 1 0 0 0]]

 [[0 0 1 0 1 1 1 1 0 0 0 1 0 1 1 1 1 0 0 0 0 1 0 1 0 1 0 1 0 0 1 1]
  [0 1 1 0 1 1 1 0 1 0 0 1 1 1 1 1 1 1 0 0 0 1 1 1 0 1 0 1 0 0 0 1]
  [1 1 1 0 1 1 1 0 1 0 0 1 0 0 1 1 1 1 0 0 0 1 0 1 1 1 0 1 1 0 0 1]
  [1 1 1 0 1 1 0 1 1 0 1 0 1 0 1 1 1 1 1 0 0 0 0 1 1 0 0 1 1 0 0 0]
  [1 0 0 0 0 0 0 1 1 0 0 1 0 0 1 0 1 0 0 1 1 0 0 1 1 0 1 1 1 0 0 0]]

 [[0 0 0 1 1 0 1 1 0 1 0 1 0 1 1 1 1 0 0 0 0 1 0 1 0 1 0 1 0 0 1 1]
  [0 0 1 0 1 1 0 1 0 0 0 1 0 1 1 1 1 0 0 0 0 1 0 1 1 1 1 1 0 0 0 1]
  [1 0 1 0 1 1 0 1 1 0 0 1 1 0 1 1 1 0 0 0 1 1 0 1 1 1 1 1 1 1 0 1]
  [1 0 1 0 1 1 0 1 1 0 1 1 0 0 1 0 1 1 0 0 1 0 0 1 1 0 1 1 1 0 0 0]
  [1 0 0 0 0 1 0 1 1 0 1 0 0 1 0 0 1 0 1 1 1 0 0 0 1 0 1 1 1 1 0 0]]

 [[0 0 1 1 1 1 0 1 0 0 0 1 0 1 1 1 1 0 0 0 0 1 0 1 0 1 1 1 0 0 0 1]
  [0 0 1 1 1 1 0 1 0 0 0 1 0 1 1 1 1 0 0 0 0 1 0 1 1 1 0 1 0 0 1 1]
  [0 0 1 0 1 0 0 1 0 0 0 1 0 0 1 1 1 0 0 0 0 1 0 1 1 1 0 1 0 0 1 1]
  [1 0 1 1 0 1 0 1 1 0 1 0 0 0 1 0 1 1 0 0 0 0 1 1 1 1 1 1 1 1 1 0]
  [1 0 0 1 0 1 0 1 1 0 0 0 0 0 0 0 1 1 1 0 0 1 0 1 1 0 1 1 1 0 0 0]]

 [[0 0 0 1 1 0 0 1 0 0 0 1 1 1 0 1 1 0 0 1 0 1 0 1 1 1 1 1 0 1 0 1]
  [0 0 1 1 1 1 0 1 0 0 0 1 1 1 0 1 1 0 0 0 0 1 1 1 1 1 1 1 0 0 0 1]
  [0 0 1 1 0 1 0 1 0 0 0 1 0 1 0 1 1 0 0 0 1 1 0 1 1 1 1 1 0 0 0 1]
  [0 0 1 1 0 1 0 1 1 0 0 0 0 0 0 0 1 0 1 0 0 0 1 1 1 1 1 0 1 1 0 0]
  [1 0 0 1 0 1 0 0 1 0 0 0 1 1 0 0 1 0 1 0 0 0 0 1 1 0 1 1 0 1 1 0]]],[[[0 1 0 1 1 0 1 1 0 1 0 0 0 0 0 0 1 0 0 1 0 0 0 1 0 0 1 0 0 0 0 0]
  [1 1 0 1 1 0 1 1 0 1 1 0 0 1 0 0 1 0 1 1 0 0 0 1 0 0 1 1 0 0 0 0]
  [1 1 1 0 0 1 0 0 1 0 1 0 1 0 1 0 0 0 1 0 1 0 1 0 0 1 0 0 1 1 1 0]
  [0 0 1 0 0 0 0 1 1 0 1 1 1 0 1 1 0 1 0 0 1 0 1 0 1 1 0 0 1 0 1 0]
  [1 0 1 0 0 0 0 1 1 0 1 1 1 0 1 1 0 1 1 0 1 0 0 1 1 1 0 1 1 1 1 0]]

 [[0 1 0 1 1 1 1 1 0 1 1 0 0 1 0 0 1 0 1 1 0 0 1 0 0 0 1 0 0 0 0 0]
  [1 1 0 1 0 0 1 1 0 1 1 0 0 1 0 0 0 0 1 1 0 1 1 1 0 0 1 0 1 0 0 0]
  [0 0 1 1 0 1 0 0 1 0 1 0 1 1 0 0 0 1 1 0 1 1 1 1 0 1 0 1 1 1 0 0]
  [0 0 1 0 0 1 0 0 1 0 1 1 1 0 1 1 1 1 1 0 1 0 0 0 1 1 0 0 1 1 1 0]
  [0 0 1 1 0 0 0 1 1 0 0 1 1 1 1 1 0 0 0 0 1 0 0 0 1 1 0 1 0 1 1 0]]

 [[0 1 0 1 0 1 1 1 0 1 1 0 0 1 1 0 1 0 0 1 0 0 1 1 0 0 1 0 0 0 0 1]
  [0 1 0 1 0 0 1 1 0 1 1 0 0 1 0 0 0 0 1 1 0 1 1 1 0 0 1 0 0 0 0 0]
  [1 1 1 0 0 1 0 0 1 1 1 0 1 1 0 0 0 1 0 0 0 1 0 0 0 1 1 0 1 0 0 0]
  [1 0 1 0 0 0 0 0 1 0 1 1 1 0 1 1 1 1 0 0 1 0 0 0 1 1 1 1 1 1 1 1]
  [0 0 0 0 1 0 0 1 1 1 0 1 0 1 1 1 0 1 0 0 1 0 0 0 1 1 1 1 1 0 1 1]]

 [[0 1 1 1 1 1 1 1 0 1 0 0 0 1 1 0 1 0 1 1 0 0 1 1 0 0 1 0 0 0 0 1]
  [1 0 0 1 1 1 1 1 0 1 0 0 0 0 0 0 0 0 1 1 0 0 1 1 0 1 1 0 0 0 0 1]
  [1 0 1 0 1 1 1 0 1 0 0 1 1 0 0 1 0 1 0 1 1 1 0 1 0 1 0 1 1 1 0 1]
  [1 0 1 0 0 1 1 0 1 1 1 1 1 0 1 1 1 1 1 0 1 0 0 0 1 1 1 1 1 1 1 0]
  [1 0 0 0 1 0 0 1 1 0 1 1 1 0 0 1 0 1 0 1 1 0 0 1 1 1 1 1 1 1 1 0]]

 [[0 1 1 1 1 1 1 1 0 1 1 0 0 1 1 0 1 0 1 0 0 0 1 1 1 0 0 0 0 0 0 1]
  [0 1 0 1 1 0 0 1 0 0 0 0 0 0 0 0 0 0 0 1 0 0 1 1 0 0 0 0 0 0 0 1]
  [0 1 0 0 0 0 0 0 1 0 0 1 1 1 0 0 1 0 1 0 0 1 1 1 1 1 0 1 0 1 0 1]
  [1 1 1 0 0 0 0 1 1 0 1 1 1 1 1 1 1 1 0 0 1 0 0 0 1 1 0 1 1 1 1 0]
  [1 0 0 0 0 0 0 0 1 0 0 0 1 0 0 1 0 1 1 0 1 0 0 0 1 1 0 1 1 1 1 0]]],[[[1 1 1 1 1 1 1 0 0 1 1 0 0 0 1 0 1 0 0 0 0 1 1 0 0 0 0 0 1 0 1 0]
  [0 1 1 1 1 0 1 1 1 0 1 1 0 1 1 0 1 1 1 0 1 1 1 0 1 1 0 1 1 0 0 0]
  [1 1 1 0 0 0 0 0 0 0 1 1 1 0 0 0 0 0 0 0 1 1 0 0 0 1 0 1 1 1 1 0]
  [1 0 0 0 1 0 0 0 1 0 1 1 1 0 0 0 0 0 0 0 1 1 0 0 0 1 0 1 1 1 1 0]
  [1 1 0 0 0 1 0 1 0 0 1 1 0 0 1 0 1 0 0 0 1 1 0 0 0 1 1 0 1 0 0 0]]

 [[0 1 1 1 0 1 1 1 0 1 1 0 1 1 1 0 1 0 0 0 1 1 1 0 0 1 0 0 1 1 1 0]
  [0 1 1 1 0 1 0 1 0 0 1 0 1 1 1 0 0 1 0 0 1 1 1 0 1 1 0 0 0 1 1 0]
  [0 0 1 0 0 1 0 0 0 0 0 0 1 1 0 0 0 1 1 0 1 1 1 0 0 1 0 0 1 1 1 0]
  [1 0 0 0 0 1 0 0 0 0 0 1 1 0 0 0 0 1 1 0 1 1 0 0 1 1 0 1 0 1 1 0]
  [0 0 1 0 0 1 0 1 0 0 1 1 1 0 1 0 1 0 0 0 1 1 0 0 1 1 1 0 0 1 1 0]]

 [[1 0 1 1 0 0 1 1 0 1 1 0 1 1 0 0 1 0 0 1 1 1 1 1 0 0 0 0 0 0 1 1]
  [0 1 1 1 0 1 0 1 0 0 1 0 1 1 1 0 0 1 1 0 1 1 1 0 1 1 0 0 1 1 1 0]
  [0 0 0 0 0 0 0 0 0 0 0 0 1 1 0 0 0 1 1 0 1 1 0 0 1 1 0 1 1 1 1 0]
  [0 0 0 0 0 0 0 0 0 0 0 0 1 0 0 0 0 1 1 0 1 1 0 0 1 1 0 1 1 1 1 0]
  [0 0 0 0 0 1 0 1 0 0 0 0 1 0 1 0 1 0 0 0 1 1 0 0 1 1 1 0 0 1 1 1]]

 [[0 0 1 1 1 1 1 1 0 1 1 1 0 1 1 0 1 1 1 1 1 1 1 1 0 0 0 0 0 1 0 1]
  [0 1 1 1 0 1 1 1 0 0 1 1 1 1 0 0 0 1 1 1 1 1 1 1 1 1 0 0 0 1 1 1]
  [0 1 1 1 0 0 0 0 0 0 0 1 1 1 0 0 0 1 1 0 1 1 1 0 0 1 0 0 0 1 1 0]
  [0 0 0 0 0 0 0 0 1 0 0 1 1 0 0 0 0 1 1 1 1 1 0 0 1 1 0 1 1 1 1 0]
  [1 0 0 0 0 1 0 1 1 0 0 0 1 0 1 0 1 1 1 1 1 1 0 0 1 1 1 0 0 0 1 0]]

 [[0 1 1 1 1 0 1 1 0 1 1 1 1 1 1 1 1 1 1 1 1 1 1 1 0 0 1 0 0 0 0 1]
  [0 1 1 1 1 0 1 1 0 1 1 1 1 1 0 1 1 1 1 1 0 1 1 0 0 1 0 0 0 1 0 1]
  [1 0 0 1 1 0 0 1 1 0 1 1 0 1 0 1 0 1 1 1 1 1 1 0 0 1 0 0 0 0 1 1]
  [0 0 0 0 0 0 0 0 0 0 0 1 1 0 0 1 0 1 1 1 1 1 0 0 0 1 0 0 0 1 1 1]
  [0 1 0 0 0 0 1 0 0 0 0 0 1 0 1 1 1 1 1 1 1 1 0 0 0 1 1 0 0 0 0 1]]],[[[0 0 0 0 0 0 0 0 1 0 0 0 1 0 0 0 0 1 0 0 1 0 1 0 1 1 1 0 0 1 0 0]
  [1 1 0 1 1 0 1 1 1 1 1 0 1 0 0 0 0 1 0 0 1 1 0 0 1 1 0 1 1 0 1 0]
  [1 0 0 1 1 0 0 1 0 1 1 1 1 0 0 1 0 0 0 0 1 1 0 1 1 1 0 0 1 1 1 0]
  [0 1 0 0 1 0 1 1 1 1 1 1 1 1 0 1 0 1 0 0 1 1 1 0 1 1 0 1 1 1 1 0]
  [0 1 0 0 1 0 0 0 0 1 0 1 1 1 0 1 0 0 0 0 0 0 0 0 1 1 0 1 0 0 0 0]]

 [[1 0 0 0 0 1 0 0 1 1 1 0 0 0 0 0 1 1 0 0 1 1 0 1 1 1 1 0 1 1 1 0]
  [1 0 1 1 0 0 1 0 1 1 1 0 1 0 0 0 1 1 0 0 1 1 0 1 1 1 1 1 1 1 1 0]
  [1 0 0 0 1 0 1 0 1 1 1 1 0 0 0 0 1 0 1 0 1 1 0 1 1 0 1 1 1 0 0 1]
  [0 1 1 1 1 0 1 1 0 1 1 1 1 0 1 1 1 1 1 0 0 1 1 1 1 1 1 1 0 0 0 1]
  [0 1 0 0 1 1 1 1 0 1 0 1 1 0 1 1 1 0 0 0 0 0 0 0 0 1 0 1 0 1 1 1]]

 [[1 0 1 0 0 1 1 1 1 1 1 0 1 0 1 0 1 1 1 0 1 1 0 0 1 1 1 0 1 0 0 0]
  [1 0 1 0 0 1 1 1 1 1 1 0 0 0 1 0 1 1 0 0 1 1 1 1 1 1 1 1 1 0 1 1]
  [1 0 1 0 1 1 1 1 1 1 1 1 0 0 1 1 1 1 0 0 0 1 1 1 1 1 1 1 1 0 0 1]
  [1 0 1 0 1 1 1 1 1 1 1 1 0 0 1 1 1 0 0 0 0 1 1 1 1 1 1 1 1 0 0 1]
  [0 1 1 0 1 1 1 1 0 1 1 1 1 0 1 1 1 0 1 0 0 1 0 1 1 1 1 1 1 0 0 1]]

 [[0 0 1 1 0 0 1 1 0 1 1 0 0 1 1 0 1 1 1 1 0 1 0 1 1 0 0 0 0 0 1 0]
  [1 1 1 1 0 0 1 1 0 1 1 0 0 1 1 0 1 1 0 1 0 1 0 1 0 0 0 0 0 0 0 1]
  [1 1 1 1 1 0 1 1 0 1 1 0 0 1 0 0 1 1 0 0 0 1 1 1 1 1 0 1 0 0 0 0]
  [1 1 1 1 1 1 1 1 0 1 1 0 0 1 0 0 1 1 0 0 0 1 1 1 1 1 0 1 1 0 0 1]
  [1 1 1 1 1 1 1 1 0 1 1 1 0 1 1 0 1 1 0 0 0 1 1 1 0 1 0 1 1 0 0 1]]

 [[0 1 0 1 0 0 0 0 0 0 1 0 0 1 0 0 1 1 1 1 1 0 0 0 1 0 0 0 0 0 0 0]
  [0 1 1 0 0 0 1 0 0 1 0 0 0 1 0 0 0 0 1 1 0 0 1 0 1 1 0 0 0 0 0 0]
  [0 1 0 1 0 0 0 0 0 1 0 0 0 1 0 0 0 0 0 0 0 0 1 0 1 0 0 0 0 0 0 0]
  [0 1 0 0 0 0 0 0 0 0 0 0 0 1 0 0 1 0 1 0 0 0 1 0 0 1 0 0 0 0 0 1]
  [0 1 0 0 0 1 0 0 0 0 0 0 0 1 0 0 1 0 1 0 0 0 1 0 0 1 0 1 0 0 0 1]]],[[[0 1 0 0 1 1 0 1 0 0 0 1 0 0 1 1 0 1 1 1 0 0 0 0 0 1 1 1 0 0 0 1]
  [1 0 0 1 1 0 0 1 1 0 1 1 1 1 0 0 0 1 1 1 1 0 0 0 1 1 1 1 1 0 0 1]
  [1 0 0 0 0 0 0 0 1 0 0 1 1 1 0 1 0 1 1 1 1 0 0 0 1 0 0 1 1 0 0 0]
  [1 1 1 1 0 1 1 1 1 0 1 0 0 1 0 0 0 1 1 1 1 0 0 0 1 0 0 1 1 0 0 1]
  [1 0 1 1 0 1 1 1 0 0 0 0 0 1 0 0 0 1 1 1 1 0 0 0 0 0 1 1 1 1 0 1]]

 [[0 0 1 0 1 1 1 0 0 0 0 1 1 0 1 0 0 1 1 1 1 0 1 0 0 1 1 0 0 0 0 1]
  [1 0 1 0 1 0 0 1 0 0 0 1 1 0 0 1 0 1 1 1 1 0 0 0 1 1 1 1 1 1 1 1]
  [1 0 1 1 0 0 0 0 1 0 1 1 1 0 0 0 0 1 0 0 1 0 0 0 1 0 0 1 1 1 1 0]
  [1 0 1 0 0 1 0 1 1 0 1 0 1 1 1 0 0 1 0 1 1 0 1 0 1 1 0 0 1 1 1 0]
  [0 0 1 1 0 0 1 1 0 0 0 0 1 1 1 0 0 0 1 1 1 0 0 0 1 0 1 0 0 0 1 0]]

 [[0 0 0 0 0 0 1 0 1 0 0 1 1 0 1 1 0 1 1 0 1 0 0 0 1 1 1 0 1 1 1 1]
  [0 0 1 1 1 0 0 1 1 0 1 1 1 0 1 1 0 1 0 0 1 0 0 0 1 1 1 1 1 1 1 1]
  [1 0 0 0 0 0 0 0 1 0 0 1 1 0 0 1 0 0 0 0 1 0 0 0 1 1 0 1 1 1 1 0]
  [1 1 1 1 0 1 0 1 0 0 1 0 1 1 1 0 0 0 0 0 1 0 0 0 1 1 1 1 1 1 1 0]
  [0 0 1 1 1 0 1 0 0 0 0 1 1 1 1 1 0 0 0 0 0 0 0 0 1 0 0 0 0 1 1 1]]

 [[0 0 0 0 1 1 0 1 1 0 0 1 1 0 1 0 0 1 1 0 1 1 1 0 1 1 1 1 0 1 1 1]
  [1 0 1 0 1 0 0 1 1 0 1 1 1 0 0 1 0 1 0 0 1 0 0 0 1 1 1 1 1 1 1 0]
  [0 0 1 0 0 0 0 1 1 0 0 1 1 1 0 1 0 0 0 0 1 0 0 0 1 1 0 1 0 1 1 0]
  [0 0 0 1 0 1 1 1 0 0 0 1 1 1 1 1 0 0 0 0 1 0 0 0 1 1 0 1 1 1 1 1]
  [1 1 0 1 1 1 0 1 0 0 0 1 1 1 0 0 0 0 0 1 1 0 1 0 0 0 0 1 0 1 1 0]]

 [[0 1 1 0 1 0 0 1 1 0 1 1 1 0 0 1 0 0 1 0 1 1 0 0 0 1 1 0 0 1 0 1]
  [1 0 1 1 0 0 0 1 1 0 0 1 1 0 0 1 0 1 0 0 1 0 0 0 1 0 1 1 1 1 1 0]
  [0 0 1 1 1 0 0 1 0 0 0 1 0 1 0 1 0 0 0 0 1 1 0 0 1 0 0 0 1 0 1 1]
  [1 1 0 1 1 0 1 1 0 0 1 1 1 1 1 0 0 1 0 1 1 1 0 0 1 0 0 1 0 0 1 1]
  [1 1 1 1 1 1 0 1 1 1 1 0 0 1 0 0 0 0 0 1 0 0 0 0 0 0 0 0 1 1 1 0]]],[[[1 0 0 1 0 0 0 1 1 0 1 1 0 0 0 0 1 1 0 1 0 1 0 0 1 1 1 1 1 0 0 0]
  [1 1 0 1 0 1 1 1 1 0 1 0 0 1 0 0 0 1 1 0 1 1 1 1 1 1 0 1 1 0 0 0]
  [1 0 1 0 0 1 0 1 1 0 1 0 0 1 0 1 0 1 0 0 1 1 1 1 0 1 0 1 1 0 0 0]
  [1 0 1 1 0 0 0 0 1 0 1 1 0 1 0 0 0 1 0 1 0 0 1 0 1 1 1 1 1 0 0 1]
  [1 0 0 1 0 0 0 0 1 1 1 1 0 1 0 0 0 1 0 1 0 0 0 0 1 1 1 1 1 0 0 0]]

 [[0 1 0 0 0 0 0 0 0 0 0 1 0 0 1 0 1 1 1 0 0 0 0 0 1 1 0 1 1 0 0 0]
  [1 1 0 0 0 0 1 1 1 0 1 0 0 0 0 0 0 1 0 0 1 1 1 1 1 1 0 1 1 0 0 0]
  [1 0 1 1 0 1 0 0 1 0 1 0 0 1 0 0 0 1 0 0 1 1 0 1 1 1 0 1 1 0 0 0]
  [1 0 1 1 0 1 1 1 1 0 1 0 0 1 0 0 1 1 0 0 1 1 1 1 1 1 1 1 1 0 0 0]
  [1 0 1 1 0 1 1 0 1 0 1 0 0 1 0 0 0 1 0 1 0 1 0 0 1 0 1 0 1 0 0 0]]

 [[0 1 0 0 1 0 0 1 0 0 0 1 1 0 1 1 1 0 1 0 0 0 1 0 1 1 0 1 0 0 1 1]
  [1 1 0 1 0 0 0 1 1 0 1 1 0 0 1 1 1 1 1 0 1 1 1 1 1 1 0 1 1 0 0 0]
  [1 0 1 1 0 0 1 1 1 0 1 0 0 1 0 0 0 1 0 0 1 1 1 1 1 1 0 1 1 0 0 0]
  [1 0 1 1 0 1 1 0 1 0 1 0 0 1 0 0 1 1 0 0 1 1 0 1 1 1 0 1 1 0 0 0]
  [1 0 1 1 0 1 0 1 1 0 1 0 0 1 0 0 0 1 0 1 1 1 0 1 1 1 1 0 1 0 0 0]]

 [[0 1 0 0 1 0 0 1 0 0 0 1 0 0 1 1 1 0 1 1 1 0 1 0 0 1 0 1 0 0 0 1]
  [0 1 0 0 1 0 0 1 0 0 0 1 1 0 1 1 1 0 1 0 0 1 1 0 1 1 0 1 0 0 1 1]
  [1 1 1 1 0 0 0 1 1 0 1 0 0 0 1 0 1 1 1 0 0 1 1 1 1 1 0 1 1 0 0 0]
  [1 0 1 1 0 1 0 0 1 0 1 0 0 1 0 0 0 1 0 0 1 1 1 1 1 1 0 1 1 0 0 0]
  [1 0 1 0 0 0 0 0 1 0 1 0 0 1 0 0 1 1 0 0 1 1 0 1 1 1 1 1 1 0 0 0]]

 [[0 0 0 0 1 1 0 1 0 0 0 1 1 0 0 1 1 1 1 1 0 1 0 1 0 1 1 1 0 0 1 1]
  [0 1 1 0 1 1 0 1 0 0 0 1 1 0 1 1 1 0 1 0 0 0 0 0 1 1 0 0 0 0 1 1]
  [0 0 1 1 1 1 0 1 0 0 0 1 0 0 1 0 1 0 0 0 0 1 1 1 0 1 0 1 0 0 0 1]
  [1 0 0 1 0 0 0 0 1 0 1 1 0 1 1 0 1 0 0 0 1 1 1 0 1 1 0 1 1 0 0 0]
  [1 0 1 0 0 0 0 1 1 0 1 0 0 1 0 0 1 0 0 0 1 1 0 1 1 1 0 1 1 0 0 0]]],[[[0 0 0 0 0 0 0 0 0 1 0 1 0 1 1 0 0 0 1 0 1 0 0 0 1 1 1 1 1 0 1 1]
  [1 0 0 1 1 1 0 0 1 1 1 1 1 1 0 1 0 0 0 1 0 0 0 0 1 1 1 1 0 1 1 1]
  [1 0 1 1 1 0 0 0 1 1 1 1 1 1 0 1 0 1 0 0 0 0 0 1 0 1 1 1 0 0 0 0]
  [0 0 1 0 1 0 1 0 1 1 0 1 0 1 1 1 0 1 0 0 1 0 0 0 0 1 0 1 1 1 1 1]
  [1 0 1 1 0 1 1 0 0 0 1 0 0 0 1 0 0 1 1 1 0 0 1 0 1 1 1 1 1 0 0 0]]

 [[1 0 0 1 0 0 0 0 1 1 0 0 1 1 0 0 0 1 1 1 1 0 0 0 1 1 1 1 0 1 1 0]
  [1 0 0 1 1 0 0 0 1 1 1 1 1 1 0 1 0 1 0 1 1 0 1 0 1 1 1 1 1 1 1 1]
  [1 0 1 0 1 1 1 0 1 1 1 1 1 1 1 1 0 0 0 0 1 0 0 1 0 1 0 1 1 1 1 1]
  [1 0 1 0 1 0 0 0 1 1 0 1 1 0 0 1 0 1 1 0 1 0 1 0 1 1 1 1 0 1 1 0]
  [0 0 0 0 1 0 0 0 1 0 1 1 1 0 1 0 0 1 0 0 1 0 1 0 1 1 0 1 1 0 0 0]]

 [[1 0 0 1 0 0 0 0 1 1 0 1 1 1 0 1 0 1 0 1 1 0 0 0 0 0 1 1 1 1 1 0]
  [1 0 0 0 1 0 1 0 1 1 0 1 1 0 0 1 0 0 0 1 1 0 0 0 1 0 1 1 1 1 1 1]
  [1 0 0 1 1 0 0 0 1 1 1 1 1 1 0 1 0 1 0 1 1 0 0 0 0 1 1 1 1 1 0 0]
  [1 0 1 0 1 0 1 0 1 1 1 1 0 1 0 1 0 1 0 1 1 0 0 0 1 1 0 1 1 0 1 0]
  [0 0 0 0 1 1 1 0 1 1 0 1 1 0 1 1 0 1 1 0 1 0 0 0 0 1 1 1 1 1 1 1]]

 [[1 1 0 1 0 1 1 0 1 1 1 0 0 1 1 0 0 1 1 1 0 0 0 0 0 0 1 1 1 1 0 0]
  [1 1 0 1 1 0 1 0 1 1 1 1 0 0 0 0 0 1 1 1 1 0 1 0 0 0 1 0 1 0 0 1]
  [1 0 0 1 1 0 1 0 1 1 0 1 0 1 0 1 0 0 1 1 0 0 0 0 0 0 0 1 0 1 1 0]
  [1 1 1 0 1 0 1 0 0 1 0 1 1 1 0 1 0 0 1 1 0 0 0 0 0 0 0 1 1 0 0 1]
  [0 1 1 0 1 1 1 0 1 1 0 1 1 0 1 1 0 1 1 1 1 0 0 0 0 1 0 1 1 1 1 1]]

 [[1 1 0 1 0 1 1 0 0 0 0 0 0 1 1 1 0 0 1 1 0 0 1 0 0 0 0 0 1 0 0 1]
  [1 1 0 0 0 1 1 0 1 1 1 0 0 1 0 0 0 0 0 1 0 0 1 0 0 0 0 0 1 0 1 0]
  [0 1 0 1 1 1 1 0 1 1 1 0 0 1 0 1 0 0 0 1 0 0 0 1 0 0 0 1 1 0 0 0]
  [1 0 1 0 1 1 1 0 1 1 0 1 0 1 0 1 0 1 1 1 0 0 1 1 0 0 0 1 0 1 0 0]
  [0 1 1 0 1 1 0 0 0 0 1 1 0 0 0 1 0 1 1 1 0 0 1 1 0 0 0 0 1 0 0 1]]],[[[0 0 0 1 0 0 0 0 0 0 0 0 0 0 0 0 0 1 1 1 0 0 1 1 0 1 0 0 0 0 0 0]
  [0 1 0 1 0 1 1 0 0 0 0 1 0 0 0 0 0 0 1 0 0 0 1 1 0 1 1 0 0 0 0 1]
  [0 1 1 0 1 1 0 0 0 0 0 1 1 0 1 1 0 0 1 0 0 0 1 1 0 1 0 1 1 0 0 1]
  [1 1 1 1 1 0 1 1 0 1 1 1 1 0 1 1 0 1 0 0 1 0 1 1 1 1 0 1 0 0 1 1]
  [0 1 0 1 0 1 1 1 0 0 0 1 1 1 1 0 0 0 0 0 1 0 0 1 1 0 1 1 1 1 1 1]]

 [[0 0 0 1 0 1 0 0 0 0 0 0 0 0 0 0 0 0 1 0 0 0 1 1 0 1 0 0 0 0 1 1]
  [0 1 0 0 1 1 0 0 0 0 0 1 0 0 1 1 1 1 1 0 1 0 1 1 1 1 0 1 0 1 1 1]
  [1 1 1 0 1 0 1 1 1 1 1 1 1 0 1 1 0 1 1 0 1 0 1 1 1 1 1 1 1 1 1 1]
  [1 1 1 1 1 0 1 1 1 1 1 1 1 1 1 1 0 1 1 0 1 0 1 1 1 1 1 1 1 1 1 1]
  [0 0 0 1 0 1 0 1 0 0 0 1 1 1 0 0 0 0 0 0 1 0 0 1 1 1 0 0 0 1 1 0]]

 [[0 1 0 0 1 1 0 0 0 1 0 1 1 0 1 1 1 0 1 0 1 0 1 1 1 1 1 1 1 0 1 1]
  [1 1 1 0 1 0 1 1 1 1 0 1 1 0 1 1 0 1 0 0 1 0 1 1 1 1 1 1 1 1 1 1]
  [1 0 1 0 1 0 0 1 1 1 1 1 1 1 1 1 0 0 0 0 1 0 0 1 1 1 0 1 1 1 1 1]
  [0 0 0 1 1 0 0 1 0 1 0 1 1 1 0 1 0 0 0 0 1 0 0 1 1 0 0 1 1 1 1 1]
  [0 0 0 1 1 0 0 0 0 0 0 1 1 1 0 1 0 0 0 0 1 0 0 0 1 0 0 0 0 0 1 0]]

 [[1 1 0 0 1 1 1 1 1 1 0 1 1 1 1 1 1 1 0 1 1 0 0 1 0 1 1 1 1 0 0 1]
  [1 1 1 0 1 0 0 1 1 1 1 1 1 1 1 1 0 1 1 0 1 0 1 1 1 0 0 1 1 0 1 1]
  [1 0 1 1 1 0 1 1 1 1 0 1 0 1 0 1 0 0 0 0 0 0 0 1 1 0 0 1 1 0 0 1]
  [0 0 0 1 1 0 0 1 0 1 1 1 0 1 0 1 0 0 0 1 0 0 0 1 1 0 1 1 0 0 1 1]
  [0 0 0 1 0 0 0 0 0 1 0 0 0 1 0 0 0 1 0 1 0 0 0 0 0 0 0 0 0 1 0 0]]

 [[1 0 0 0 0 0 1 1 0 1 0 1 0 1 1 0 0 1 1 1 0 0 1 1 0 0 0 1 0 0 0 0]
  [1 1 1 1 1 0 1 1 1 1 1 1 0 1 1 0 0 1 0 1 0 0 0 1 1 0 0 1 1 0 0 1]
  [0 1 0 0 1 0 1 0 0 1 0 0 0 1 0 0 0 0 0 1 0 0 1 1 0 0 0 0 0 0 0 0]
  [0 0 1 0 1 1 1 0 0 1 0 0 0 1 1 0 0 0 1 1 0 0 1 0 0 0 0 0 0 0 0 1]
  [0 1 0 1 1 1 0 0 0 1 0 1 0 1 1 0 0 1 1 1 0 0 0 0 0 0 0 0 0 0 0 1]]],[[[1 0 1 0 0 0 1 0 1 1 0 1 1 0 1 0 0 0 0 0 1 0 0 1 1 0 0 1 1 0 0 0]
  [0 1 1 0 1 1 0 0 1 0 0 0 0 0 0 1 0 0 1 0 0 0 0 1 1 0 0 0 0 0 0 0]
  [1 1 0 0 0 0 1 0 1 1 1 1 1 0 0 0 0 1 1 1 0 0 0 1 0 1 1 1 1 0 0 0]
  [1 0 0 0 0 0 0 0 1 0 0 0 0 0 0 1 1 1 1 1 1 1 0 1 1 1 1 1 1 0 1 0]
  [0 0 0 0 1 0 1 0 1 1 1 1 1 0 0 1 0 1 1 1 1 1 0 1 1 1 1 1 1 0 0 0]]

 [[0 1 1 0 1 0 0 0 1 0 0 1 0 1 1 1 0 1 1 0 1 0 1 1 1 1 0 1 1 0 0 0]
  [1 1 1 0 0 0 0 0 1 0 0 0 1 1 1 1 0 1 1 0 1 0 1 1 1 1 0 0 1 0 0 0]
  [1 1 0 0 0 0 0 0 1 0 1 0 0 0 0 1 0 0 1 1 0 0 1 1 1 0 0 1 1 1 0 0]
  [1 1 0 1 0 1 1 0 1 0 1 1 0 0 0 0 0 1 1 1 1 1 0 1 1 0 1 0 1 0 0 0]
  [1 1 0 0 0 0 0 0 1 0 0 0 1 0 0 0 0 1 1 1 1 1 0 1 0 1 1 1 0 0 1 0]]

 [[0 0 1 1 0 0 0 0 0 0 0 1 1 1 1 1 0 0 0 0 1 0 1 1 1 1 0 0 0 1 1 0]
  [1 1 1 1 0 0 0 0 1 0 1 1 1 1 0 1 0 0 1 0 1 0 1 1 1 1 0 1 1 0 1 0]
  [1 0 1 1 0 0 0 0 1 0 0 0 1 1 0 0 0 1 0 1 1 0 1 1 1 1 0 1 1 1 0 0]
  [1 1 1 0 0 0 0 0 1 0 1 0 0 0 0 1 0 0 1 1 1 0 1 1 1 0 1 0 1 1 1 0]
  [0 1 0 1 0 0 0 0 1 0 0 1 0 1 0 1 0 0 1 1 1 0 1 1 1 1 1 1 1 1 0 0]]

 [[1 0 1 1 0 0 0 0 1 1 1 0 1 1 1 1 0 0 0 0 1 0 1 1 0 0 0 0 0 1 0 0]
  [0 0 1 1 1 0 0 0 1 1 1 1 1 1 1 0 0 0 0 0 1 0 1 1 1 1 0 0 1 1 1 0]
  [1 0 1 1 0 0 0 0 1 0 1 0 1 1 1 1 0 0 1 0 1 0 0 1 0 0 0 1 1 1 1 0]
  [1 1 1 1 0 1 0 0 1 0 1 1 1 1 1 0 0 1 0 1 1 0 1 1 0 0 1 0 1 0 0 0]
  [0 1 0 1 0 1 0 0 0 0 0 0 0 1 0 1 0 0 1 1 0 0 1 1 0 0 1 0 1 1 1 0]]

 [[1 0 0 1 0 0 1 0 1 1 1 0 1 1 0 0 0 0 0 1 1 0 0 0 0 1 1 0 1 1 1 0]
  [1 0 1 1 0 0 0 0 1 1 1 1 1 1 0 1 0 0 0 1 1 0 0 0 1 1 0 1 1 1 1 1]
  [0 0 1 1 1 1 0 0 1 1 1 1 1 1 1 1 0 0 0 0 1 0 0 0 1 1 0 1 1 1 1 0]
  [1 1 0 0 0 1 0 0 0 1 1 0 1 1 1 1 0 1 1 1 1 0 0 1 0 1 0 1 1 0 1 0]
  [0 1 0 1 1 1 1 0 0 1 1 1 0 1 1 0 0 0 0 1 0 0 1 1 0 0 1 0 0 0 0 1]]],[[[1 0 1 0 1 1 1 0 0 1 0 0 0 1 0 0 0 0 0 1 0 0 0 1 0 0 1 0 0 0 0 0]
  [0 0 1 0 1 0 0 1 0 1 0 1 0 1 0 1 0 0 1 1 0 0 1 1 0 0 0 0 0 0 1 1]
  [0 0 0 0 1 0 0 1 0 1 0 1 1 0 1 1 0 0 0 1 0 0 0 1 1 1 1 1 0 0 0 1]
  [0 1 0 1 1 0 0 1 1 1 0 1 1 0 1 1 0 1 1 0 1 0 0 0 1 1 1 1 1 1 1 1]
  [1 1 0 1 1 1 0 0 1 0 1 1 0 1 0 1 1 0 1 0 1 0 0 0 1 0 0 1 1 0 0 0]]

 [[1 0 1 1 0 1 1 0 1 1 1 0 0 0 1 0 1 1 1 1 0 0 1 1 0 0 1 0 1 0 0 0]
  [0 1 1 0 1 1 1 0 0 1 0 1 0 1 1 1 1 0 1 1 0 0 1 1 0 0 1 0 0 0 0 1]
  [0 1 0 0 1 0 0 1 0 0 0 1 1 0 1 1 0 1 0 1 0 0 1 0 1 0 1 1 0 0 1 1]
  [1 0 1 0 1 1 0 1 0 0 1 1 1 1 1 1 0 1 0 0 1 0 1 0 1 1 1 1 1 1 1 1]
  [0 1 0 1 0 1 0 0 1 0 1 0 1 1 0 0 1 0 0 0 1 1 0 0 1 1 0 1 1 1 1 0]]

 [[1 1 0 0 1 1 1 0 1 1 1 0 0 1 0 0 1 1 1 1 0 0 1 1 0 0 1 0 0 0 0 1]
  [0 1 1 1 1 1 1 0 0 1 0 0 0 1 1 1 1 0 1 1 0 0 1 1 0 0 1 0 0 0 0 1]
  [0 1 1 0 1 0 0 1 0 1 0 1 1 1 1 1 0 1 0 1 0 0 0 0 1 0 1 1 0 1 1 1]
  [0 0 0 0 0 0 0 1 0 0 1 1 1 0 0 1 0 1 0 0 1 1 0 0 1 1 0 1 1 1 1 1]
  [0 0 0 1 0 0 0 1 0 0 0 1 1 0 0 0 0 1 0 0 1 1 0 0 1 1 0 1 1 1 1 0]]

 [[1 1 1 1 1 1 1 0 0 1 1 0 0 1 1 1 1 0 1 1 0 1 1 1 0 0 1 0 0 0 0 1]
  [1 0 1 1 1 1 1 1 0 1 1 0 0 1 1 0 1 0 1 1 0 0 1 1 0 0 1 0 0 0 0 1]
  [0 0 1 0 1 0 0 1 0 0 1 1 1 0 0 0 0 0 1 1 1 0 1 0 1 1 1 1 1 1 0 1]
  [0 0 0 0 0 0 0 1 0 0 0 1 1 0 0 0 0 1 0 0 1 1 0 0 1 1 0 1 0 1 1 1]
  [0 0 0 1 0 0 0 1 0 0 0 0 1 0 0 0 0 0 0 0 1 1 0 0 1 1 0 0 1 1 1 0]]

 [[1 0 1 0 1 1 1 0 0 1 1 0 0 1 1 1 1 1 1 1 0 0 1 1 0 0 0 1 1 0 0 1]
  [1 1 1 0 1 1 1 0 0 1 1 0 0 1 1 0 1 0 0 1 0 0 1 1 0 0 0 1 0 0 0 1]
  [0 0 1 1 1 0 0 1 1 0 1 0 1 1 0 1 0 0 1 1 0 0 1 0 0 1 1 0 0 1 0 1]
  [1 0 0 0 0 0 0 1 1 0 0 0 1 0 0 1 0 1 0 0 1 1 0 0 1 1 0 1 1 1 1 0]
  [0 0 0 1 0 0 0 1 1 0 0 0 1 0 0 0 1 0 0 0 1 1 0 0 1 1 0 0 1 1 1 0]]],[[[0 1 0 0 1 0 1 0 0 0 0 1 1 1 0 1 0 1 1 1 0 1 1 1 1 1 1 1 0 1 0 1]
  [1 1 0 0 1 0 1 1 0 0 0 1 0 1 0 1 0 1 0 1 1 1 0 1 1 1 1 1 0 0 0 1]
  [1 1 0 0 1 0 1 1 1 1 0 1 0 1 1 0 1 1 1 1 1 1 1 1 1 1 1 1 1 0 0 1]
  [1 1 1 0 1 0 1 1 0 1 1 1 0 1 1 0 1 1 1 1 0 1 1 1 1 1 0 1 1 0 0 1]
  [1 1 1 0 1 0 1 1 1 1 1 0 0 1 1 0 0 1 1 0 0 1 1 1 0 1 0 1 1 0 0 0]]

 [[0 0 0 0 0 0 0 0 0 0 0 1 1 0 0 0 0 1 0 1 0 0 0 0 1 0 0 1 0 0 0 0]
  [0 1 0 0 0 1 0 0 0 0 0 1 1 1 1 0 0 1 0 1 1 1 1 0 1 1 0 1 0 0 1 1]
  [0 1 1 0 1 1 0 1 0 0 0 1 1 1 1 1 1 1 1 0 1 0 1 0 1 1 0 1 0 1 1 1]
  [1 1 1 0 1 0 1 1 1 0 1 0 0 1 1 1 1 1 1 0 1 0 1 0 1 1 0 1 1 0 1 1]
  [1 1 1 1 0 1 0 0 1 0 1 0 0 1 1 0 0 1 1 0 0 0 0 1 0 1 0 0 1 0 0 0]]

 [[0 0 0 1 0 0 0 1 0 0 0 1 1 1 0 0 0 0 0 1 1 1 0 0 1 1 0 1 0 1 1 0]
  [0 1 0 1 0 0 0 1 0 0 0 1 1 1 0 0 0 0 0 1 1 1 0 0 1 1 0 1 0 1 1 0]
  [0 0 0 0 0 0 0 1 0 0 0 0 1 1 1 0 1 1 1 0 1 1 0 0 1 1 0 0 0 1 1 1]
  [0 1 1 0 0 1 0 1 0 0 0 0 1 1 1 0 0 1 1 0 1 1 1 0 1 1 0 0 1 1 1 1]
  [0 0 0 1 0 0 1 0 0 0 0 0 0 1 1 0 0 0 0 0 1 1 1 0 1 1 0 0 1 0 1 0]]

 [[0 0 0 1 0 0 0 0 0 0 1 0 1 1 0 0 0 1 0 1 0 0 0 0 1 0 1 0 0 1 0 0]
  [0 1 0 0 0 0 0 1 0 0 0 1 1 0 0 0 0 1 1 0 1 1 0 0 1 1 0 0 0 1 1 1]
  [0 0 0 0 0 0 0 1 0 0 0 0 1 0 1 0 1 1 1 0 1 0 0 0 1 1 0 0 0 1 1 1]
  [1 1 1 0 0 0 0 1 0 0 1 0 1 0 1 0 0 1 1 0 1 1 1 0 1 1 0 0 0 1 1 1]
  [0 0 0 1 0 0 0 0 0 1 1 1 1 1 1 0 0 0 0 0 1 0 0 0 1 1 0 0 1 1 1 1]]

 [[0 0 0 0 0 1 0 0 0 1 1 0 1 1 0 0 0 1 0 1 1 1 0 1 1 0 1 1 1 0 0 0]
  [0 0 1 0 0 1 1 0 1 0 1 0 1 1 0 0 0 1 0 1 1 1 0 0 1 1 1 1 1 1 1 1]
  [1 0 0 1 0 1 0 1 0 0 1 1 1 1 1 0 1 1 0 0 1 1 1 0 1 1 1 1 1 1 1 1]
  [1 0 1 0 0 0 1 1 1 1 1 1 1 1 1 1 1 1 0 0 1 0 1 0 1 1 0 1 0 1 1 1]
  [0 0 0 1 1 0 1 0 0 1 1 1 0 1 0 0 0 0 0 0 1 0 0 1 0 1 1 1 0 0 0 1]]],[[[1 1 0 0 0 0 0 1 1 0 1 1 1 1 0 0 0 1 0 0 1 1 0 0 1 1 1 0 0 1 0 1]
  [0 1 1 1 0 0 1 1 1 0 1 1 1 1 0 1 0 1 0 1 1 1 0 0 1 1 1 1 1 1 1 1]
  [1 0 1 1 1 0 0 1 1 0 0 0 1 1 0 0 0 1 1 1 1 1 0 0 1 1 0 0 1 1 0 0]
  [0 1 0 1 0 0 1 0 0 0 0 0 0 0 0 0 1 1 1 1 0 1 1 0 0 0 1 0 0 1 0 0]
  [0 1 0 1 0 0 0 0 0 1 0 0 0 0 0 0 1 0 1 1 0 0 1 1 0 1 1 0 0 0 0 1]]

 [[0 0 1 0 0 0 0 1 1 0 0 0 1 1 0 0 1 1 0 0 1 1 1 0 1 1 0 0 1 1 1 1]
  [0 0 1 1 0 0 0 1 1 0 0 1 1 1 0 0 0 1 0 1 1 1 0 0 1 1 0 0 1 1 1 1]
  [0 0 0 1 0 0 1 1 0 0 0 0 1 1 0 0 0 1 0 1 1 1 0 0 1 1 1 0 0 1 1 1]
  [0 1 0 0 0 1 1 1 0 1 0 0 0 0 1 0 1 0 1 1 0 1 1 1 0 0 1 0 0 1 0 1]
  [0 0 0 0 1 1 1 1 0 1 0 0 0 0 1 1 1 0 1 1 0 0 1 1 0 0 1 0 0 1 0 1]]

 [[0 0 1 0 0 0 0 1 0 0 1 0 1 1 0 0 1 1 0 0 1 1 0 0 1 1 0 0 1 1 1 0]
  [0 0 1 1 0 0 0 1 1 0 0 1 1 1 0 0 0 1 0 0 1 1 0 0 1 1 0 1 1 1 1 1]
  [1 0 1 1 1 1 1 0 0 1 1 0 1 1 0 1 0 1 0 1 1 1 0 0 0 1 1 0 1 1 1 1]
  [0 1 1 0 1 1 1 1 0 1 1 0 0 0 1 0 1 0 1 1 0 1 1 1 0 0 1 0 0 0 0 1]
  [1 0 0 0 1 1 1 1 0 1 1 1 0 0 1 1 1 1 1 1 0 1 0 1 0 0 1 0 0 0 0 1]]

 [[0 0 1 0 0 1 0 1 0 0 1 1 1 1 1 0 1 1 0 0 1 1 1 0 1 1 0 0 0 1 1 0]
  [0 0 0 1 0 0 0 1 0 0 0 0 1 0 0 0 0 1 0 1 1 1 0 0 1 1 0 0 1 1 1 0]
  [0 0 1 1 0 1 1 1 0 0 0 1 0 0 1 0 0 1 0 1 1 1 1 1 1 1 0 0 0 1 1 1]
  [1 0 0 1 1 1 1 1 0 1 1 0 0 0 1 0 1 1 1 1 0 1 1 1 0 0 1 0 0 0 0 1]
  [1 0 1 0 1 1 1 1 1 1 1 0 0 0 1 0 1 1 1 1 0 1 1 1 0 0 1 0 1 1 0 1]]

 [[0 0 0 1 0 0 0 0 0 0 0 1 1 1 0 1 0 1 0 0 1 1 0 0 1 1 0 0 0 1 1 0]
  [0 0 1 0 0 0 0 1 0 0 0 1 1 1 0 0 0 1 0 0 1 1 0 0 1 1 0 1 0 1 1 1]
  [0 0 1 1 0 0 0 0 0 0 0 0 1 1 1 1 0 1 1 1 1 1 0 0 1 1 0 0 0 1 1 1]
  [0 0 1 0 0 0 1 1 0 1 1 0 0 0 0 0 1 0 1 1 1 0 1 1 0 0 1 0 0 0 0 1]
  [0 0 1 0 0 1 1 0 1 1 1 0 0 0 0 0 1 1 1 1 0 1 1 1 0 0 1 0 0 1 0 1]]],[[[1 0 0 1 0 0 0 0 0 1 0 0 0 0 0 0 0 0 0 0 0 1 0 0 1 1 1 1 0 0 0 0]
  [0 1 0 0 0 0 1 1 1 1 0 1 1 0 0 0 0 1 1 0 1 1 0 0 1 1 1 1 1 0 1 1]
  [1 1 0 0 0 0 1 1 1 1 1 1 1 0 0 1 0 1 1 0 0 1 0 1 1 1 0 1 1 1 1 1]
  [0 1 0 0 1 0 1 1 1 1 1 0 1 0 0 1 0 1 1 0 1 1 0 0 1 1 1 1 1 0 0 0]
  [0 0 0 1 0 1 0 1 0 0 0 0 0 0 0 0 0 0 1 0 0 0 0 1 1 1 1 1 0 0 0 0]]

 [[1 1 0 0 1 1 1 0 0 1 1 1 0 0 0 1 0 1 1 0 1 1 0 0 1 0 1 1 0 0 0 1]
  [1 1 0 0 1 0 1 1 1 1 0 1 1 0 1 1 0 1 1 0 1 1 0 1 1 1 0 1 1 1 1 1]
  [1 1 0 0 1 1 1 1 1 1 1 1 1 0 1 1 0 1 1 0 1 1 0 1 1 1 0 1 1 0 1 1]
  [1 1 0 0 1 1 1 1 1 1 1 1 0 0 1 1 0 1 1 0 1 1 0 1 1 1 0 1 1 1 1 1]
  [0 1 0 1 1 1 1 1 1 0 0 0 0 0 0 0 0 0 1 0 0 0 0 0 0 1 1 1 1 0 1 0]]

 [[1 1 0 0 1 0 1 0 0 0 0 1 0 0 0 1 0 1 1 1 0 1 0 1 1 0 0 1 1 0 0 0]
  [1 1 0 0 1 0 1 0 1 0 0 1 1 0 0 1 0 1 1 1 1 1 1 1 1 0 0 1 1 0 1 0]
  [1 1 0 0 1 0 1 0 1 0 0 1 1 0 0 1 0 1 1 1 1 0 1 1 1 1 0 1 1 1 1 1]
  [1 1 0 0 1 0 1 0 1 0 1 1 1 0 1 1 0 1 1 1 1 1 1 1 0 1 0 1 1 1 1 0]
  [1 1 0 0 1 0 1 1 1 0 0 1 0 0 0 0 0 1 1 1 1 0 0 0 0 1 0 1 1 1 1 1]]

 [[1 1 1 0 1 1 1 0 0 0 1 1 0 1 0 0 0 1 1 0 0 0 1 1 0 0 0 1 1 1 0 0]
  [0 1 0 0 0 1 1 0 0 0 0 1 0 0 0 1 0 1 1 1 0 0 1 1 1 0 0 0 0 1 1 0]
  [0 1 0 0 0 1 1 0 0 0 1 1 0 0 0 1 0 1 1 1 0 0 1 1 0 0 0 0 1 1 0 0]
  [0 1 0 0 0 1 1 0 1 0 0 0 1 0 1 1 0 1 1 1 0 0 1 1 0 1 0 1 0 0 0 0]
  [1 1 0 0 1 1 0 1 1 0 0 1 0 1 0 0 0 1 1 1 1 0 1 1 0 1 0 1 0 0 0 1]]

 [[0 0 1 1 0 1 1 0 1 0 1 1 1 1 1 0 0 1 0 0 1 0 1 1 1 1 1 1 1 1 1 0]
  [0 0 1 1 0 1 0 0 0 0 1 1 1 0 1 0 0 1 0 0 1 0 1 0 1 0 1 0 1 1 1 0]
  [0 0 0 1 0 1 1 0 0 0 0 0 1 1 1 0 1 0 1 1 0 0 1 1 0 0 0 0 0 0 0 0]
  [0 1 1 1 0 1 0 1 0 0 0 1 1 0 1 0 0 0 0 1 0 0 1 0 0 0 0 0 0 1 0 1]
  [0 1 1 1 1 1 0 0 0 0 0 1 1 1 1 1 0 1 0 1 1 1 1 1 1 1 1 1 1 1 1 1]]],[[[1 1 0 0 0 0 1 1 0 1 0 0 1 0 0 1 1 0 1 1 0 0 0 1 0 0 1 0 0 1 1 1]
  [0 1 0 0 0 0 1 0 1 1 0 0 0 0 0 0 1 0 1 1 0 0 0 1 0 0 1 0 0 1 1 1]
  [1 1 0 1 1 0 1 0 0 1 0 0 0 0 0 0 1 0 1 1 0 0 0 1 0 1 1 0 0 0 0 0]
  [0 1 0 1 1 0 1 1 1 1 0 1 1 0 0 1 0 1 0 1 1 0 0 1 0 1 1 1 0 0 0 0]
  [0 1 0 1 1 1 1 0 0 1 0 0 0 1 0 0 1 0 0 0 1 0 1 1 1 1 1 1 1 0 1 0]]

 [[1 1 0 1 0 0 1 1 0 1 0 0 1 0 0 0 1 0 1 1 0 0 0 1 0 0 1 0 0 1 1 1]
  [0 1 0 0 1 0 1 1 0 1 0 0 0 0 0 1 0 1 1 1 0 0 1 1 0 0 1 1 0 1 1 1]
  [0 0 0 1 1 0 1 1 0 1 0 1 0 0 0 1 0 1 1 1 0 0 1 1 0 0 1 1 0 0 0 1]
  [0 1 0 1 1 0 1 1 1 1 0 1 0 1 0 1 0 1 1 1 0 0 1 1 1 1 1 1 0 0 0 1]
  [1 1 1 1 1 0 1 1 1 1 0 0 0 1 1 1 0 0 0 0 1 0 1 1 1 1 0 0 0 0 0 1]]

 [[0 0 0 0 1 0 1 0 0 1 0 1 0 0 0 1 0 1 1 1 0 0 0 1 1 1 1 1 0 0 0 0]
  [0 0 1 1 1 0 1 1 1 1 1 1 0 1 0 1 0 1 1 1 0 0 1 1 1 1 1 1 0 0 0 1]
  [0 0 0 1 1 0 1 1 0 1 0 1 0 1 0 1 0 0 1 1 0 0 0 1 1 1 1 1 0 0 0 1]
  [0 0 1 0 1 0 1 1 0 1 1 1 0 1 1 1 0 1 1 1 1 0 0 1 1 1 0 0 0 1 1 1]
  [1 0 1 1 1 0 1 1 1 1 0 0 0 1 1 0 0 0 0 0 0 0 0 1 1 1 1 1 0 0 0 1]]

 [[0 0 1 0 1 0 0 0 0 0 0 1 1 1 0 1 1 1 1 1 0 0 1 1 0 0 1 0 0 0 1 1]
  [0 0 1 0 1 0 1 1 0 0 0 1 1 1 1 1 0 0 1 1 0 1 1 1 1 1 1 0 0 1 0 1]
  [0 0 1 0 1 0 1 1 0 1 0 1 1 0 1 1 0 1 1 0 1 0 1 1 1 1 0 1 0 1 1 1]
  [0 0 1 0 1 0 1 1 1 1 1 0 0 0 1 1 0 0 1 0 0 0 1 1 1 1 0 1 0 0 0 1]
  [1 0 1 1 0 0 1 1 1 1 0 0 1 1 1 1 0 1 0 0 1 0 1 1 1 0 0 0 0 0 1 1]]

 [[0 0 1 0 1 1 0 0 0 0 0 1 1 0 1 1 1 0 1 0 1 1 0 0 1 1 0 0 0 1 1 0]
  [0 0 1 0 0 1 0 0 0 0 0 1 1 0 1 1 0 1 1 0 1 1 1 0 1 1 0 0 0 1 1 0]
  [0 0 1 0 0 0 0 0 1 0 0 1 1 0 1 1 1 1 1 0 1 0 0 1 1 1 0 1 0 1 1 1]
  [0 0 1 0 0 0 1 1 0 0 0 0 1 0 1 1 1 1 1 0 1 0 1 0 1 1 0 0 1 1 1 1]
  [1 0 1 0 1 0 1 1 1 0 0 1 1 1 1 0 1 0 1 0 0 0 0 0 0 0 1 0 0 1 1 1]]],[[[0 0 1 0 0 0 0 0 1 0 0 0 1 0 1 1 0 0 1 0 1 0 0 0 1 1 1 1 1 1 1 0]
  [1 0 0 0 0 0 0 0 0 0 0 0 1 0 0 0 0 0 1 1 1 1 0 0 1 1 1 0 0 1 1 0]
  [0 0 1 0 0 1 0 0 1 0 0 1 0 0 0 1 0 0 1 1 0 0 0 0 0 0 1 0 1 1 0 0]
  [0 0 1 0 1 1 0 0 0 0 0 0 1 0 0 0 0 0 1 0 0 0 0 0 1 0 1 0 0 1 1 0]
  [0 0 1 0 0 0 0 0 0 0 0 1 1 0 0 1 0 1 1 1 1 0 0 0 1 1 1 1 0 1 1 0]]

 [[1 0 1 1 0 0 0 0 1 0 0 0 1 1 0 1 0 1 1 0 1 0 1 0 1 1 0 1 1 1 1 0]
  [1 1 0 0 0 0 0 0 1 0 0 1 1 1 0 0 0 0 0 0 1 0 1 0 1 1 0 1 1 1 1 0]
  [0 0 0 0 0 0 0 0 1 0 0 0 0 1 0 1 0 0 1 1 1 0 0 0 1 0 1 1 1 1 1 0]
  [0 1 1 0 0 0 0 0 0 0 0 1 1 1 0 1 0 0 1 0 1 1 1 0 1 1 0 0 0 1 1 0]
  [0 0 0 1 1 0 0 0 1 0 0 1 1 1 0 1 0 1 0 0 1 0 1 0 1 1 0 1 1 1 1 0]]

 [[1 0 0 0 0 0 0 0 1 0 0 1 1 1 0 1 0 1 0 0 1 0 0 0 1 0 0 1 1 1 0 0]
  [1 0 0 0 0 0 0 0 1 0 0 1 1 1 0 1 0 1 0 0 1 0 0 0 1 0 0 1 1 1 1 0]
  [1 1 0 0 1 0 0 0 1 0 0 1 1 1 0 1 0 0 0 0 1 0 0 0 1 1 0 1 1 1 1 0]
  [0 1 0 0 1 0 0 0 1 0 0 1 1 1 0 1 0 0 0 0 1 1 0 0 0 1 0 1 1 1 1 0]
  [0 1 0 0 1 0 0 0 1 0 0 1 0 1 0 1 0 0 1 0 1 0 0 0 0 1 0 1 0 1 1 0]]

 [[1 1 0 1 0 1 1 1 1 1 1 0 0 1 0 0 1 1 1 1 1 0 1 0 1 0 0 1 1 0 0 0]
  [1 1 0 1 1 1 1 0 1 1 1 1 1 0 0 1 1 1 1 1 1 0 1 1 1 1 0 1 1 1 1 0]
  [1 1 1 1 1 1 1 0 1 1 1 1 0 1 0 1 1 1 1 1 1 0 1 1 0 0 0 1 1 1 1 1]
  [1 1 1 0 1 0 1 0 1 1 0 1 1 0 1 1 1 1 1 1 0 1 1 0 0 1 0 1 0 1 1 1]
  [0 1 0 1 1 1 1 0 0 1 0 1 0 0 1 1 1 1 1 1 1 1 1 0 0 1 0 1 0 1 1 1]]

 [[1 0 0 0 1 1 1 0 1 1 1 0 0 0 1 0 1 0 1 1 0 0 1 1 0 0 0 0 0 0 0 0]
  [1 0 1 0 1 1 1 0 0 1 1 0 1 0 1 0 1 0 0 1 0 0 1 1 0 1 1 1 1 0 0 1]
  [1 0 1 1 1 1 1 1 0 1 1 0 0 0 1 0 1 0 0 1 0 1 1 0 0 0 1 1 0 0 0 1]
  [1 0 1 1 1 1 1 0 0 1 1 0 0 0 1 1 1 1 0 1 0 0 1 1 1 0 0 1 0 0 0 1]
  [0 1 1 0 1 1 1 1 0 1 1 0 0 0 1 1 1 0 1 1 0 1 1 1 1 0 1 1 0 0 0 1]]],[[[0 1 0 1 1 0 1 1 0 0 0 1 0 1 1 1 0 1 1 1 0 0 0 0 0 0 1 0 0 0 1 1]
  [0 1 1 1 1 1 1 1 0 1 0 1 1 0 1 1 1 0 1 1 0 0 0 0 0 0 1 0 0 1 1 1]
  [1 1 1 1 1 1 1 0 1 1 1 0 1 0 1 1 1 0 1 1 0 0 0 0 0 0 1 0 1 1 1 1]
  [1 0 1 1 0 1 1 0 1 1 1 0 1 0 0 0 1 1 1 1 0 0 0 0 0 0 1 0 1 0 1 0]
  [1 0 0 1 0 1 0 0 1 0 1 0 1 0 0 0 1 1 1 1 0 1 0 0 0 1 1 0 1 1 0 0]]

 [[0 0 1 1 0 0 1 1 0 0 0 1 0 1 1 1 0 1 0 1 0 0 1 0 1 1 1 0 0 1 1 1]
  [0 0 0 0 1 1 0 0 0 0 1 1 1 0 1 1 0 1 1 1 1 0 1 0 0 1 1 0 0 1 1 1]
  [1 0 1 1 1 1 1 0 1 1 1 1 1 0 1 1 1 1 1 1 1 0 1 0 1 1 1 0 1 1 1 1]
  [1 0 0 0 1 1 0 0 1 1 1 1 1 0 1 0 1 1 1 1 1 0 1 0 1 0 1 0 1 1 1 1]
  [1 0 0 1 0 1 0 0 1 0 1 0 0 0 0 0 1 0 1 1 1 0 1 0 1 0 0 0 1 1 0 0]]

 [[1 0 1 0 0 1 0 0 1 0 1 1 1 1 1 0 0 1 0 1 1 0 0 0 1 1 0 0 0 0 1 1]
  [0 0 1 0 1 0 0 0 1 0 0 1 1 0 1 1 0 0 0 0 1 1 0 0 1 1 1 0 1 1 1 1]
  [1 0 1 0 1 0 0 0 1 1 1 1 1 0 1 1 1 0 0 0 1 0 0 0 0 1 1 1 1 1 1 1]
  [1 0 1 0 1 0 0 1 1 1 1 1 1 0 1 1 1 1 0 0 1 0 0 0 1 0 1 1 1 1 1 1]
  [1 0 0 1 0 0 0 0 1 0 1 1 1 0 1 0 1 0 0 0 1 0 0 0 1 0 1 0 1 1 1 0]]

 [[1 0 0 1 0 0 0 0 0 0 1 0 0 1 0 0 0 1 0 1 1 0 0 0 1 1 0 1 1 0 0 0]
  [1 0 0 0 0 0 1 0 1 1 1 1 1 0 0 0 0 1 0 0 1 1 1 0 1 1 0 0 1 0 1 1]
  [1 1 0 0 1 0 1 0 1 1 1 1 1 0 1 1 0 1 1 0 1 0 0 0 1 1 1 1 1 0 1 1]
  [1 1 1 0 1 0 0 1 1 1 1 1 1 0 0 1 0 0 0 0 1 0 0 0 1 1 1 1 1 1 1 0]
  [0 0 0 0 1 0 0 1 0 1 1 1 1 0 1 1 0 0 0 0 1 0 0 0 0 1 1 1 1 1 1 1]]

 [[1 1 0 0 0 0 0 0 1 0 1 0 0 1 0 0 0 1 0 1 0 0 0 0 0 0 0 1 1 0 0 0]
  [1 1 0 0 0 1 1 0 1 0 1 1 0 1 0 0 0 1 0 1 0 1 0 0 0 0 0 1 1 0 0 0]
  [1 1 1 0 0 0 1 0 1 0 1 1 0 0 0 1 1 0 0 1 0 1 0 1 0 0 0 1 1 0 0 0]
  [0 1 0 0 1 0 0 0 0 0 0 1 0 1 0 1 1 0 0 1 0 0 0 1 0 0 0 1 0 1 0 1]
  [0 1 0 0 1 0 0 0 0 0 0 1 0 1 0 1 0 0 0 0 0 1 0 1 0 1 0 1 0 0 0 1]]],[[[0 0 1 0 0 0 0 0 0 0 0 0 0 0 1 0 0 1 0 0 0 0 1 1 0 1 0 1 1 1 1 0]
  [1 1 1 0 0 0 0 0 0 0 0 1 1 0 1 0 1 0 0 0 1 0 1 1 1 0 0 0 1 0 1 0]
  [0 1 1 0 0 0 0 0 0 0 0 1 1 0 1 0 1 1 1 0 0 0 1 1 1 0 0 0 1 0 1 1]
  [1 1 0 1 1 0 0 1 0 1 0 1 0 0 0 1 0 0 1 0 0 0 1 1 0 0 0 0 0 0 1 0]
  [1 1 0 1 0 0 0 0 0 0 0 0 1 0 0 1 1 0 1 0 0 0 1 1 0 0 0 0 1 0 0 0]]

 [[0 0 1 0 0 1 0 0 0 1 1 0 0 0 1 0 0 0 0 0 1 0 1 1 0 1 0 0 0 0 0 0]
  [0 0 1 0 0 1 0 0 0 1 0 0 0 0 1 0 1 0 0 0 1 0 0 0 0 0 0 0 0 1 0 1]
  [0 0 1 0 1 0 0 0 0 1 0 1 1 0 1 1 1 0 0 0 0 0 0 1 1 0 1 0 0 0 0 1]
  [0 0 1 0 1 0 1 1 0 1 0 0 0 0 0 0 0 0 1 1 0 0 0 1 0 0 1 0 0 0 0 1]
  [0 0 0 1 0 1 1 0 0 1 1 0 0 0 0 0 0 0 1 1 0 0 0 1 0 0 1 0 0 0 0 1]]

 [[1 0 0 0 1 1 1 1 1 1 1 0 0 0 1 1 0 0 0 0 0 1 0 1 0 0 1 0 0 0 0 1]
  [0 0 0 0 1 1 1 1 1 1 0 1 1 1 1 1 1 1 0 0 0 1 0 1 0 0 1 0 1 0 1 1]
  [0 1 0 0 1 1 1 1 1 1 1 0 0 1 1 1 1 0 0 0 0 0 0 1 0 0 1 0 0 0 0 1]
  [1 1 0 1 1 1 1 1 0 1 0 0 0 1 0 0 0 0 1 1 0 0 0 1 0 0 1 0 0 0 0 1]
  [1 1 0 1 0 1 1 0 0 1 1 0 0 0 0 1 0 0 1 1 0 1 0 1 0 0 1 0 1 0 0 1]]

 [[0 0 1 1 1 0 1 1 1 1 0 1 1 1 0 1 0 1 1 1 1 1 0 1 1 1 0 1 0 1 1 0]
  [0 1 0 1 1 1 1 1 1 1 0 1 1 1 0 1 1 1 1 1 1 1 0 1 1 0 1 1 1 1 1 0]
  [0 1 1 1 1 0 1 1 1 1 1 1 0 1 0 1 0 1 1 1 1 0 1 1 1 0 1 0 0 1 1 1]
  [1 0 1 1 1 0 1 1 0 1 1 0 0 1 0 0 0 0 1 1 0 1 1 1 0 0 1 0 0 0 0 0]
  [1 0 1 1 0 1 1 1 1 1 1 0 0 1 0 0 0 1 1 1 0 1 0 1 0 0 1 0 1 1 0 0]]

 [[0 0 0 1 1 0 1 1 0 0 0 1 1 1 0 1 0 0 0 1 1 0 0 1 1 1 0 0 0 1 1 1]
  [1 1 1 1 1 0 1 0 1 1 0 1 1 1 0 1 0 1 0 1 1 1 0 1 1 1 0 0 1 1 1 0]
  [0 1 1 1 0 0 1 1 1 1 0 0 1 1 0 1 0 0 0 0 1 1 1 1 1 0 1 0 0 1 1 0]
  [1 1 0 1 0 0 1 1 0 1 0 0 0 1 0 0 0 0 0 1 1 1 0 1 0 0 0 0 0 1 0 0]
  [1 1 1 1 0 0 1 0 1 1 1 0 1 1 0 0 0 0 0 0 1 1 0 1 0 0 0 0 1 1 1 0]]],[[[1 1 1 1 0 1 0 0 1 1 0 0 1 1 0 0 0 0 0 0 0 0 1 0 1 1 0 0 1 0 1 0]
  [1 1 1 1 1 0 0 0 1 1 0 1 0 1 0 1 0 1 1 0 0 1 0 1 1 1 0 1 0 0 1 0]
  [0 1 1 1 1 1 1 0 0 1 0 0 0 1 0 1 0 1 1 0 0 1 1 1 0 1 0 1 0 0 0 0]
  [0 0 1 0 1 0 0 0 0 1 0 1 0 1 1 1 0 1 0 1 0 1 0 1 1 1 0 0 0 1 0 1]
  [0 0 0 0 1 0 1 0 0 1 0 0 0 1 1 1 0 1 0 1 0 1 0 1 0 1 1 1 0 1 0 0]]

 [[1 1 1 1 1 1 0 0 1 1 1 1 0 1 1 0 0 1 0 1 0 0 1 0 0 1 0 1 1 0 1 0]
  [1 1 1 0 1 1 1 0 1 1 1 0 0 1 1 1 0 1 1 1 0 0 1 1 0 1 0 1 0 0 0 1]
  [1 1 1 1 1 1 1 0 1 1 0 1 0 1 1 1 0 1 1 1 0 0 1 1 0 1 0 1 0 0 0 1]
  [1 0 1 0 1 1 1 0 0 1 0 0 0 1 1 0 0 1 0 1 0 0 1 1 0 1 0 1 0 0 0 1]
  [0 0 1 0 1 1 1 0 0 1 0 0 0 0 1 0 1 1 1 1 0 0 0 0 0 0 1 0 0 0 0 1]]

 [[1 1 1 0 1 1 1 0 0 1 1 0 0 1 0 1 1 0 0 0 0 0 1 0 1 1 0 1 1 0 0 0]
  [1 1 0 1 1 0 1 0 1 1 1 1 0 1 0 1 0 1 0 1 0 0 1 0 1 1 0 1 1 0 0 1]
  [1 1 0 1 1 1 1 0 1 1 1 0 0 1 1 1 1 1 1 1 0 1 1 1 1 1 0 1 1 0 0 1]
  [1 0 0 0 1 0 1 0 1 1 0 0 0 0 0 1 0 1 1 1 0 1 1 0 1 1 1 1 0 0 0 1]
  [0 0 0 0 0 0 0 0 0 1 0 0 0 0 0 0 1 0 1 1 0 1 0 0 0 1 1 1 0 0 0 1]]

 [[1 0 0 1 1 1 1 0 0 1 1 1 0 1 0 0 0 1 0 0 0 0 1 0 0 1 1 1 1 0 0 1]
  [1 0 1 1 1 1 1 0 1 1 1 1 0 0 0 1 0 1 0 0 1 0 1 0 1 1 1 1 1 0 0 1]
  [1 0 0 0 1 0 1 0 1 1 1 1 0 0 0 1 0 0 1 0 0 0 1 1 1 1 1 1 0 0 0 1]
  [1 0 0 0 1 0 1 0 0 1 1 1 0 0 0 0 0 0 1 0 0 0 0 0 1 1 1 1 0 0 0 1]
  [0 0 0 0 0 0 0 1 1 1 1 0 0 0 0 0 1 0 1 0 0 0 0 0 1 1 1 1 0 0 0 1]]

 [[0 0 0 0 1 1 1 0 0 1 1 1 0 1 0 1 0 0 0 0 0 1 1 0 1 1 1 1 1 1 1 1]
  [1 0 0 0 1 1 1 0 0 1 1 1 1 0 0 1 0 0 0 0 0 1 0 0 1 1 1 1 1 0 0 1]
  [1 0 0 0 1 0 1 0 0 1 1 1 0 0 0 0 0 1 1 0 1 0 0 1 1 1 1 1 1 1 1 1]
  [0 0 0 0 0 0 0 0 1 1 0 0 1 0 0 1 0 0 1 0 1 0 0 0 1 1 1 1 1 1 1 1]
  [0 0 0 1 0 0 0 0 1 1 0 0 1 0 0 0 0 0 1 0 0 0 0 0 1 1 1 1 1 1 1 0]]],[[[1 1 0 1 1 0 0 0 0 1 0 1 0 1 1 0 1 0 1 1 0 0 1 1 1 0 1 0 0 0 0 0]
  [0 1 0 1 0 0 0 1 0 0 0 0 0 1 0 0 1 1 1 1 0 0 1 1 0 0 0 0 0 0 0 0]
  [0 1 0 1 1 1 0 0 0 1 0 0 0 1 0 0 1 1 1 1 0 0 1 1 0 0 0 0 0 0 0 1]
  [1 1 0 1 0 1 1 0 0 1 1 0 0 1 0 0 0 1 1 1 0 0 1 1 0 0 0 0 0 0 0 1]
  [1 1 0 1 0 1 1 0 0 1 0 0 0 1 0 0 0 0 1 1 0 1 1 1 0 0 1 0 1 0 0 0]]

 [[0 1 0 0 0 1 1 1 1 1 0 1 1 1 1 0 0 0 1 1 0 0 1 1 0 0 0 1 0 0 1 1]
  [0 1 1 0 0 0 0 0 0 0 0 0 1 0 0 0 0 0 1 1 1 0 1 0 0 0 0 0 0 0 0 1]
  [0 0 0 1 0 0 1 0 0 0 0 1 0 0 0 0 0 1 1 1 1 0 1 0 0 0 0 0 0 0 0 1]
  [0 0 0 0 1 1 1 0 0 0 1 0 1 1 0 0 0 1 1 1 1 0 1 1 0 0 0 0 1 1 0 0]
  [0 0 0 1 0 1 0 0 1 0 1 0 0 0 0 0 0 0 1 1 1 1 1 1 0 0 0 1 1 0 0 0]]

 [[0 0 0 0 1 1 0 0 0 0 1 1 1 1 0 1 0 0 0 0 1 0 0 1 0 1 0 0 1 1 1 1]
  [1 0 1 1 1 1 1 0 1 1 1 1 1 0 1 1 0 1 1 0 1 0 1 0 0 1 1 0 1 1 1 0]
  [1 0 1 0 0 0 1 0 1 0 1 1 1 0 1 1 0 1 1 0 1 0 1 0 1 0 0 1 1 1 1 1]
  [1 0 0 0 1 0 0 0 1 0 1 1 1 0 1 1 0 1 0 0 1 0 1 0 1 1 0 0 1 1 1 0]
  [0 0 1 0 0 0 1 0 1 1 1 1 1 0 1 1 0 1 0 0 1 0 0 0 1 1 0 1 1 1 1 1]]

 [[0 0 0 0 0 0 0 0 0 1 1 1 1 1 0 1 0 0 0 0 1 1 0 1 1 1 1 1 1 1 1 0]
  [1 0 1 0 0 1 1 0 1 1 1 1 1 0 1 1 0 0 0 0 1 0 0 0 1 1 1 1 1 1 1 1]
  [1 0 1 0 1 1 1 0 1 1 1 1 1 0 1 1 1 1 0 0 1 0 0 1 1 1 1 1 1 1 1 1]
  [0 0 1 0 1 0 1 1 1 1 1 1 1 0 1 1 0 0 0 0 1 0 0 0 1 1 1 1 1 1 1 1]
  [0 0 0 0 1 0 0 1 1 1 0 1 1 0 1 1 0 0 0 0 1 0 1 0 1 1 1 1 0 1 1 1]]

 [[0 0 0 1 0 0 0 0 0 1 0 0 1 0 0 0 0 0 0 0 1 0 0 1 0 1 1 1 0 0 0 0]
  [1 1 1 1 0 1 1 0 1 1 1 1 1 1 1 1 1 1 1 0 1 1 1 1 0 1 1 1 1 1 1 1]
  [1 1 1 1 1 1 1 0 1 1 1 1 1 1 1 1 1 0 1 1 1 0 1 1 1 1 1 1 1 1 0 1]
  [0 0 1 0 1 0 1 1 0 1 1 0 0 1 1 0 1 0 1 0 0 0 0 1 1 0 1 1 0 0 1 0]
  [0 0 0 0 0 0 0 1 0 1 0 1 0 1 0 0 0 0 0 0 1 0 1 1 1 1 1 1 0 0 0 0]]],[[[1 0 1 1 0 0 0 0 1 0 1 1 0 0 0 1 0 1 1 0 1 0 1 0 1 1 0 1 1 0 0 0]
  [1 0 1 0 0 1 0 0 1 1 1 0 0 1 0 0 0 0 0 0 1 0 1 1 1 0 0 1 1 0 0 0]
  [1 0 1 1 1 1 0 0 1 0 0 1 0 0 0 1 0 0 1 1 1 0 0 1 1 1 1 1 1 0 0 0]
  [0 0 0 1 1 1 0 0 1 0 0 1 0 1 1 1 0 0 0 0 0 0 1 1 0 1 1 1 0 0 0 0]
  [0 0 0 1 1 0 0 0 0 0 0 1 0 1 1 1 0 0 1 0 0 0 0 0 1 1 1 1 0 0 0 1]]

 [[1 0 1 1 0 1 0 0 1 0 1 0 1 0 0 0 0 0 1 0 1 1 0 0 1 1 0 1 1 0 0 0]
  [1 0 1 0 1 0 0 0 1 1 1 0 0 1 0 0 0 1 0 0 0 0 1 1 1 1 0 1 1 0 0 0]
  [1 0 0 0 1 1 0 1 1 0 0 1 0 1 0 1 0 0 1 1 1 0 1 1 1 1 0 1 1 0 0 0]
  [1 1 0 1 1 0 0 1 0 0 0 1 0 0 1 1 0 0 1 1 0 1 0 1 0 1 0 1 0 0 0 1]
  [0 0 0 1 1 0 0 1 0 0 0 1 1 1 0 1 0 0 1 0 0 0 0 0 1 1 1 1 0 0 1 1]]

 [[1 1 1 0 0 0 0 0 1 1 0 1 0 1 0 1 0 1 1 0 1 0 0 0 1 1 0 1 1 0 0 0]
  [1 1 1 0 1 0 0 1 1 0 0 1 0 1 0 1 0 0 0 0 1 0 1 0 1 1 0 1 1 0 0 0]
  [1 0 0 0 1 0 0 1 1 0 0 1 0 1 0 1 0 0 1 0 0 1 1 1 1 1 0 1 1 0 0 0]
  [1 0 0 0 1 0 0 0 0 0 0 1 1 0 0 1 0 1 1 0 0 1 1 0 1 1 0 1 0 0 0 1]
  [0 0 0 1 1 0 0 1 0 0 0 1 0 1 0 1 0 0 1 1 1 0 0 0 1 1 0 1 0 0 0 1]]

 [[1 1 0 0 1 0 0 1 1 1 1 1 1 0 0 0 0 0 1 0 0 0 1 0 1 1 0 1 1 0 0 0]
  [1 0 1 0 1 0 0 1 1 0 1 1 0 0 1 1 0 1 0 0 0 0 1 0 0 1 0 1 1 0 0 0]
  [1 0 0 1 1 0 0 0 1 0 0 1 1 0 1 1 0 0 0 0 0 0 1 1 0 0 0 1 1 0 0 0]
  [0 1 1 1 1 0 0 0 1 1 0 1 0 1 1 1 0 0 0 1 0 0 0 0 1 1 0 1 1 0 0 1]
  [0 1 0 1 1 1 0 1 1 0 0 1 0 0 0 1 0 0 1 1 0 0 0 0 1 0 1 1 1 0 1 0]]

 [[0 1 1 1 1 1 0 1 1 1 0 1 0 0 1 1 0 0 1 0 0 0 1 1 1 1 0 1 1 0 0 0]
  [1 0 1 0 1 0 0 1 1 1 0 1 0 1 0 1 0 0 1 1 0 1 0 1 1 1 0 1 0 0 0 1]
  [1 0 1 1 1 0 0 1 1 1 1 1 0 1 0 1 0 0 0 1 0 1 0 1 1 1 0 1 0 0 0 1]
  [0 0 0 0 1 1 0 0 1 1 0 1 0 1 0 1 0 0 0 1 1 1 0 1 1 0 1 1 0 0 0 0]
  [1 1 1 0 1 1 0 0 0 0 0 0 0 0 0 1 0 1 1 1 1 0 0 1 1 1 1 1 1 0 0 0]]],[[[1 1 0 0 0 0 0 0 0 0 0 1 0 0 1 0 1 0 1 0 1 0 0 0 1 1 0 1 1 0 0 0]
  [1 1 1 0 0 0 0 0 1 0 1 1 0 1 1 0 1 1 1 0 1 0 1 1 1 1 0 1 0 0 0 0]
  [1 0 1 0 0 0 0 0 0 0 1 0 0 1 1 0 1 0 0 0 1 0 1 1 1 0 0 1 1 0 0 0]
  [1 1 1 0 0 0 1 1 1 0 1 0 1 1 1 0 1 1 1 1 0 1 0 1 1 0 0 1 1 0 0 1]
  [0 0 0 1 0 1 1 1 0 1 1 1 1 1 0 0 0 0 0 1 1 1 0 1 1 0 1 0 1 0 0 1]]

 [[1 0 1 0 0 1 0 0 0 0 1 1 0 0 1 0 1 1 1 1 1 1 1 0 1 1 0 1 1 0 0 0]
  [1 0 1 1 0 1 0 0 1 0 1 0 0 1 1 0 0 1 1 0 1 1 1 1 1 1 0 1 1 0 0 0]
  [1 0 1 0 0 1 1 0 1 0 1 0 0 1 1 0 0 1 1 0 1 1 1 1 1 1 0 1 1 0 0 0]
  [1 0 1 1 0 0 0 0 1 1 1 0 0 1 1 0 0 1 0 1 1 0 1 1 1 0 0 1 1 0 0 1]
  [1 1 1 1 1 1 1 0 0 1 1 1 0 1 1 0 0 1 1 1 0 0 0 1 0 0 0 1 1 0 0 1]]

 [[1 0 0 0 0 1 0 0 1 0 1 1 1 0 0 1 0 1 1 1 1 1 0 0 1 1 1 1 1 0 1 1]
  [1 0 1 0 0 1 0 0 1 0 1 1 1 0 1 0 0 1 1 0 1 1 1 0 1 1 1 1 1 0 0 0]
  [1 0 1 0 0 1 0 0 1 0 1 1 0 1 1 1 0 1 1 0 1 1 1 1 1 1 0 1 1 0 1 0]
  [1 1 1 1 0 1 1 0 1 1 1 0 0 1 1 0 1 1 0 1 1 0 1 1 1 1 0 1 1 0 0 1]
  [1 1 1 1 0 0 1 0 0 1 1 0 1 1 0 0 1 1 0 1 0 1 1 0 1 0 0 1 1 0 0 0]]

 [[1 0 0 1 0 0 0 0 0 0 1 0 1 0 0 0 1 1 1 1 1 0 0 0 1 1 1 1 1 1 1 0]
  [1 0 0 0 0 0 0 0 1 0 1 1 1 0 0 0 0 1 1 0 1 1 0 0 1 1 1 1 1 1 1 0]
  [1 0 0 0 0 1 0 0 1 0 1 0 1 0 1 0 0 1 1 0 1 1 0 0 1 1 0 1 1 1 1 0]
  [1 0 1 1 0 1 0 0 1 1 1 0 0 1 1 0 0 1 0 0 1 1 0 1 1 1 0 1 1 0 0 0]
  [1 0 1 1 0 1 1 0 1 1 1 0 0 1 1 0 1 1 0 0 0 0 1 0 0 0 0 1 1 0 1 0]]

 [[0 0 0 1 0 1 0 0 0 0 1 0 1 0 0 0 0 1 1 1 1 0 0 0 1 0 1 0 1 1 1 0]
  [1 0 0 0 0 0 0 0 1 0 1 0 1 0 0 1 0 1 1 1 1 1 0 0 1 1 1 1 1 1 1 0]
  [1 0 0 0 0 0 0 0 1 0 1 1 1 0 0 0 0 1 1 0 1 1 0 0 1 1 1 1 1 1 0 0]
  [1 0 0 0 0 0 0 0 1 0 1 1 0 0 0 1 0 1 0 0 1 1 0 0 1 1 0 1 1 1 1 0]
  [1 0 0 1 0 1 1 0 1 1 1 0 0 1 0 0 0 0 0 0 0 1 1 1 1 0 1 0 1 1 1 0]]],[[[1 1 1 0 0 1 1 1 0 1 1 0 0 1 1 1 1 1 0 0 0 1 0 1 0 0 0 0 0 1 0 1]
  [0 1 1 0 1 1 1 1 0 1 1 0 0 1 1 0 0 0 1 0 0 1 1 1 0 0 0 0 0 0 1 0]
  [0 1 1 0 0 1 1 0 0 1 0 0 0 1 1 0 0 0 1 1 0 1 1 1 0 0 0 0 0 0 0 0]
  [0 1 1 0 0 1 1 0 0 1 1 0 0 1 1 0 0 0 1 0 0 1 1 1 0 0 0 0 0 1 0 1]
  [0 1 1 0 0 1 1 0 1 1 1 0 1 1 1 0 1 1 1 1 0 1 1 1 0 0 0 0 0 1 1 0]]

 [[1 0 1 1 1 0 1 1 0 1 1 1 1 0 1 1 0 0 0 1 0 0 1 1 0 0 0 0 0 1 1 1]
  [1 1 1 1 1 1 1 1 1 1 1 1 1 1 1 1 0 1 1 1 1 1 1 1 0 0 0 0 1 1 1 1]
  [1 1 1 0 1 1 1 1 1 1 1 0 1 1 1 1 0 1 1 1 1 0 1 1 0 1 0 0 1 1 1 1]
  [1 1 1 0 1 1 1 1 1 1 1 1 1 1 1 0 0 0 1 1 1 1 1 1 1 0 0 0 1 1 1 1]
  [0 0 1 1 1 1 1 0 1 1 1 1 0 1 1 0 0 1 1 1 0 1 1 1 0 0 0 0 1 1 1 1]]

 [[0 0 0 0 0 0 1 0 0 1 1 0 1 0 0 0 0 1 1 0 1 0 0 1 1 0 0 0 0 1 1 0]
  [0 0 0 0 0 0 1 0 0 1 1 1 1 0 0 0 0 1 1 1 1 0 1 1 1 1 1 0 0 1 1 1]
  [0 0 0 0 0 0 1 0 0 1 1 1 1 0 0 1 0 0 1 1 1 0 1 1 1 1 0 0 0 1 1 1]
  [0 0 0 0 0 0 1 0 0 1 1 0 1 0 0 1 0 0 1 0 1 0 0 1 1 1 0 0 1 1 1 1]
  [0 0 0 0 0 0 0 0 0 1 1 0 0 0 0 0 0 0 1 0 0 0 0 1 0 1 0 0 1 1 1 1]]

 [[1 0 0 0 0 0 1 1 0 1 1 0 1 0 0 0 0 0 1 0 1 0 0 1 0 0 1 0 0 1 1 0]
  [0 0 0 1 0 0 1 0 0 1 1 0 1 0 0 0 0 0 1 0 1 0 0 1 0 1 1 0 0 1 1 1]
  [0 0 0 0 1 0 1 0 0 1 1 0 1 0 0 0 0 0 1 0 1 0 0 1 1 1 1 0 0 1 1 1]
  [0 0 0 0 1 0 1 0 0 1 1 0 1 0 0 0 0 0 1 0 1 0 0 1 1 0 1 0 0 1 1 1]
  [0 0 0 1 0 0 1 0 0 1 1 0 1 0 0 0 0 0 0 0 1 1 0 1 0 0 1 0 1 1 1 1]]

 [[1 0 0 1 0 1 1 0 0 1 1 0 0 1 0 0 1 0 0 1 1 0 1 1 0 1 1 0 0 1 1 0]
  [0 0 0 1 0 0 1 0 0 1 1 0 1 0 0 0 0 0 1 0 0 0 1 1 0 0 1 0 0 1 0 0]
  [0 0 0 1 0 0 1 0 0 1 1 0 1 1 0 0 0 0 0 0 0 0 0 1 0 0 1 0 0 1 1 0]
  [0 0 0 1 0 0 1 0 0 1 1 1 1 0 0 1 0 0 1 0 1 0 0 1 1 0 1 0 0 1 1 1]
  [0 0 0 1 1 0 1 1 0 1 0 0 1 1 0 0 1 0 0 0 1 0 0 1 0 0 1 0 0 1 1 1]]],[[[1 0 1 1 0 1 0 0 1 0 1 0 0 0 1 1 1 1 1 0 1 1 0 1 1 1 1 1 0 0 0 0]
  [1 0 1 0 1 0 1 0 0 0 0 1 0 0 0 0 0 1 1 0 0 1 0 1 1 1 0 1 1 0 0 0]
  [1 0 1 1 0 0 1 1 1 1 0 1 0 0 1 1 0 1 0 0 0 0 0 1 1 1 0 1 0 0 0 0]
  [0 0 1 0 0 0 1 1 1 1 1 1 0 0 1 1 0 1 0 0 1 0 0 1 1 1 1 1 1 0 0 1]
  [1 0 1 1 0 0 1 1 1 0 1 0 1 1 1 0 1 1 0 0 1 0 0 1 1 1 0 1 0 0 0 1]]

 [[1 0 0 0 0 0 1 0 1 0 1 0 0 0 0 1 1 1 1 0 0 1 0 1 1 1 1 1 1 0 0 1]
  [1 0 0 0 1 0 1 0 1 1 1 0 0 0 0 0 0 1 1 0 0 1 1 1 1 1 1 1 1 0 0 0]
  [1 0 0 0 0 0 1 0 1 1 1 0 0 0 0 0 0 1 1 1 0 1 0 1 1 1 0 1 1 0 0 0]
  [1 0 0 0 1 0 1 1 0 1 1 0 0 0 1 0 0 1 0 0 0 1 1 1 1 1 0 1 0 0 0 0]
  [1 0 1 0 1 0 1 1 0 1 1 1 0 0 1 0 0 1 0 0 0 0 0 1 1 0 1 1 1 0 0 1]]

 [[1 0 0 0 0 1 1 0 0 1 1 0 0 0 0 1 0 1 1 1 0 1 0 1 0 1 1 1 1 0 0 0]
  [1 0 0 0 0 0 1 0 1 1 1 0 0 0 0 0 0 1 1 1 0 1 0 1 1 1 0 1 1 0 0 0]
  [1 0 0 0 1 0 1 0 0 1 1 0 0 0 0 0 0 1 1 1 0 1 0 1 1 0 0 1 0 0 0 0]
  [1 0 0 0 1 0 1 0 0 1 1 0 0 0 0 0 0 0 1 1 0 0 1 1 1 0 1 1 0 0 0 0]
  [1 0 0 0 1 0 1 1 1 1 0 0 0 1 0 0 0 0 0 1 0 0 0 1 1 0 1 1 0 0 0 1]]

 [[1 1 1 1 0 0 1 0 1 1 1 0 0 1 0 1 1 1 1 1 0 1 0 1 0 1 1 1 0 0 0 1]
  [1 1 1 0 1 1 1 0 0 1 1 0 0 1 0 0 0 1 1 1 0 1 0 1 0 0 1 1 1 0 0 0]
  [1 1 1 1 1 1 1 0 0 1 1 0 0 1 0 0 1 1 1 1 0 1 1 1 0 0 0 1 0 0 0 0]
  [1 1 1 1 0 1 1 0 1 1 1 0 0 1 0 0 1 1 1 1 0 0 1 1 0 0 0 1 0 0 0 1]
  [1 1 1 1 1 1 1 1 1 0 0 0 0 1 1 0 1 1 1 1 0 0 1 1 0 0 0 1 1 0 0 1]]

 [[0 0 0 1 1 0 0 0 0 0 0 1 1 0 0 1 0 1 1 1 0 1 0 1 0 1 1 1 1 1 0 1]
  [1 0 1 1 1 0 1 0 0 0 1 0 0 0 0 0 0 1 1 1 0 1 1 1 0 0 0 1 1 0 0 0]
  [1 0 0 1 0 1 1 0 0 0 1 0 0 1 0 0 0 0 0 1 0 1 1 1 0 0 0 1 0 0 0 0]
  [1 0 1 1 0 1 1 0 0 0 1 0 0 1 0 0 0 0 0 1 0 0 1 1 0 0 0 1 0 0 0 1]
  [1 0 1 1 0 1 0 0 1 0 0 0 0 1 0 0 0 0 0 1 0 0 1 1 0 0 1 1 1 0 0 1]]],[[[0 0 0 0 1 0 0 1 0 0 0 1 0 0 0 0 0 0 0 0 0 0 0 1 1 1 0 1 0 0 0 1]
  [0 1 0 1 1 0 1 1 0 0 0 1 0 1 1 0 0 1 0 0 0 1 1 1 0 1 0 0 0 0 0 1]
  [0 0 1 1 0 1 1 1 0 0 1 0 1 1 1 0 1 0 0 1 0 1 0 0 0 0 1 0 0 0 0 0]
  [0 0 0 1 0 0 1 1 0 0 1 0 0 1 0 0 0 1 0 0 0 1 0 0 1 0 0 0 1 0 0 0]
  [0 0 0 0 0 0 0 0 1 0 1 0 0 1 0 0 0 1 0 1 0 1 0 0 0 0 0 0 1 0 0 0]]

 [[0 0 0 1 1 0 1 0 0 1 0 1 0 1 0 1 0 0 1 1 0 0 0 1 1 0 0 1 0 0 1 1]
  [0 1 1 1 1 1 1 0 0 1 1 0 1 1 1 0 1 1 1 0 0 1 0 1 1 1 0 1 0 0 0 1]
  [1 1 1 1 0 1 1 0 1 1 1 0 0 1 1 0 1 1 1 1 0 1 1 0 1 0 1 0 0 1 0 1]
  [1 0 1 1 0 1 1 1 1 0 1 0 0 1 1 0 0 1 1 1 0 1 1 0 1 0 1 0 0 0 0 0]
  [1 0 0 1 0 0 0 0 0 0 1 0 0 1 0 0 0 0 1 1 0 1 0 1 0 0 1 0 0 0 0 0]]

 [[0 1 0 0 1 0 1 0 0 1 0 1 1 0 1 1 1 1 1 1 0 0 0 1 0 0 0 0 0 1 0 1]
  [0 1 1 0 1 1 1 0 1 1 1 1 0 0 1 1 1 1 1 1 0 1 0 1 0 0 1 0 0 1 1 1]
  [1 1 1 1 0 1 1 0 1 1 1 0 0 0 1 1 1 1 1 1 1 1 1 1 0 0 1 0 1 1 1 1]
  [1 1 1 1 0 1 1 1 1 0 1 0 0 1 1 0 1 1 1 1 1 1 1 1 1 1 1 1 1 1 1 1]
  [1 1 1 1 0 1 0 0 1 0 1 0 0 1 1 0 1 1 0 1 1 0 0 0 0 0 1 0 1 0 0 0]]

 [[0 0 0 0 1 0 1 1 0 0 0 1 0 1 1 1 0 1 1 0 0 1 0 1 0 0 0 1 0 0 0 1]
  [1 1 0 0 1 1 1 1 1 1 1 1 1 0 1 1 1 1 1 0 1 1 0 1 1 1 0 1 1 1 1 1]
  [1 1 1 0 1 1 1 1 1 1 1 0 1 0 1 1 1 1 1 1 1 1 1 1 1 1 0 0 1 1 1 1]
  [1 1 1 1 0 1 1 1 1 0 1 0 1 1 1 0 1 1 0 0 1 1 1 1 1 1 0 1 1 1 1 0]
  [1 0 0 1 0 1 1 0 1 0 1 0 0 1 0 0 0 1 1 1 0 1 0 1 0 0 0 0 1 0 0 0]]

 [[0 0 0 0 0 0 0 0 0 0 0 1 1 0 0 0 0 0 0 0 0 0 1 0 1 1 0 0 0 1 1 0]
  [1 1 0 0 1 0 1 0 1 1 1 1 1 0 0 1 0 1 0 0 1 1 1 0 1 1 0 0 0 1 1 1]
  [1 1 0 0 0 0 1 1 1 1 1 1 1 0 1 1 0 1 0 0 1 0 1 0 1 1 0 1 1 1 1 1]
  [0 1 0 0 0 1 1 1 1 0 1 1 1 0 0 1 0 1 0 0 1 1 1 1 1 1 0 1 1 1 1 0]
  [0 0 0 0 0 0 0 0 1 0 0 0 0 1 0 0 0 1 0 0 1 0 1 0 1 1 0 1 1 1 0 0]]],[[[0 0 0 0 1 0 0 0 1 1 1 0 0 0 0 1 0 1 1 1 0 0 0 1 0 0 0 1 1 0 0 0]
  [0 1 1 1 1 1 1 0 0 1 0 1 1 0 0 0 1 0 0 1 1 1 0 1 0 1 1 1 0 0 0 1]
  [0 1 1 0 1 1 0 0 1 1 0 1 1 0 1 1 1 1 1 0 1 0 1 1 1 1 0 1 0 0 0 1]
  [0 1 1 0 1 1 0 1 0 1 0 1 1 0 1 0 0 0 0 0 1 0 1 0 1 1 0 1 0 0 0 0]
  [0 1 0 1 1 0 0 1 0 1 0 0 0 1 0 1 0 0 1 0 1 0 0 0 1 1 1 1 0 1 0 0]]

 [[1 0 0 1 1 0 1 0 0 1 0 1 1 0 1 0 1 0 1 1 0 0 1 1 0 0 0 0 0 0 0 1]
  [0 1 0 1 1 1 0 1 0 1 0 1 0 1 1 1 1 0 0 1 1 0 1 0 1 1 1 1 0 0 1 1]
  [0 0 1 0 1 1 1 1 0 1 0 1 1 0 1 1 0 1 0 0 1 0 1 0 1 1 0 1 0 1 1 1]
  [0 1 1 0 1 0 0 1 0 1 0 1 1 1 1 1 0 0 0 0 1 0 0 0 1 1 1 1 0 1 1 1]
  [0 0 0 1 1 0 0 1 0 1 0 1 0 1 0 0 0 0 0 0 0 0 0 0 1 1 0 1 0 1 1 1]]

 [[0 0 0 0 1 0 0 1 0 1 0 1 0 1 1 1 0 0 0 0 0 0 1 1 1 1 1 1 0 0 0 1]
  [0 1 1 1 1 0 1 1 0 1 0 1 1 1 1 1 0 0 0 0 1 0 0 0 1 1 1 1 0 1 1 1]
  [0 0 1 0 1 0 0 1 0 1 0 1 1 1 1 1 0 0 0 0 1 0 1 0 1 1 0 1 0 0 0 1]
  [0 0 1 0 1 0 0 1 0 1 0 1 1 1 1 1 0 0 0 0 1 0 0 0 1 1 0 1 0 1 1 1]
  [0 0 0 0 1 0 0 0 0 1 0 1 0 1 0 1 0 0 1 0 1 0 1 0 1 1 1 1 0 0 0 0]]

 [[0 0 0 1 1 0 1 1 0 1 0 1 1 1 1 1 0 0 0 0 0 0 1 1 1 1 0 0 0 0 1 1]
  [0 1 1 0 1 0 0 1 0 1 0 1 1 1 1 1 0 1 0 0 1 0 0 0 1 1 0 1 0 1 1 1]
  [0 0 1 0 1 0 0 1 0 0 0 1 1 1 1 1 0 0 0 0 1 0 0 0 1 1 0 1 0 1 1 1]
  [0 0 0 1 1 0 0 1 0 1 0 1 1 0 1 1 0 0 1 0 1 0 0 0 1 1 0 1 0 1 1 1]
  [0 0 0 1 1 0 0 0 1 1 0 1 1 0 0 0 0 0 1 1 1 0 0 0 1 1 0 0 0 1 1 1]]

 [[0 0 0 0 1 0 0 1 0 1 0 1 0 1 0 0 0 0 0 0 0 0 1 1 1 1 0 0 0 1 0 1]
  [0 1 0 0 1 0 0 1 1 1 0 1 1 1 0 0 1 1 1 0 1 0 0 0 1 1 0 1 0 1 1 1]
  [0 1 0 0 1 1 0 0 0 1 0 1 1 0 0 1 0 0 1 1 1 0 1 0 1 1 0 0 0 0 0 1]
  [0 0 0 0 1 0 1 1 0 1 1 1 1 0 1 1 0 1 1 1 1 0 0 0 1 1 1 0 0 1 1 1]
  [0 0 0 0 1 1 1 0 0 1 0 1 1 0 0 1 0 1 1 1 1 0 1 0 0 1 1 0 0 0 0 1]]]};

float bn2_wt[N_BN2_WT] = {-49.79230490175728,-44.947451259935164,-27.814583650453642,-70.90294841378234,-25.70505641901356,-23.169023999808875,-91.03563805820635,-25.393216771519008,-80.5250052668865,-18.987281374356016,-13.059510836315184,-17.339015605777355,-54.903501994428424,-24.04269717477665,-62.95371248336346,-73.79127034241715,-63.54791664296866,-48.715053090506004,-21.72352076736719,-24.19451777586235,-30.281466800440057,-68.99123925847536,-22.043678558960494,-71.23811673073159,-34.940771695040866,-72.34412602067977,-87.14343934635792,-25.294273289891976,-51.77907417957073,-32.1512073381563,-18.600660840719627,-36.24820876829754};

int conv3_wt[N_CONV3_WT] = {313987271,1789940223,-898572365,-1446379597,-2098410521,1656100063,2056413118,-72287045,-979251285,-1242782137,1246827710,-74359110,-108931393,-2061237017,355246661,-338002702,-342270285,-1383279057,86286916,87851076,-665097997,-24420829,-2027572727,929997377,867958804,-1718707771,-607485723,437947238,522881925,423610721,1574357825,1942769089,415772640,1522568033,428657985,-1867060384,1926753056,842032992,-1330188444,272558884,414305280,850904880,1916659512,-742477968,-709564667,1000371812,-1150254412,-1825567056,-1221439515,-1749791295,1209995725,739480817,-313393671,-1542152961,-2062248999,1585911292,1276632756,-1941598304,-2075711001,-1881734207,999677174,-1471808780,-2012926363,-1540936989,-1884019007,909148278,-730797466,-1454622175,-1272307647,1060418145,-1794010894,-1791694653,-1608996349,761802852,1294996084,-738958510,-78632494,167783152,-84379138,1543268706,307242335,-230000417,1242086102,1858630880,2147185687,-1537579059,-2107999013,-892847881,1789434548,709366308,604706637,-1503935287,-875823981,1808718580,1954910988,780605197,-1503173300,-1687818302,-271712844,906327496,-1283923100,863536358,863519022,-226990732,-1321705380,-1875253756,-160704602,295260078,1283159458,-2122373936,-1860211250,-212006978,830078886,2015091980,270509702,1386103824,1944052986,867952270,2090521756,277606044,2072798980,-203921538,-73896138,-73898724,-1280743972,-2004829467,-314393635,184597019,-278529829,54792775,226803315,1812447039,789035327,-1354106567,1196797955,203471719,-1381057714,241549118,795194553,192259361,97529675,1141805839,1833746255,1835381884,257684537,70601545,-1598471475,201398853,1011465326,1818801787,-470794085,-222804933,-84872010,-337513292,-337517004,-1284479557,-6798157,2078045434,2035822034,1801512820,-1960303139,-200209984,-1307048255,-1340578616,-2089259951,-771290426,-992490623,-1801467517,-1805760119,-969259773,-970757561,-969417787,-1908946367,-2069411455,71238019,-2060165779,-2133835527,154162125,-851157672,-2085298820,-2060132625,-1001367361,68161775,1276272121,90578175,-2010891089,-1406889809,137411311,-332392209,-1927276353,1569117323,-440085341,-1927925585,2097845487,226906859,-2079155705,-2143340409,-1452066681,-2005526521,-2144202042,-1772473149,-489680765,-1818701129,-741314202,299397494,-1806554429,-488974205,-740755789,927529652,974970294,-2133182269,-69537613,1799945910,780685718,210538631,1788866763,-70583881,1670184612,109533580,310891481,717716975,-337641474,650472300,-1265166006,-1702497307,-2010695098,-1687832465,-1724554697,-1994036479,-2006619379,1297560956,-815292936,693501360,-1551538927,-2094174453,726499188,-77758544,-1424392847,-1315091261,-1850121661,1205564923,-288852767,1993167971,2061407299,2043647071,-2075502493,-2079666653,-1777575421,-1131505053,151556646,1065939525,-1181687743,-7282466,2072567930,-133634177,-1852781887,-1282348815,-135205831,1973429298,2017508922,-2098107677,-2081365903,-203363212,2120265524,409534324,1257759995,1333257458,2138825916,2001056948,789256837,728545972,1063859892,1986356380,-2144791921,-2043061369,850520143,-1031615993,-2112241147,-1940916623,-890636752,1647856642,-696619493,134400815,-1907431693,-932579600,1245270159,455691311,-1725735953,-1672948637,-1922435469,966022284,1024529166,957568014,965100642,-1760959373,909401102,892670734,941035823,959829102,924902501,438341772,1587581068,1579719518,237160652,86502351,1048614028,1721997470,-1766326371,-2017985301,-1745460658,-1078965620,-2033170215,-1858310967,-1208458111,-1791466921,-1657738683,-1786976183,-1286050725,836263961,838362303,-1741652107,-1351292563,990391613,967311644,844833567,-1690318159,-649917708,-1736373568,-658175036,-1733852682,-1619727835,-1746639167,854353609,1990608865,1524643557,-1803522877,-1567047477,580419651,1656263207,1933087476,547154383,1794281475,2138734658,1869652023,1460858997,681522510,-367575757,-78124749,-1085805647,-1618481279,-930734215,-863585029,-2138792965,-2067358989,201595853,-595526541,-1379770639,-1802660391,-2050254865,491894479,-656393627,-108000527,-2124398862,-2126138653,-1722729946,1221907945,-107752398,26097394,-997222933,224335375,-1942758815,-1743283215,-2012762255,-2065235725,8165156,-1906036884,-2022281749,-2129376629,-1073474570,1208128246,243220267,-1887539413,-2058327669,1649807431,1308792510,171473669,746224909,169356037,175249477,-1003291985,281999684,2018390598,944280068,-835527043,-1886199941,46071815,1618973190,672674372,-399270800,-818479111,1270111479,-1982567056,-611005114,456427589,188006167,-1630504847,-858719504,-590287631,1538301091,1527944709,439908869,-1562318751,-1964971423,-891113743,169908976,2063303695,2135565377,1182430325,-809048845,1602721479,1052251183,845747207,560489477,-2060950911,-1784319353,356354381,-1563082291,9978187,-2133767317,-1996107158,682462988,-490779317,-1063754221,-914757070,-1688409550,681545064,-893714157,-652674509,-548410576,-1618120848,-1164296907,-639997007,-1689489744,-1090097744,-1816837246,-1702691867,-1144328223,-1689980944,867436404,322371974,2075903152,-223611151,-626000272,-760301775,985584849,2073412976,-1147124368,1004824560,-1749621518,-1282054800,-126841484,-124501647,-1277949072,-1278212240,-1181620379,-1741219980,-622409359,549847808,-1874721999,-1877488795,742388516,-421017276,577192712,-219978911,-424154291,-882050124,1940164624,1922142464,-1233423882,456784007,208664241,2057606321,1117820808,-1227145287,-2109772153,960575350,1755364148,446992948,-1476964984,-2084999287,861533514,-1726218242,496811965,-2306695,-744536631,-1861130680,-1743691285,-1740574731,-1127551007,419692404,1541996086,-1254036,77070347,-728022805,-1732450197,-86114510,2012079404,1419251843,-564403215,-1073747864,872277296,-733354054,-937846111,-1436555080,1002267940,935089232,-2073344005,-2007508301,704945852,1068836146,94725468,-1000250407,-2005533711,216317296,606147870,420812686,297206540,-1286535856,-2106963728,-882359632,-1699279978,-407396524,182945270,778749040,-1779939824,984892006,-1461216714,979928102,577275444,-1321712125,813990966,-381042890,-1623605722,-1641486813,-1221048703,1001956404,-1314315986,-1690730706,-1255543281,-1280556017,1443905803,-233094755,-1878005404,-1806718519,-1860473981,-138718301,-17345098,1736920852,1447494088,-1852348597,582502023,-160938828,-1576513663,-1069266097,-780309689,-141015847,-456112999,-1802477431,-976721205,-981833109,-48242491,-1114478383,-1869520893,-145005757,-1820365921,-2111436002,-707472461,305959583,-669771089,319032135,166258295,1978586667,-1178736977,-589767025,365231823,422098500,1898488519,960012807,957901007,-1187452730,286045260,-249589585,1430230159,2044678302,2111459534,-1851172602,-1321622993,-1283512530,-1142998594,949836078,1687692441,-359133037,-657944397,-24594249,1854444731,1485541769,-1635542349,-607459151,2073020855,2057147315,-1701983455,-11666516,848161760,851962308,-1732251752,324911969,501083084,587031876,810886504,304606192,-1837602240,1156342080,565474628,1895380348,308896628,832058782,-4665090,950591358,-793236156,-1824972025,-241551973,-342166022,1367384052,1984829928,54272783,-476365889,-73410122,1116519228,69210318,925369871,-639681657,-119562464,579616344,1742755017,662729947,-2143319513,-2004903124,814628176,933787132,933246429,142902859,1023971967,957907503,817128267,269763310,-653219253,-646799121,421046799,1226607207,1225111423,-1689782096,-616044112,-1688770383,-614995789,-887362251,994966324,574975920,-1571854864,-1294766926,-1353094910,723855941,590483727,573637440,-1569512752,-1695519856,-804957369,-238221698,-642168722,-124036026,-1073229233,-1986535830,-1734373589,-1717626322,-1197531280,-2121820309,-2128243901,-1858131154,406784774,137837316,152509306,224736987,1575948478,1530862990,1775984074,1235580123,795457279,-1150798594,-1143439880,-1342669366,-1524073013,-1149405401,-1275502029,-1147572685,-73898954,-113740738,-407046471,-1499961605,-405216014,-335612675,1826207164,649610121,1712505741,34196117,772710841,707694860,1404388293,1452792776,302500805,1582800820,436702605,1453525836,-458798131,176626500,40312640,715555719,2071525618,1932046547,1496945367,1776228494,169810438,2108065012,-1540815655,-2095617397,-354427985,1208457999,1774523508,-1540274997,-1021359469,-892396865,1747787695,-993831928,-1523493365,-2125504893,1842058943,755834542,1051661324,-1486785015,-1912048105,201365695,235675150,277140039,1015023150,816137790,3097131,279954191,-1850359801,-578616302,-373455822,-1044437456,1353124402,-1720325407,-1721243472,-1722290959,-640553744,-613303050,-1686771023,-1557828816,-1640665935,-1307450126,-630102798,243199011,-1149263837,456744978,-1288092654,-1149668193,-1713541155,-104306211,970518013,-69605508,1927102765,-1785240247,-577312312,1586034964,2085140412,232765214,-2079301055,-185579072,33589616,805348976,141077368,-1212653367,-185380390,228333820,620794431,929608286,128995405,1737970655,688198622,665620639,656978622,-1889862193,-850757173,-1992279345,1833679611,256442367,-1928790577,-863995443,1033419727,750958223,205569791,-1926169777,1281517709,278035265,-525812923,1818276735,1334736719,1154924571,1419397961,1686672975,2093134846,3701319,746224333,205158853,551598215,740866927,-1740641457,-1202252448,-1471042464,-2008306080,-2011710907,-1992848564,-998784728,154054376,-1003805972,-861425852,460721896,-1653421840,291695856,-664762128,-1740607776,242638576,777378545,-1570640143,-1537086349,-1938687901,-1122674029,-1351526157,-2011146174,24195621,-1925940569,1067726782,-471316593,54289311,-303732753,1789950399,1971889407,589882715,659088539,1675162874,2140730808,941396062,2064154625,1929937033,1914208387,1041992066,1592236368,1321708848,169594848,-1773712400,-2031678528,1122832132,1689007888,321414948,-433126907,-962113787,-909103111,-2132791307,2125205,-1233588856,444115436,-893339023,-1631012623,8429489,650131265,913866205,-1968506095,-1968510311,-1028859119,1655477105,43628317,1527510485,-1102387253,-540082541,1317983889,1184864057,1921466886,839476036,-1150062745,-611386841,-611331289,44335617,-755629772,303185732,-1835906125,-2104829391,1250736083,1123521980,1108819348,-594321475,-929112431,8887260,318736820,35064708,-1728644183,-1833641531,40274908,-1830319180,169151044,-1661478487,280414537,283634177,-1225789627,142404196,1478819452,1319433772,-882549357,-616081007,-905610314,-1706816656,-1705651597,-817142591,1313601169,1868889463,2146925898,374177619,1011352129,1313525764,956832524,1913286927,303645185,2144060962,2143804083,1536581135,2136167434,2136986123,875128170,-26647246,967408135,1971944203,-217222641,1940750604,1941512526,867763534,855199182,-1000643125,1698006284,1941247246,817169678,-1594684088,-999070605,1586867853,1108842909,139924632,6175792,-590156240,-2097747261,-935142735,-1997865295,-1964311952,-1099238800,-925443165,-900736069,-1977164045,-1706098959,-882707724,765262239,1721561261,546840941,-279288897,763934877,2144844283,1704958425,1889086413,1977608670,1872739279,1785724220,1841805661,68004696,-161486343,-351437873,1506780012,1556588892,1167032665,1171120589,-1848776371,-2109775516,-797824444,-2144820672,-2131189660,846962756,209006676,-1439353636,-1145770753,-474617137,120095375,205344836,691369084,-575277829,-944274293,1139377866,-1993276828,-1942736268,-1724564225,-2091447041,-1846212433,91996224,623814209,-1659421069,-255453445,465994931,-1943420734,758888548,557563491,-1139818973,-1201886473,-1862343085,-1335959533,-100917197,-377720218,950268534,167223443,-883481677,-614522702,-539027402,-919184620,442959846,-498653516,-1840287821,-1295029072,-2097844800,19699450,1799820538,841975479,-1570779509,596974795,788861030,1782815798,-1375215965,-1085808919,664231113,-1053814589,1107300550,1248116478,1868939262,-853165075,-417853191,1313381070,1241790014,1837088062,-282722545,1800451772,-1972004178,-2144056829,-1386322167,188753671,-1352417538,-2020151557,-2114100607,836460547,4924046,-1367343241,-1482268695,61196869,1707049028,2699846,-1145552481,-139376226,-2058794097,-1001566400,-1797960245,-1279956773,-1229502261,-1801958835,-1000718013,-1777211701,-1705547023,-893916959,-1824897019,557449475,-701471421,-1942503715,1762114293,1000770614,2139259960,1938933234,153205604,1763883748,983611956,992582452,990766900,1013704964,1953212560,-1204246281,-1602360173,-1333941375,527412532,240102324,-1655986000,-1921848176,-1753298559,921006064,-1528483920,-1576439828,-1100517904,-1619563119,1721517259,1654413002,1619547982,1619679101,1053054545,-7170045,1740017763,1704170095,1611896431,521338435,-1816573749,-1818342645,-1818467509,-709015258,-1810873786,-692592557,-140088055,-1028102117,-705207014,-944421348,1529101344,-1155522384,-1950783455,-790664528,-1850250364,994317556,995181748,-1959180767,-218805720,-1279827194,408967910,-1402444569,-1959762393,-474526926,-1288346880,1064079508,1059953356,937552092,-1762809657,383486855,237096964,73984212,-1889343408,-957814704,107586119,-1137579831,-2001082248,-1918829319,-2052265736,-1792482127,951426216,-1936703812,423146749,-1784336130,-1784838481,1026561124,758454964,758127870,-2146104593,-1783299449,837325668,1753748076,680297084,941132668,985177980,763928180,1972089382,1770691452,2049880956,2124002776,2028936752,1890560368,-650203856,-216199501,-82219855,-1678428368,-213963472,-1692832111,-1659254141,-1676939549,-1677786896,-1816795727,-1817089469,-1998460223,136358468,-1994369831,-204992259,840439012,-1169157937,191911413,-1882742853,-1362684519,-1986063049,-857778765,-1895311437,-1998643269,-1142989389,-912293965,-1744347205,-1978179661,-1429254359,1004457265,-636781008,-2012803215,-1970409693,-1965270685,-2083994576,167772272,-1475930266,-1430436349,-2002411521,-1933190221,-2011849805,-867983439,-1939496975,1216690127,-1932591105,214734599,1825562523,210558923,134774607,-645370931,1360554309,2022234177,403223242,618350183,1155224866,1889258584,1956303067,1285199610,-1606735322,-982882010,-1046841310,-239470025,-1677149594,863049262,-679774930,-1757843930,-1575462684,679083045,-414472261,-1233132496,-1508282861,-430909225,38403252,1997177143,931660816,-1776785901,-962397485,1210642130,-540096495,881230104,377701193,-607925295,1541532996,516934009,881296649,-1762565173,-1611170822,1269132750,976804887,-1300698061,-1842549198,1248519734,1133303334,404215950,-1171010245,-629216205,-953489917,-944794077,965187974,940640718,-1340904370,-216275933,-216477145,411506398,749147598,11750475,-88415181,-69471694,715463405,673321356,843225154,996107299,-10492366,301769962,2019210527,152609327,-1654725777,152337004,450864080,-35669580,-581522544,-1756923498,-1881707568,978267124,2060809396,-1168277839,-497717608,-1437241469,2073530715,2145093075,1796381201,-280061285,136221823,451371456,-94933520,-1690080624,-1891120464,-1954156672,304093700,-1933701368,-1946262509,-210747214,1800459838,640275052,-836629299,-613012157,-69540686,-2556226,1672548430,841159500,436220480,-1152686556,-1303842820,-204385062,-508243810,312973838,942662144,78629385,-472810277,1237618910,162498854,-1624257789,-1858086141,-1897208287,-324476367,-810240459,2067072926,2033517980,1848571441,1160734256,-1783298379,1930762140,420810975,1026225701,1963852321,-2020330795,-250281775,-2003494186,120247813,-2061544919,-2016005419,1398100185,-891986694,322499075,-2086997203,54949733,793800916,-1396343558,967312916,1915390480,-610500045,-69304134,1940389916,1537652188,866358736,374042080,-554726670,1610058002,436754422,1929417334,838870884,-1301389120,-1812633189,1323292210,1238283894,428118644,1928594770,-1812240765,-1719682542,-938558800,1236047026,-134540907,-1015323519,-1796625580,905757040,832045380,819528132,964291444,-1397751855,654302544,1979549000,1996202328,880410424,439222068,-563089608,312279320,-1298595455,-1858507007,2039961520,2147473329,1539134873,2059245457,1938401207,-1204051755,-1742519868,1488684721,-658731343,834512437,-1662129202,-1848843833,-1312217242,-1202182170,-57054227,-2068328520,-991960783,283092832,-195053708,-1809858692,-2069460528,-1856845648,34777648,-2143835536,70663056,1019616730,532840593,394434755,2140803268,2144492254,-1534836793,-1568613647,981769457,-1568359945,-1501267001,36479780,-1871150239,-1172544165,-73861893,1922627071,124030986,101357929,270492499,-81806918,-6383178,854367372,664819120,35613568,-343458893,-342385739,918836298,663770320,931686356,-728773841,-123749504,916485593,1070626009,933782104,-718304340,-1992311932,869327198,1938322814,998303486,578863311,445661387,-1785664495,-1284446856,2064709244,1837138548,461425917,-2051251813,-1491573735,-147260290,-349652234,673774327,221099165,1143571852,1192879322,-149034850,-683939458,243243189,203889053,-2105694839,-2021826173,-2021693049,74050892,-2056754204,-1846777019,-800585468,-1788187707,75005292,-2073498252,-1289163676,386458720,292055028,219805487,-1524761171,-1860373143,-1357339599,-1793264327,764846007,-1516431943,-1995434561,-912941125,631084986,-90235949,2022006677,-1164109933,-90334285,982327207,1521010829,-147265523,-1216847867,-143103988,909140046,1051825336,2104211640,1395646481,-701783744,-2026250167,980431908,943798324,426339764,-1556616784,-2093651071,2076448268,671618668,723074364,771190169,-1214919349,867185156,867706180,557332292,1032682877,933522824,361322,-207107230,465366590,-1154710986,-109451722,1242006112,-315644104,2065606198,965584314,939632282,1210563388,690989364,456205876,1003829428,-1170102538,1801952316,2078741788,860951230,918670038,442736340,997014566,-1284434768,-1289658750,-970483008,73776710,-1314959869,-1316326157,-1852277134,-108293483,432781879,-1717579861,-35657293,-1697502090,-69801002,-371475788,-1737527368,-1066971280,-1303941820,-1303941680,977825664,-1727722659,-2130229925,44977482,1127575898,1535394162,-1827320701,-1282191989,-1286127357,-1284284102,-604935884};

float shift3[N_SHIFT3] = {[[[1 1 1 0 0 0 1 1 0 0 0 0 1 0 0 0 1 1 1 0 1 1 0 1 0 1 0 0 1 0 0 0]
  [1 1 1 1 1 1 1 1 1 0 0 0 1 0 1 0 0 0 0 0 1 1 0 1 0 1 0 1 0 1 1 0]
  [1 1 0 0 1 1 0 1 1 1 1 1 1 0 1 1 0 0 0 0 1 1 1 0 0 1 0 1 0 0 1 1]
  [1 1 0 0 1 1 0 1 1 1 1 1 1 1 1 1 1 0 0 1 0 0 1 1 1 0 0 1 0 1 0 1]
  [1 1 1 0 0 1 1 1 1 1 0 1 0 0 1 1 0 0 1 1 0 1 1 1 0 1 0 0 0 0 0 1]]

 [[1 1 1 1 1 0 1 1 0 0 1 0 1 0 0 0 0 1 1 0 1 1 0 1 0 1 0 0 0 1 1 0]
  [0 1 1 1 1 1 0 1 1 1 1 1 1 0 1 0 0 1 0 0 1 0 0 1 0 1 0 1 1 1 1 0]
  [1 1 0 1 1 1 0 1 0 0 1 1 1 1 1 1 0 0 0 0 1 1 0 1 1 1 0 1 1 1 1 1]
  [1 1 0 1 0 1 0 1 1 1 1 1 0 0 1 1 1 0 0 0 0 1 0 1 1 0 1 0 0 0 1 1]
  [1 1 1 0 0 0 1 0 0 1 1 0 0 1 0 1 0 0 1 1 0 1 1 1 1 0 1 0 1 1 0 1]]

 [[0 1 1 1 1 1 0 1 0 0 1 0 1 0 0 0 1 0 0 0 1 0 1 0 0 1 0 1 0 0 1 0]
  [0 1 0 1 1 1 0 1 0 1 1 1 1 0 1 0 1 0 0 0 1 0 0 1 1 1 0 1 1 1 1 1]
  [1 1 1 1 1 1 0 1 0 1 1 0 1 0 1 1 1 0 0 0 0 0 0 1 1 0 0 1 1 1 1 1]
  [1 1 1 0 0 1 1 1 0 0 1 0 0 0 0 0 0 0 1 0 0 1 0 0 1 0 1 0 0 0 0 1]
  [1 0 1 0 0 0 1 0 0 1 0 0 0 1 0 1 0 0 1 1 0 1 0 0 1 0 1 0 1 0 0 0]]

 [[0 1 0 0 1 1 1 1 0 0 1 1 1 1 1 0 0 1 0 1 1 0 1 1 1 1 0 1 0 1 1 1]
  [1 1 0 0 1 1 0 1 0 1 1 1 1 0 1 0 1 0 0 1 1 0 0 1 1 1 0 1 0 1 1 1]
  [1 1 1 1 0 1 0 0 0 1 1 0 1 0 1 1 0 0 1 1 0 0 0 1 1 0 1 1 0 1 0 1]
  [0 0 1 0 0 0 1 0 0 1 0 0 0 1 0 1 0 0 1 0 0 1 0 0 1 0 1 0 0 0 0 0]
  [0 0 1 0 0 0 1 0 0 0 0 0 0 0 0 1 0 0 1 1 1 1 0 0 1 0 1 0 0 0 0 0]]

 [[1 1 0 0 1 1 1 1 0 0 0 1 0 1 1 0 1 1 0 1 1 0 1 0 0 0 0 1 1 0 1 1]
  [1 1 0 0 0 1 0 0 0 1 1 1 1 0 1 0 1 1 0 1 0 0 0 1 0 1 1 1 1 1 1 1]
  [1 0 0 1 0 0 0 0 0 1 0 0 1 1 0 1 1 0 1 0 0 1 0 0 1 1 1 0 0 0 0 1]
  [1 0 0 0 0 0 1 0 0 1 0 0 0 1 0 1 0 1 1 1 0 1 1 0 1 1 1 0 1 1 0 0]
  [0 0 1 0 1 0 0 0 0 0 0 0 0 0 0 0 0 0 1 1 1 1 0 1 1 1 0 0 1 1 0 0]]],[[[1 0 1 0 0 0 1 1 1 0 0 1 1 0 0 1 0 1 1 1 0 0 0 1 1 0 0 1 1 0 0 1]
  [1 0 1 0 0 1 1 1 0 0 0 0 0 0 0 1 0 1 0 1 0 0 1 1 1 1 0 1 1 0 1 1]
  [0 1 1 0 0 1 1 0 1 1 0 1 0 0 0 1 0 1 0 1 1 0 0 0 0 1 0 1 1 0 0 0]
  [1 0 1 0 0 0 0 1 1 1 0 1 0 0 0 1 0 1 0 1 0 1 0 0 1 1 1 1 1 0 0 0]
  [1 0 0 0 0 1 1 0 1 0 0 1 0 0 1 1 1 1 1 1 1 1 0 0 1 0 0 1 1 0 0 0]]

 [[1 0 0 0 0 0 1 0 1 1 0 1 0 0 1 1 0 1 1 0 1 0 1 1 1 0 1 1 1 0 1 0]
  [1 0 0 0 0 0 1 1 1 0 1 1 0 0 1 0 0 0 1 1 0 0 1 1 1 1 0 0 1 1 1 0]
  [0 0 0 0 0 1 1 1 1 1 1 1 0 1 0 0 0 0 0 1 0 0 1 1 0 0 0 1 1 0 0 0]
  [1 0 0 0 0 1 1 0 1 1 0 1 0 0 0 1 0 0 0 0 0 0 1 1 0 1 0 1 1 0 1 0]
  [1 0 0 0 0 0 1 0 1 0 1 1 0 0 1 1 0 0 1 1 0 0 0 1 1 0 0 1 1 0 0 0]]

 [[0 0 0 0 0 1 1 0 1 1 0 1 0 1 1 1 0 1 1 0 1 1 0 1 0 0 0 0 1 0 0 1]
  [0 0 0 0 0 1 0 0 1 1 0 1 0 1 1 1 1 1 1 0 1 0 1 1 0 1 0 0 1 1 1 0]
  [0 0 0 0 0 1 1 0 1 1 1 0 0 1 1 0 0 0 0 0 1 1 0 0 0 1 0 0 1 1 0 0]
  [0 0 1 0 0 1 1 0 1 1 1 1 0 1 1 1 0 1 1 0 1 1 0 1 0 0 0 0 1 1 0 1]
  [0 0 1 0 0 1 0 0 1 1 0 1 0 1 1 1 0 1 1 1 1 1 0 0 0 0 0 0 1 0 0 0]]

 [[0 0 0 0 0 0 0 0 0 0 1 1 0 0 1 1 1 0 0 0 1 1 0 1 0 0 0 1 1 0 0 0]
  [0 0 0 0 1 1 0 0 1 1 1 0 0 0 1 1 1 1 1 0 1 1 0 1 0 1 0 0 1 1 0 0]
  [0 0 0 1 1 1 0 0 1 1 1 0 0 1 1 1 1 0 1 1 1 1 0 0 0 1 0 0 1 1 1 0]
  [0 0 0 0 1 1 1 0 1 1 1 1 0 1 0 1 0 1 1 1 1 1 0 1 1 1 0 0 1 0 1 1]
  [1 0 1 0 0 0 0 0 1 1 1 0 0 1 1 1 0 0 1 0 1 1 0 1 1 0 1 0 1 0 1 1]]

 [[0 0 1 0 0 1 1 0 0 1 1 0 1 1 1 0 0 0 0 0 0 1 0 1 1 1 0 1 1 1 0 0]
  [0 0 1 0 1 1 0 1 0 1 0 0 0 0 0 1 0 0 0 0 1 1 1 0 1 1 0 1 1 1 0 1]
  [0 0 0 0 1 1 0 1 0 1 1 1 0 0 0 0 0 0 0 0 1 1 0 0 1 1 0 0 1 0 0 1]
  [1 0 1 0 0 1 1 1 1 1 1 1 0 0 1 0 0 1 0 0 1 1 0 0 1 1 1 0 1 1 0 1]
  [1 0 0 0 0 0 1 1 1 0 1 1 0 0 1 0 0 0 1 0 1 1 0 1 1 1 1 0 1 0 0 1]]],[[[1 0 1 1 0 0 1 1 1 0 0 0 1 0 0 0 1 1 1 1 1 0 0 0 0 0 0 1 0 0 1 0]
  [1 0 0 0 1 1 1 1 0 0 1 0 1 0 0 1 1 1 0 0 1 0 0 0 0 0 1 1 0 1 0 0]
  [1 0 0 1 1 1 1 1 1 0 1 1 1 1 1 1 1 0 0 0 1 0 1 0 1 0 1 1 0 1 1 1]
  [1 1 1 1 1 1 1 1 0 0 1 1 1 0 0 1 0 0 1 0 1 0 0 0 0 0 1 0 0 1 0 1]
  [1 0 0 1 1 0 1 1 1 1 0 0 1 0 0 1 0 0 1 0 1 0 0 0 1 0 1 0 0 0 0 1]]

 [[0 0 1 1 1 1 1 1 1 0 1 0 1 0 0 0 1 1 1 0 0 0 0 1 0 1 1 1 1 0 1 0]
  [0 0 1 0 1 1 0 1 0 1 1 1 1 0 1 1 1 1 1 0 1 0 0 0 0 0 1 1 0 0 1 0]
  [0 0 0 0 0 1 0 1 1 1 1 1 0 0 0 1 1 0 1 0 0 0 1 0 0 0 1 1 0 0 0 1]
  [1 1 1 0 0 1 1 1 1 0 0 1 0 1 0 0 1 1 1 0 0 0 1 0 0 0 1 0 0 0 0 1]
  [1 0 0 0 0 0 1 1 1 1 0 0 0 0 0 0 1 1 1 0 1 0 1 1 1 1 1 1 0 0 0 1]]

 [[0 1 1 0 1 1 1 1 0 0 1 1 1 0 1 1 1 0 1 0 1 0 0 1 1 1 0 1 1 1 0 0]
  [0 0 1 0 1 1 1 1 0 1 0 1 1 1 1 1 1 0 1 0 0 0 1 0 0 0 0 1 0 1 0 1]
  [1 0 1 0 0 1 1 0 0 1 1 1 0 1 0 0 1 0 1 0 0 0 0 0 0 0 0 1 0 0 0 1]
  [1 1 0 0 0 1 1 1 0 1 0 1 0 1 0 0 1 1 1 0 0 1 0 0 0 0 1 0 0 1 0 1]
  [1 0 0 0 0 0 1 1 0 1 1 0 0 1 0 0 0 0 1 0 1 1 0 1 1 1 1 1 0 0 0 1]]

 [[0 1 1 0 1 1 1 0 0 0 0 0 0 0 0 1 0 0 0 0 1 1 0 0 0 1 1 0 1 1 0 0]
  [0 1 1 0 0 1 1 0 0 1 0 1 0 1 1 1 0 0 0 0 1 1 1 0 0 0 1 0 1 0 1 1]
  [1 0 0 0 0 1 0 0 0 1 0 1 1 1 0 0 0 0 1 1 0 0 1 0 1 0 0 1 0 1 0 1]
  [1 0 0 0 0 0 1 0 0 0 0 0 0 1 0 0 0 1 0 1 0 1 0 0 0 0 1 0 1 1 0 1]
  [1 0 0 0 0 1 1 0 0 1 0 0 1 1 0 1 0 0 1 0 1 1 0 0 1 1 1 1 1 1 0 0]]

 [[0 1 0 0 1 1 1 1 0 0 0 0 1 0 0 1 1 0 0 0 1 0 0 0 1 0 1 0 1 0 0 1]
  [1 1 0 0 0 0 1 1 0 0 0 1 0 1 1 1 0 0 1 0 1 1 0 0 1 0 1 0 1 0 0 1]
  [1 1 0 0 0 0 0 0 0 1 0 1 0 1 0 1 0 0 0 1 1 0 0 0 0 0 0 0 0 1 0 1]
  [0 0 1 0 0 1 1 0 0 0 0 0 1 1 0 0 0 0 0 1 0 1 1 0 1 0 1 1 0 1 0 0]
  [0 0 1 0 1 1 1 0 0 1 0 0 1 0 0 0 0 0 0 0 1 1 0 0 1 0 1 1 0 0 1 0]]],[[[0 1 0 0 1 0 1 0 1 1 0 0 0 1 1 0 0 0 1 0 1 1 1 1 1 1 0 0 1 0 1 1]
  [0 1 0 0 1 0 1 1 1 0 0 1 0 1 0 0 0 0 0 0 1 0 1 0 1 1 0 1 1 1 1 1]
  [0 0 0 0 1 1 1 1 0 1 0 1 0 1 0 0 0 0 0 0 0 0 0 0 0 1 0 1 0 0 0 0]
  [0 1 1 1 1 1 1 1 1 0 0 1 1 1 1 0 0 0 0 1 1 1 1 1 0 1 0 1 1 1 1 1]
  [0 1 0 0 0 1 1 0 1 0 0 1 0 1 1 0 0 0 1 1 1 1 1 1 1 1 0 1 1 0 1 0]]

 [[1 1 1 1 1 0 1 0 1 0 1 0 0 1 0 0 0 0 0 0 1 0 1 0 0 1 0 0 1 0 0 0]
  [1 1 1 1 1 0 1 1 0 0 0 1 1 1 1 0 0 1 0 1 0 0 1 0 0 1 0 0 1 1 1 1]
  [0 1 1 0 1 0 1 1 0 1 0 1 1 1 0 1 0 0 0 1 0 0 0 0 0 1 0 1 0 0 1 0]
  [0 0 0 0 0 1 1 1 0 0 1 0 1 1 1 0 0 0 0 1 0 0 1 1 0 1 1 1 0 1 1 0]
  [1 1 1 0 1 0 0 0 0 0 1 0 1 1 1 0 1 1 0 1 1 1 1 1 1 1 1 1 1 1 1 0]]

 [[1 0 1 1 0 0 1 1 1 1 1 0 0 1 1 0 0 1 0 1 1 0 1 0 0 0 1 0 0 1 0 1]
  [1 1 0 1 1 0 1 1 0 0 1 1 1 1 1 0 0 1 0 1 1 0 1 0 0 1 0 0 0 0 0 1]
  [1 1 1 0 1 1 1 1 0 0 0 1 1 1 0 0 0 0 0 1 0 0 1 1 0 1 0 1 0 0 1 1]
  [0 0 1 0 1 1 0 1 0 1 0 1 1 0 0 1 0 0 0 1 0 1 0 1 0 1 0 1 0 1 1 0]
  [0 0 1 0 0 1 0 0 0 1 0 0 1 0 0 0 0 0 0 1 0 0 1 0 0 1 0 1 0 1 0 0]]

 [[1 0 1 1 0 0 1 0 1 1 1 0 1 0 0 0 1 1 0 1 0 0 0 0 0 0 1 0 0 1 0 0]
  [1 0 0 1 0 0 1 1 0 0 1 0 0 0 1 1 1 1 0 1 1 0 1 0 0 1 1 0 0 1 0 1]
  [1 1 0 0 1 0 0 1 0 0 1 1 1 1 1 1 1 1 0 1 0 0 1 1 1 1 0 1 0 0 1 1]
  [0 0 1 0 1 1 1 1 0 1 0 1 1 0 1 1 0 1 1 1 0 0 1 1 1 1 0 1 0 1 1 0]
  [0 0 1 1 0 0 0 0 1 1 0 0 1 0 0 1 1 0 1 0 0 0 0 1 0 0 1 0 1 1 1 0]]

 [[1 0 1 1 0 0 0 0 1 1 1 0 1 0 0 0 1 1 1 0 0 0 0 1 0 1 1 1 0 1 0 0]
  [0 0 1 1 0 0 1 0 1 0 1 0 0 1 1 0 1 1 1 0 0 1 1 0 0 1 1 0 0 1 0 1]
  [0 1 0 0 0 0 1 1 1 1 1 1 0 1 1 1 1 0 1 0 0 1 1 0 1 1 0 1 1 0 0 1]
  [0 0 1 0 1 1 0 1 1 0 1 1 1 1 1 1 1 0 1 1 0 0 1 1 1 1 1 1 0 1 1 1]
  [0 0 0 1 0 0 1 1 1 0 1 0 1 1 1 0 1 0 1 0 0 0 0 0 0 1 1 0 1 1 0 0]]],[[[0 0 1 0 0 1 1 0 1 1 0 0 0 1 1 1 0 0 0 1 1 1 1 0 1 1 0 0 1 1 0 1]
  [0 1 1 0 0 1 1 1 0 0 1 0 0 0 0 1 0 0 0 1 1 1 1 0 1 1 0 0 1 1 0 0]
  [0 1 1 1 0 1 0 0 1 0 0 0 0 0 1 0 0 0 0 1 1 1 1 0 1 1 0 0 1 1 0 0]
  [0 0 1 0 1 1 1 0 1 0 1 0 0 1 1 0 0 0 0 1 1 1 1 0 0 1 0 0 1 1 1 1]
  [0 0 1 1 1 0 1 0 0 0 0 0 0 1 1 0 0 0 0 1 1 1 0 0 1 0 0 0 1 1 0 1]]

 [[0 0 1 0 0 0 0 0 0 1 1 0 0 1 1 1 1 0 0 1 1 1 0 0 0 0 0 0 1 0 0 1]
  [0 1 1 0 0 1 0 1 1 1 1 0 1 0 1 1 1 1 0 1 0 1 1 0 0 1 1 0 1 1 1 1]
  [0 1 1 1 0 1 0 1 1 1 1 1 0 0 1 0 1 0 0 1 1 0 0 1 1 0 0 0 1 0 0 0]
  [0 1 0 0 0 1 0 1 1 0 1 0 1 1 1 0 1 1 0 1 1 1 1 0 0 0 1 1 0 0 1 0]
  [0 0 0 0 1 0 1 1 0 0 1 0 0 1 0 0 1 1 1 1 1 1 1 0 1 0 0 0 0 0 0 1]]

 [[0 1 1 1 0 0 1 1 1 0 1 1 0 1 1 0 1 1 1 1 1 0 0 0 1 0 0 0 1 0 0 1]
  [0 1 1 1 1 1 0 1 1 1 1 0 0 0 0 0 1 0 1 1 1 0 1 0 1 1 0 0 1 1 1 1]
  [0 1 1 0 0 1 0 1 1 1 1 1 1 1 1 1 1 0 0 1 1 1 1 0 1 0 0 0 1 1 0 0]
