#include "cnn_params.h"
int8_t conv1_wt[N_CONV1_WT] = {-1,-1,-1,1,1,1,1,1,1,1,-1,1,-1,-1,-1,1,1,1,1,1,1,-1,-1,-1,-1,-1,-1,-1,1,-1,1,1,1,-1,-1,-1,-1,-1,-1,-1,-1,-1,1,1,1,1,-1,-1,-1,-1,-1,-1,-1,-1,1,1,1,1,1,1,-1,-1,1,-1,1,-1,1,1,1,1,1,1,-1,-1,-1,1,-1,-1,1,1,-1,1,1,1,-1,-1,-1,-1,1,1,-1,-1,-1,-1,-1,-1,1,1,1,1,1,1,-1,-1,-1,1,1,1,-1,-1,-1,-1,-1,-1,1,1,1,1,1,-1,1,1,1,1,-1,1,-1,-1,-1,-1,-1,-1,1,1,1,-1,-1,-1,1,1,1,1,1,1,-1,-1,-1,-1,-1,1,1,-1,-1,1,1,-1,1,-1,-1,1,-1,-1,1,-1,1,1,1,-1,1,1,-1,1,1,-1,1,1,-1,1,1,-1,1,-1,-1,1,1,-1,1,1,-1,1,1,-1,1,-1,-1,1,-1,-1,1,1,-1,1,1,-1,1,1,-1,1,-1,-1,1,-1,-1,1,-1,-1,1,1,-1,1,-1,-1,1,-1,-1,-1,-1,-1,-1,-1,-1,1,-1,1,1,1,1,1,1,1,-1,-1,-1,-1,-1,-1,-1,-1,1,1,1,1,1,1,1,1,1,1,1,1,1,-1,-1,-1,-1,-1,-1,1,1,-1,1,1,1,1,1,1,-1,1,-1,-1,-1,-1,-1,-1,-1,-1,-1,1,-1,1,1,1,1,1,1,-1,-1,-1,-1,-1,1,-1,-1,-1,-1,1,1,1,1,1,-1,1,-1,-1,-1,1,-1,1,-1,-1,-1,1,1,1,-1,-1,-1,-1,-1,-1,1,1,1,1,1,1,1,1,1,1,1,1,1,1,1,1,-1,-1,1,1,1,1,1,1,1,-1,1,1,1,1,-1,-1,-1,-1,-1,-1,1,1,-1,-1,-1,-1,-1,-1,-1,-1,-1,-1,1,1,1,-1,-1,-1,1,1,-1,-1,-1,-1,1,-1,1,1,1,1,1,1,1,1,1,1,1,1,1,-1,-1,-1,-1,-1,-1,-1,-1,-1,-1,-1,1,-1,-1,-1,1,1,1,-1,-1,-1,-1,-1,-1,-1,-1,-1,-1,-1,-1,1,1,-1,1,1,1,1,1,1,1,1,1,1,1,1,1,1,1,-1,-1,-1,-1,-1,-1,1,1,1,1,-1,1,1,1,1,-1,-1,-1,-1,-1,-1,1,1,1,-1,1,1,1,1,1,-1,-1,-1,-1,-1,-1,1,1,1,-1,1,-1,1,1,1,-1,-1,-1,-1,-1,-1,1,1,1,-1,-1,-1,1,1,1,-1,-1,-1,-1,-1,-1,1,1,1,-1,1,1,1,-1,1,-1,-1,-1,1,-1,-1,1,-1,-1,1,-1,-1,1,1,-1,1,-1,-1,1,1,1,1,-1,-1,1,1,1,1,1,1,1,1,1,1,1,1,1,1,1,-1,1,1,-1,-1,-1,-1,-1,-1,-1,-1,-1,-1,-1,-1,-1,-1,-1,-1,1,1,-1,1,1,-1,1,1,-1,-1,1,-1,1,1,1,-1,1,1,-1,1,1,-1,1,1,-1,1,1,1,-1,1,-1,-1,1,-1,1,-1,-1,1,1,-1,1,1,-1,-1,1,-1,1,-1,-1,1,-1,-1,1,-1,-1,1,1,-1,1,-1,-1,1,-1,-1,1,-1,-1,1,-1,-1,1,-1,-1,1,1,-1,1,-1,-1,1,-1,-1,1,-1,-1,1,-1,-1,1,1,1,1,-1,-1,-1,-1,-1,-1,1,1,1,-1,1,-1,-1,-1,-1,1,1,-1,1,1,1,1,1,1,-1,-1,-1,-1,-1,-1,1,1,1,1,1,1,-1,-1,-1,-1,-1,1,1,1,-1,1,1,1,-1,-1,-1,-1,-1,-1,1,1,1,1,-1,1,-1,-1,1,-1,-1,-1,1,1,1,1,-1,1,-1,-1,1,-1,-1,-1,-1,-1,-1,-1,-1,-1,-1,-1,1,1,1,1,-1,1,1,-1,-1,-1,-1,-1,-1,-1,-1,1,1,1,1,1,-1,1,1,-1,1,-1,-1,-1,-1,-1,-1,1,1,1,1,1,-1,1,-1,1,-1,-1,-1,-1,-1,-1,1,1,1,1,1,1,1,1,1,1,1,1,1,-1,-1,1,-1,-1,1,1,-1,1,1,1,1,1,-1,1,1,-1,1,1,1,1,1,1,1,1,1,1,1,1,1,1,1,1,-1,1,-1,1,1,1,1,1,1,-1,1,-1,-1,1,-1,-1,1,-1,-1,-1,-1,-1,-1,-1,-1,-1,-1,-1,-1,-1,-1,-1,-1,-1,-1,-1,-1,-1,-1,-1,-1,-1,-1,1,1,-1,-1,-1,1,1,-1,-1,-1,-1,-1,-1,1,1,1,1,-1,1,1,1,1,1,1,1,-1,-1,-1,-1,-1,-1,-1,-1,-1,1,1,1,1,1,1,1,1,1,-1,-1,-1,-1,-1,-1,-1,-1,-1,1,1,1,1,1,1,1,1,1,1,1,1,-1,-1,-1,-1,-1,-1,-1,-1,1,-1,1,-1,-1,-1,-1,1,1,-1,-1,-1,1,1,1,1,-1,-1,1,-1,-1,-1,1,1,1,-1,-1,-1,1,1,1,-1,1,1,1,-1,-1,1,1,-1,-1,-1,-1,1,1,1,-1,-1,1,1,-1,-1,1,1,-1,1,-1,-1,-1,1,1,-1,1,1,-1,-1,-1,1,1,-1,1,-1,-1,-1,-1,1,1,1,1,-1,-1,1,1,1,1,-1,-1,-1,-1,-1,1,-1,-1,1,-1,-1,1,1,1,1,-1,-1,-1,-1,-1,1,1,-1,1,1,1,1,1,1,1,-1,-1,1,1,1,1,1,1,1,-1,-1,1,-1,-1,1,-1,-1,-1,1,1,1,-1,-1,1,1,-1,-1,1,-1,1,-1,-1,-1,1,1,1,-1,-1,1,-1,-1,-1,1,-1,1,1,-1,1,1,-1,-1,1,-1,1,1,-1,1,1,-1,1,1,-1,-1,1,-1,-1,1,-1,-1,1,-1,1,1,-1,-1,1,-1,-1,1,-1,-1,1,-1,-1,1,-1,1,-1,-1,-1,1,-1,-1,1,-1,1,1,-1,1,-1,-1,1,1,-1,1,1,-1,1,1,-1,1,-1,-1,1,1,1,-1,1,-1,-1,1,-1,-1,1,-1,-1,-1,1,-1,1,1,-1,1,-1,-1,1,-1,-1,1,1,-1,1,1,-1,1,1,-1,1,-1,-1,1,-1,-1,1,-1,-1,1,-1,-1,1,-1,-1,1,-1,-1,1,1,-1,1,-1,-1,1,-1,-1,1,-1,-1,1,1,-1,1,1,-1,1,-1,-1,1,1,-1,-1,-1,-1,-1,-1,-1,1,1,1,1,1,1,1,1,-1,-1,-1,-1,-1,-1,-1,1,1,1,1,1,1,-1,1,-1,-1,-1,-1,-1,-1,-1,-1,-1,1,1,1,1,1,1,1,-1,-1,-1,-1,-1,-1,1,-1,1,1,1,1,1,1,1,-1,1,1,-1,-1,-1,-1,-1,-1,1,1,1,1,1,1,-1,1,1,-1,-1,1,-1,1,1,-1,1,1,-1,-1,1,-1,-1,1,-1,1,1,-1,1,1,-1,1,1,-1,1,1,1,-1,1,1,-1,-1,1,-1,-1,1,-1,-1,1,-1,-1,1,-1,1,1,-1,-1,1,-1,-1,1,-1,-1,1,-1,-1,1,-1,-1,1,1,-1,1,1,-1,1,1,-1,1,1,-1,-1,-1,-1,-1,-1,-1,-1,1,1,1,1,1,1,-1,1,-1,-1,-1,1,1,1,1,1,1,1,1,1,-1,-1,-1,-1,1,-1,1,1,1,1,1,1,1,1,-1,-1,-1,-1,1,1,-1,1,1,1,1,1,1,-1,-1,-1,-1,-1,-1,1,-1,1,-1,1,1,-1,-1,-1,-1,-1,-1,-1,-1,1,1,-1,1,1,-1,-1,1,-1,1,1,-1,1,-1,-1,1,1,-1,1,1,-1,-1,1,-1,-1,1,-1,1,1,-1,1,1,-1,-1,1,-1,-1,1,-1,1,1,-1,-1,1,-1,-1,1,-1,-1,1,-1,1,1,-1,1,1,-1,-1,1,-1,-1,-1,1,-1,-1,-1,1,-1,-1,-1,-1,1,1,-1,1,1,-1,1,-1,1,1,1,1,-1,1,-1,-1,-1,1,1,-1,-1,-1,-1,1,1,1,-1,-1,-1,-1,-1,-1,1,1,1,-1,1,-1,1,1,1,-1,-1,1,-1,-1,-1,1,1,1,1,-1,-1,1,1,1,-1,-1,1,-1,-1,-1,1,1,1,1,-1,-1,1,1,1,-1,-1,1,-1,-1,-1,1,1,1,1,1,-1,1,1,1,-1,-1,1,-1,-1,-1,-1,-1,-1,1,-1,-1,1,1,1,1,1,1,-1,1,1,-1,-1,-1,-1,-1,-1,1,1,1,1,1,1,1,1,1,-1,-1,-1,-1,-1,-1,-1,-1,-1,1,1,1,1,1,1,-1,1,1,1,-1,1,-1,-1,-1,-1,-1,-1,1,1,1,1,-1,-1,1,1,1,1,1,1,1,1,1,1,1,1,1,1,1,-1,-1,1,1,-1,1,1,-1,1,1,-1,1,1,-1,1,1,-1,1,1,-1,1,1,-1,1,1,-1,1,1,-1,1,1,-1,-1,1,-1,-1,1,-1,-1,1,-1,-1,1,-1,-1,1,-1,-1,-1,-1,-1,-1,-1,-1,-1,-1,-1,-1,-1,-1,1,1,-1,-1,1,-1,1,1,1,1,1,-1,1,1,-1,-1,1,-1,-1,1,-1,-1,1,-1,-1,1,-1,-1,1,-1,-1,1,-1,-1,1,-1,-1,1,-1,-1,1,-1,-1,1,-1,-1,1,1,-1,1,-1,1,1,1,-1,1,-1,-1,1,1,-1,1,1,-1,1,-1,-1,1,-1,-1,1,-1,-1,1,1,1,-1,-1,1,-1,1,1,-1,-1,1,-1,-1,1,-1,-1,1,1,1,1,1,1,-1,-1,1,-1,-1,1,-1,-1,1,-1,-1,1,-1,-1,-1,-1,-1,-1,-1,-1,-1,-1,-1,-1,1,1,1,-1,-1,-1,-1,-1,-1,-1,1,1,1,1,1,-1,-1,-1,-1,1,-1,-1,1,-1,1,1,1,1,1,1,1,1,1,1,1,1,1,1,1,1,1,1,1,1,1,-1,-1,-1,-1,1,1,1,1,1,1,1,1,1,1,1,-1,1,1,1,1,1,1,1,1,1,1,1,1,1,1,1,1,1,1,1,1,1,1,1,1,1,1,1,1,1,1,1,1,1,1,1,1,1,1,1,1,1,1,1,1,-1,-1,-1,1,1,1,-1,-1,-1,-1,-1,-1,1,1,1,-1,1,1,1,1,1,-1,-1,-1,-1,-1,-1,1,1,1,1,-1,1,1,1,1,-1,-1,-1,-1,-1,-1,1,1,1,-1,1,-1,1,1,1,-1,-1,-1,-1,-1,-1,1,1,1,1,-1,1,1,1,1,-1,-1,-1,-1,-1,-1,1,1,1,-1,-1,-1,-1,-1,-1,-1,-1,1,-1,-1,-1,-1,-1,-1,1,1,1,1,1,1,1,1,1,1,1,1,1,1,1,1,1,1,1,1,1,1,1,1,1,1,1,1,1,1,-1,-1,-1,-1,-1,-1,-1,-1,-1,-1,-1,-1,-1,-1,-1,1,-1,-1,-1,1,-1,1,-1,-1,1,1,1,-1,-1,-1,-1,-1,-1,1,1,1,1,-1,1,-1,-1,-1,1,1,-1,-1,-1,-1,1,1,1,1,1,1,-1,-1,-1,1,-1,-1,-1,-1,-1,1,1,1,1,1,1,-1,-1,-1,1,1,1,-1,-1,-1,1,1,1,1,1,1,-1,-1,-1,-1,1,-1,-1,-1,-1,-1,1,1,1,1,1,-1,-1,1,1,1,-1,1,1,-1,1,-1,-1,1,-1,-1,1,1,1,-1,-1,-1,1,1,1,-1,-1,-1,1,-1,1,1,1,1,-1,-1,-1,1,1,1,-1,-1,-1,1,-1,1,1,1,1,-1,-1,-1,1,1,1,-1,-1,-1,-1,1,1,1,1,1,-1,-1,-1,1,1,1,-1,-1,-1,-1,-1,1,1,1,1,-1,-1,-1,-1,-1,1,-1,1,1,1,1,1,-1,-1,-1,1,-1,-1,1,1,1,1,1,1,-1,1,1,-1,-1,-1,-1,-1,-1,1,1,1,1,1,1,-1,1,-1,-1,-1,-1,-1,-1,-1,1,1,1,1,1,1,-1,-1,1,-1,-1,-1,-1,-1,-1,1,1,1,1,1,1,-1,-1,-1,-1,-1,-1,1,1,-1};
float shift1[N_SHIFT1] = {-1.0758476,-1.2113665,1.292373,-1.0457337,-0.42050248,-0.835614,0.5720682,-1.1854445,0.7976579,-0.92067134,2.02186,-1.2129359,-0.7476599,-1.4149901,-0.65079373,0.61942,1.1282493,2.515748,-1.5503854,-0.7545636,-0.40647003,-1.2100664,-1.0360408,2.157614,2.28369,-0.715723,0.23285456,-0.6969695,-0.7077972,1.5045418,2.9201696,-0.57960767};
float bn1_alpha1[N_BN1_ALPHA1] = {3.736984286257518,3.0999498898759015,1.1060139422298734,3.2334866745798525,2.0567056711926615,2.0585986005662216,1.8516968887193563,3.6135274437013067,1.2027686282492438,2.4128629154174996,6.666688968001344,7.7823167962268425,4.026250669805112,1.6671256067751101,2.717597434511433,1.0779560240396253,1.6554176975662602,1.8666968357187166,4.444296137329641,4.139761529210668,2.6322699190169327,3.1223604144882846,4.476041745205211,2.6023380822859767,3.610081478570933,8.822494492927818,-303.811776619084,4.412412761484404,2.0294624020921592,1.7678077095795528,1.299401795776964,2.0863053816008175};
float bn1_alpha2[N_BN1_ALPHA2] = {0.35331396246683777,0.39429149233140387,0.1651297349990653,0.40451579112836206,-0.43478664960020386,0.730496652269377,0.6514193123728329,0.4420045347093881,0.25862495624447174,0.5253582160958634,0.1851147333894511,0.15665068656240994,0.24822435512522562,-0.3757442859049725,-0.42822500283095083,0.37730099457876454,0.16399541896146355,0.29620569148333487,0.3426918437004264,0.3211567695378232,-0.514845560053264,0.4242990389832092,0.1409621511674462,0.12603979570232554,0.2634173801704386,0.2929563448972226,0.003561898164471236,0.2857660446160563,-0.532520263685761,0.4564056810395731,0.23393993855529555,0.556866931417368};

int conv2_wt[N_CONV2_WT] = {1623260703,1894396755,294013269,524045201,328994697,-59638690,2035544958,821180662,119408920,260836257,-59640225,-126617729,1911780990,96876968,386673056,-55979425,-109980066,1968274654,89603248,92646816,2032771895,-127874342,-646876066,624966902,1170521264,186154465,-329621599,1652338595,-1990567967,349708721,203222697,-1367470423,243055778,249306538,75250915,217999573,-1392587547,721206948,-386081658,1291615445,1019865172,886671492,1324132484,-588742522,1015554388,-1316861868,81397796,1103214724,-773207740,-259521963,-1243392674,-1882253988,-1496852374,-1396454236,-730704803,1567888554,-404513297,-1949853202,-1496925778,1021351988,1029059600,1450284426,-607677078,-1964534294,12726950,754086006,-59747238,-129960886,-387459746,1826763254,89419967,-1938656912,-196053988,-328149906,1280341086,399355621,9219492,1120206112,-2134459994,-1729643324,1134260169,1268178857,-522781382,-238879486,-1329344420,-988258024,-1004780263,-1005435560,-1267278566,-1124861670,-1759678479,-549950023,-1132573192,-1084301838,-1781277352,254905856,-881303678,523259842,-1283993791,-1545364474,-111815586,-1864901410,-1730453990,713864843,-903298503,-515451874,-262810562,-1873683330,-2116846466,181974785,-1916391062,-171518946,-195832770,-1068376962,-1848558242,130425705,-1111092918,-1262299874,-254550946,-1068180438,119278249,-1828445879,-775810294,-1329424038,-255404453,44805349,1492749492,-525493017,48335014,984197252,-913905165,771259828,-385950725,1760726961,1085648375,-381785616,-315593296,-377853452,-382046736,1760717296,1241213428,758212016,-369532688,-382507792,2041833716,1223687414,20311220,1239706868,690908338,1211526901,-736929153,-2070181186,880965886,365326356,490356824,109694909,-2033868865,-1496990209,115751406,468193712,-1778262355,-2034131011,-1027219986,-1412981254,-1950214870,-704016463,-962801743,-959127633,-203956822,-2091835958,-851411273,-996116265,-996095843,-125641444,-1324198632,-1390522759,-2037585379,-695688445,-826231973,-1117282950,751335961,-158801379,-156632295,-95702181,-1538295721,-964117857,-559289575,-163845253,-1302603169,84574749,-1031238083,-96744615,-1206134177,-1587865057,323162649,1243122317,689494591,22248031,289544766,270084177,943820890,4294658,-2112174067,-1967403255,-1742745891,289651018,-1977890803,-1698706787,-1765814531,-996291907,-2095417319,-1841378659,-492909987,-190854531,-997350679,-2145498471,-1807857059,-190952579,-174160919,220999848,-1877079397,-121748901,-38533255,1835271328,93597858,344444621,101096704,335962368,4486532,273046812,646966189,-2033873522,-2033870458,340011012,289691934,-947015987,-269508635,-1343250781,1944328202,457456650,1286974173,-8536369,-1102981,-34202017,2045909082,-55543596,-33741861,-46241031,-33918113,-42786726,126493505,-1885451379,72629390,-856662646,-656392438,982174529,379151109,79969284,1884380426,-658449126,313125713,126429316,79767556,80846086,-1874739878,-79720833,-2019874139,92351620,163650818,-1419666082,-377495937,-1371584283,230762532,-864969694,-394929441,732766917,-1434876860,-85360568,-85326784,191763778,162211028,-126647232,-664140736,-85326784,-1142553536,1133374903,-1443162716,-664255424,-93715136,703468996,198179575,-1409330297,-94355388,-92350654,602215323,53343879,443483968,2054768192,-92486336,994399552,-486137523,-880348457,-1580073666,1497562106,-1592301293,-1180671724,1367798523,-55509441,-722337798,2102555130,2016948319,2037560191,-190645634,-193857797,-931987461,1502192246,812757566,1372847099,950402623,1084534517,1638406358,962605622,1087549950,25607869,8654477,-1810081573,-422277983,-964103287,-693386387,-1542976801,310913581,1200171939,-2102811703,-342899889,-1525129059,646456241,-809899031,-1624259847,-49560867,-1810341287,1604872737,-272897299,-1103117729,-466926851,-63413903,-1431639827,-121903371,-131341707,-1559617151,1228418909,-269986023,-786062896,20227668,422814289,-43364014,-60558817,-1137516006,1882612759,-669850026,-63900069,-1193143458,810709631,1886802495,1880650367,-122132867,728175022,852474862,552467183,851229679,-424115287,-980153176,-2017068616,1636170237,92650473,-2016703061,1800148863,1674976939,33990051,197564596,140940732,-484687271,-615442565,600281963,583514530,46618806,-1139523043,-176564389,-210503829,-203967493,12791998,1412526104,-59116229,-75892869,-178522133,89372830,406926684,1247384600,1917949786,1216085851,22263068,29768096,524094648,1930717885,-927016997,-228346289,667228576,525928628,1529626900,-126171301,-84682924,130358690,131927204,1550606484,-126105762,-93077155,130333856,122436783,1277966751,-130365603,-92552367,113618048,130399408,1219015830,-126171306,-1167404197,1397624753,-1958842373,-1021382661,-1423970373,186615226,-636604535,-2109837317,-1459724353,16678062,42284206,-89242855,-222409895,819355920,820314116,1384222980,-89562274,984499027,432353552,1508474884,334088471,-81161378,2080355156,1635624340,-68583332,-1421108515,-320734114,-555485358,-22283439,-30684175,2140825745,-54420098,-28721174,1179631595,-1372615757,1059827553,-767451618,-497950741,1395376107,-1421881687,322567179,308966486,713028802,709074561,172928640,173542400,621950996,655764484,387016900,1101031428,1091660804,290553884,46007193,1087790009,-371794437,-1454140342,-1706586084,-1966208231,-352445477,-352446469,-520187429,-1999236836,-654437989,-392275045,-388097029,-253881893,-2115954548,-1730798181,144071131,445921754,180095945,14750732,719805454,546725016,448035749,198773389,1010402324,2117698589,1589398621,-604155942,1139118521,-1739319794,-61055348,-1071886947,1401800025,-1949973038,-1528014707,-455844417,-187376482,-754596648,1392629080,-1880876119,-1880858706,-725328482,1347802140,286385168,-2016143383,-436347415,-188459618,-1876585444,1378944539,-723354665,2065851220,-110148649,-102551045,-223944301,-663365746,-119286418,-75769985,-67381253,-1170226355,-2141932408,-1849402326,-2137846724,-2112074067,-1826633047,923123083,29637766,276834308,277882884,60632968,-281280677,-1277748927,276824086,278135316,-806511653,352585120,84221366,1581355966,373719357,370053919,1662848480,-1052406347,188849838,-1285072145,716116987,-1559393903,-2028876619,-2028871956,-1824270146,-1858383137,1662633553,1730006148,-550376412,-1719673226,-1993117057,1663672913,-918821132,221506100,-245925826,1884434523,406061402,-103393798,-2058129154,-311201616,1767003050,59646368,569736382,-1244169026,-1980662530,22101746,1108214753,1638398130,567794878,-506243842,24212726,975586273,-1030960157,1153956286,-2066491202,677613798,-98400446,1818678753,-1532757530,-320605954,-100478642,-1777456475,-1657017795,-1237444755,-195576534,-1807401818,-2071352812,-1891941813,-294923701,-1253845685,-993937402,-1803390442,-131448744,-110472103,-101559208,-1266629092,-2052740954,-324452263,-43364263,-303938980,-981357963,-1919964758,-59043814,-305333,-59010439,-945969475,1257086306,-67122704,396200368,-637890727,2058192705,2056257523,1360834229,27012276,834563761,1118752755,537143999,94136501,76835509,337406653,1454004,25279159,18180797,85289657,1628339131,855911403,1000461183,-275459,1192487355,-46466054,1915883970,823737875,-651992995,537814609,1244444480,1798182273,1643898353,-102014441,-108338604,-1376995949,1166992352,-315939721,-1120308707,-601169833,-1128507555,-857300510,1567339511,-1137056235,-595856554,-63248431,-154225183,1124676676,-399907233,-386517412,-357661213,583937953,-2101026933,-1595433505,-1864541825,-1185457960,119372960,-823230080,-118500260,-118636452,-1105343404,268200352,-51739328,-118832044,-131349420,-330349356,1340877216,-395406000,-118831780,-130367396,-413152012,259866017,-2094630253,-122797988,-132329379,50691249,58015650,-726668353,-458757129,-257627149,-460133384,-172954627,1587674107,1252456934,1787165686,445107169,-72877061,1892711851,-1832878928,1116106685,42781875,-760579163,1670385004,864034446,1132595621,-1416275948,-72717501,-2024784350,395840561,64621061,60496312,-1082491071,1412622660,-1550828278,1504078683,-1290524118,1453531623,-928560034,-102211813,-658842757,-1181272995,-526276878,-578591939,-323232005,-1579197314,-34415745,-184291204,-1246170597,-651175811,-1588306369,-909647874,-1261211366,-1323455697,-786994341,-1316717539,-774415014,-506225126,-2094446849,-1684075843,-1960867299,-1675738339,890766097,-2096165227,-1826633059,-1843410403,-1265742951,-981183224,-1826895203,-1751135715,-1836070051,-963846205,-1890577046,-1852194283,-695612899,-1836266751,1338817922,206708098,-777977252,-559707619,-360333489,-294471869,1072846330,536887636,18612368,1352427701,-707513347,1102330047,1798062192,2080121265,1123824639,-470944769,2074905567,2070480321,1811788779,-336741381,-89134113,-1841593835,1272528289,1675608043,-1012928535,-1774196963,440050961,-475939381,-2105022051,-2145981923,-1877326307,270156061};
float shift2[N_SHIFT2] = {3.9389963,2.6991305,2.4775727,5.33681,2.8128703,3.1298385,2.5146961,4.3147035,4.7596946,3.9510915,2.7251906,4.201067,2.6775303,1.9653594,-1.36796,2.790459,2.7444725,1.4097384,3.316797,0.76201975,2.6682003,-0.79450023,3.9617786,3.2631598,-2.1068523,3.3497226,2.355104,3.3811285,-0.94722164,2.035171,4.6166573,2.7346032};
float bn2_wt[N_BN2_WT] = {-62.13190550039859,-18.349200124329663,-14.438490962990663,-32.36872130064842,-56.11958557664829,-44.42097730320518,-18.155458567937472,-70.96755289314056,-60.003433720472955,-17.956174561222085,-54.75690358886867,257.96844233436644,-48.53996000324429,-43.586113041497676,-78.52553175393638,-16.803075920799188,-49.1981492278054,-10.576774687219817,-23.46427858322882,3.2493309511188997,-51.21677190612432,-48.8355312697396,-34.70791954605242,-21.88677870849969,-92.0834049295489,-15.92922933132462,-12.7692039165219,-33.60890059080184,-30.054136150374074,-12.55888179724759,-54.60313446472648,-23.779729779643304};

int conv3_wt[N_CONV3_WT] = {2143883281,1708232722,-237896616,-792337187,2144282563,-575077359,-908633063,1497832856,1497742813,1567035337,-1265958886,1022664881,851491753,910474045,1682357227,-1148833646,986067366,1048721430,1719711795,797159667,-310173478,1807954136,734140561,1833046329,1838387545,-571490874,-575750202,-642892074,947916374,456660791,-43111978,-1322370154,-1524350986,993009311,2101104403,952937460,-1548995724,725370046,1779772281,2063617323,-1445674123,-1977565063,-2108668311,1783710073,2069053801,1179824633,-2110631767,41142281,978569501,2063810825,1323485210,-219771654,-1094506328,877114786,2127797456,-911225790,-907677985,-359717736,1239008438,1037769809,-590115622,-386404897,-23106423,1212304675,986777689,-847302690,-639651874,-639695019,-582406699,1607601409,2097917438,1503639551,147760631,1498066259,1828359381,-1264021096,-1567861645,-427211398,-1541866501,1714967577,1755213908,-493207470,-491032238,-423989150,1654415440,1767088217,1840384220,1840497107,1770717409,-1048370288,-243978397,-580939812,2038349785,-1715124775,-112382977,-767357918,1565896364,419860101,424004611,969920061,-41342937,1829072175,-55350916,-38459201,1034500135,1293749319,1494584775,-36238210,1564813751,-1184023357,1590824215,1593113037,1056122908,1063168414,1053440904,-808307385,-831209346,-1681675540,231870462,1776988096,1859362050,1827833562,798132570,681215258,770907483,563928669,79173213,636015293,-1253409895,-128031279,148653663,164171804,-1077281867,-29640319,-94494461,46163566,-1631502964,-152210959,-15453743,1108526133,-836541536,-144757368,-476696361,580813943,481353244,1830185901,-313386813,1765413971,15256606,750901784,-1900399807,975090536,-218482840,1656669820,46076190,-835431870,-423823509,-2097244549,-1040263553,-1061317925,1658360922,16356924,246127677,90606607,1081508235,-1410791844,164208212,229346365,-1654523511,-379939447,1590365274,453594168,218876985,1272700313,-90548839,1849595051,40682667,847186095,-1562122577,-1363453913,-836369150,1677075978,-1296422326,-667859441,-1099857811,-567931132,-676159986,-1615720846,-1351247106,-1371718421,-1203924753,-1607682834,-1130055443,-1150983506,-1106302294,-1263616450,-1497564114,784091754,-1833374166,-1500885983,-669116535,1111361483,1980510120,-330010711,-1363267613,-652859771,419492,-24106720,-338299601,-1497693856,2118264072,2059549962,-1361560728,-1372532433,-1497425809,-320409754,-306666586,-1380402827,-1552625035,-1883289995,-1132552195,-1195601731,-1396795267,-2143976849,1144719504,1547799952,-562696320,-9179169,-103708833,-975613996,-571941484,-713036395,-752930857,1503118165,354279316,12099095,-2143356009,1377446815,35360157,36362677,-2097379425,-2101459682,1460874120,-841896051,-755413035,377370506,1379541250,1549480904,1973138392,2023430929,-288809327,1565100973,2094729989,1599217203,-565470756,1070292677,1170599941,1539411075,1464014563,-557589415,-1228219181,71757957,-1159229248,-1268384023,-1504715575,-993609837,71607973,-993553262,-440092975,-188250663,1680481427,337918098,748789138,1959067289,1951374681,183176218,19641145,2081630592,1967302568,1951869872,-1880548779,-876792985,-12637212,1433896957,-1191962672,448420435,306053678,1379536012,1378526126,855245189,-1886734357,-2086164765,-958159135,-2115520599,-1862891563,-1171540695,9270827,-1229250679,1697371113,872646491,-957942872,-471550272,618765909,-1920364929,-1927575497,-525020779,-958070839,-1033273661,-1139200504,960202783,-1179332395,-1244335657,-953390143,-987091519,2033913032,953481596,781498869,2114743275,1078593665,1614419017,-1631243980,1058339255,1176422699,1130497579,551556721,440667433,445648747,1190659926,-759537834,1787960150,675974410,1989373790,-174346378,1058716652,2136517437,2078531414,-1111770506,-1455555843,-1138378519,-1085953623,-1275216146,-1665287441,-1406830423,-1572519797,778240001,-1476608276,-1674274079,319193217,-1027455485,-489470959,2117730570,1981448794,775618911,582652190,507197710,-1351329416,-377993399,-1220851751,-1183198214,494422881,238684476,371018584,918243672,423233836,104532744,-1908696193,-1630681217,-474266753,-1960852702,-1911877629,-1499736054,780922989,-23333528,-494223317,-1499736054,433043159,152041095,457648385,-1657931857,-1325023282,159767653,159762613,524372001,-955420246,-948978718,652236908,989190773,503400481,123822376,1113715818,-491078834,1085341310,181420561,1280395576,-571410618,-139789610,79601228,1485963352,-922070696,-240452658,1609816168,1794829934,718474872,785451800,504563986,-818718618,-848560538,-285629721,-386617608,-1426724300,234036247,-2004879319,-16928534,-528701202,-520442468,1562446963,-873446349,-75814498,-788549986,-788878178,-891270127,1274201116,-2412484,-583025250,-117523041,-1927292772,-551622519,-1616975220,1608157533,1561215247,-40109825,-1215432468,-1488852755,1066117869,734786047,1044905133,618985661,-1393165847,-1385842455,767924457,1097112472,44848403,1119243650,1114965186,1382452241,351043986,1350440343,1381369746,1381435218,-600779874,902598869,1884132061,2085755792,1953550805,1534331289,500801237,286103253,763566037,292156371,1598424017,546839577,551326303,751540821,1017762459,-30198887,-1680208174,1096603351,701143637,543019733,-8535145,1513757074,1075361497,948608725,277667485,815325085,14702712,817484668,956143223,359980661,288988319,-1030212232,851187676,989844086,882957877,488856757,-1031899186,-1599141906,1795154924,1843477040,228599968,1292077707,-78700088,-361799294,-429710942,-299861592,2101553539,-42563199,-280518269,-833658432,-969976376,-535202408,-1603177583,-1769898047,1634793053,1612191577,1809596917,-2017626172,-1752140736,-1055623471,-480430127,851084125,316199222,304011296,1128030336,-965008952,1223332733,27575415,265250,-1050582622,-138724375,1304074623,413978681,1082392578,-1053873758,-4507158,781438270,1027335969,709559841,669732393,2118323629,223698735,493322215,531566123,770141547,1027816749,1049185319,1032805927,-1096070109,-1106564830,1040399843,-1366209921,-1361708161,-1225405585,1340568567,-810067097,2128080106,1818622125,879165166,739703791,786067554,-726692644,-60511784,-18438664,1652003962,-486569892,-590901922,-583024674,-71358613,-872964486,-369160613,2103291774,2107620335,1845466707,1867460479,2103421395,-1114948249,699251557,197332068,1598123508,1028336999,2130648446,165581226,62980096,1497835800,1044021627,1454462353,-545375951,-625044638,-491235718,601037373,1338199556,2140380928,-827673620,-760567064,160639509,-1118975763,765433941,-1384253185,-2077249302,-1123047287,578111571,1769819479,33315038,1111452126,-786603581,1112934207,1911687028,1038128959,-1216975881,1263937443,-430199814,1042004975,-1430342665,584815483,754691066,-44339646,-1376798549,-1077996441,-571738898,-1917863833,518773859,-1905904473,1445088454,484636295,514790439,-1889355797,-1830566237,-697192725,-1914374467,-1829136641,-2002275127,16237707,90553577,-1511614759,35718289,-12063756,1026144484,740927668,789293236,-1118455404,-1087923755,-1876043555,-1419396655,-1321862967,-1250182660,2125666523,-676933291,1273179215,-1008388133,1958425040,-1658652673,-1926758778,218218188,425836262,-1887881518,-1310451499,90520036,354695364,358889693,926159313,480328715,1620701945,-1103470703,-1539689695,-407366863,156555351,1226167877,-1430698032,-382086431,-1418890639,506992656,141922653,-1359242371,1792910185,-1545919711,-1935657806,-933925326,-27883171,-639251587,-336936347,-559928158,1175025808,1578784856,686803230,2044893533,1920894811,1660814872,-422901992,-388064362,2088670611,-67729487,1677694841,-404551789,-310928489,2102898577,-1079010767,734246425,-1346163631,-1136280939,-1111286895,590321175,-1278867683,-1891434489,-366534138,-24700911,1998829827,1870837760,767694850,887271953,-56424304,143253052,-1140213452,738751409,1006819745,-1375531735,-1303889618,-1274537540,-1272432227,906801465,-1238625237,1123759179,-2030398254,1119458459,1188799515,1722995862,-275568957,-537427757,-369392429,-807959482,-537401658,2103824205,964101967,2105486815,2035625934,-34258961,1618491377,1618782137,-972546168,-1539295320,-459790943,-486780041,-480980235,-973039744,-987433531,-423874077,1659384064,1726001785,-1231905963,1147327039,-2044800667,-972480128,-940596538,-306472867,697537119,92324981,-1018092224,-986765174,-1121216311,958894605,1250903217,-735667510,1910545005,180032563,196038690,1806590575,-550002751,1566957519,146511445,23921762,1269773293,-1738987135,1566551807,1035704919,47005751,-2094062614,1381851632,-586043771,1033018461,197448311,-2096338833,-755371584,-682512992,1569410449,162518325,196995562,-944606250,-810142766,1253205571,39406698,-1438021591,-49174036,1564195725,1854847962,1793738306,50162704,-1119512339,474847653,-47255156,1873426378,1658023510,541411355,268798211,-1117007577,1269495662,-335986945,1922714633,1133626387,-1813653450,-1120953730,-1888109971,-889497192,1892391839,-184811107,-160452205,-27840127,-746896429,-775773291,-278383152,-179919487,-715970176,-32824877,-395840639,-199544448,-160517750,-283957887,-418694206,-783359552,-531744382,-1067523192,-687403069,-435470959,-465126518,1816141202,1344200603,1874562459,138712337,1349881105,-1209421236,1185591917,1854462549,1949609875,905353999,641241437,796709475,-942042535,-720126058,1027137495,229954679,-1418461099,-1552438662,876165046,1018728819,-2091588509,-2091487650,-917018532,681128439,-1306783375,-1020452062,-2124976246,-799576696,49435837,843668245,-434931223,-838643285,1312903586,-1946913037,-1329301844,-1484720171,656792298,-810331133,-1228899960,-1228867200,918614137,918616108,-1226647428,-1534166608,650129472,1741713753,1698697308,1830064508,1746670008,1620840496,1723355600,1744837112,1847006584,-1035483575,-893139335,-1589165800,-772856922,-1800651898,-297563063,1919135305,1055829292,283676942,346567574,-1656370007,-574111592,1036697468,770447190,-1985186026,-1755936551,373719448,1559155084,-437385226,589834230,1987482329,-1025224487,-2132131432,-1847054410,1831481254,892312190,161928877,1273103459,1431273642,523156899,-1381130650,154523617,466027937,-2058490645,-1397768541,585995380,613414455,508235012,-1670646358,-1509547677,200103540,300537471,-1249248491,-1960315519,-1035598493,178983971,-1505151880,-292972039,773247395,304284771,-2097476435,103525615,304811055,1345305786,1244573091,-1363467093,1154131683,378123391,279753983,1556489971,-157603710,1679522766,864951114,856584742,881465978,-2009382234,1395588846,-1413578769,36591275,88032239,34295458,847904489,586120867,585979427,663574251,213189758,317115702,37146040,104245674,1314088746,1021321084,-34837898,675040246,236251530,-865066528,1316761944,1492663126,1790466936,1612377496,1383728574,1112933488,1115292928,-486819846,-490829858,317850904,148214809,1753191761,-486557749,-499140869,-163863159,-201647511,574503546,1012447636,1887348642,999334517,-268715165,557558472,1014016708,-1376081235,-1409309983,-1367797656,-461524244,-50751036,-1602375473,-1396731799,1601389569,-1016043834,-558743868,-776825321,1403142661,-883880887,-964841304,-1095911191,-2077846897,-821850484,1648439176,-474274869,-1996026647,-2058885982,-1626396254,-42111030,-1375907074,-1715089725,155534469,-1119000159,-1031919350,-2097256382,-704500862,1447340416,1991391620,-482056734,-1035573822,-704500350,-693619288,-22399192,1996564911,-143709786,-32818904,-819318418,-272837272,1834319831,1230302417,1661013177,1237667037,2109824470,2111127031,1599369207,1930102409,432381365,2035629527,1825909078,1842621395,2055963208,1004267838,2081565087,-809161100,1296379703,-74743712,-1996378838,148352341,2093165842,1837869843,1049299243,2043391806,1016331602,110170939,-1642440666,1580865830,1861906726,179902755,1571019617,546311175,-1374598880,-270294267,-810341841,-1371827863,552899437,-1359011744,746404994,-1381259221,-1166107543,-1333882391,-1291919016,-512400538,-366269984,-2105895845,-1304514087,-218197505,-1034157750,-1037360734,-1666753450,-1465621610,-565170680,1617226118,-1614484218,-928627105,1528592375,1779851153,11329946,-376112750,1109002536,39756200,572131340,35320220,43690266,-393074782,-204408909,920149817,836302140,1373177182,2089429290,1754870587,1054545977,1951961403,1822103834,602907223,-18372480,-976754492,-1779975539,388997559,-1921182537,-1662150434,-1452429093,-1674725203,-1056210813,-2087956962,-801223536,1343638810,1342590238,1107610952,-746035394,1100115738,1276268306,1330791703,1404979071,-1849658074,-662685850,1157719863,1842371895,910349431,1286544574,1481488310,1069947455,203857843,-823710294,-1673183253,457455529,667885161,1006935741,-1138280479,910506411,986063395,652418090,817992251,1048976945,-316861999,1269192483,65209954,-1579060614,-335277545,948146461,732401953,514458656,-1418382670,-32560199,1851141080,2020888540,1851677533,703982488,799632148,-919327916,2071228372,997989237,-1049337488,154679828,-359519528,2085628760,2094700884,1392296268,-1466431336,-848123188,-317609388,-1114097359,-1989102714,-1646163772,1563531605,-9328545,-1392826331,-1989494378,-613184048,618335292,605859709,1487537490,1106163158,663731206,870030396,630914685,741739595,1085023403,-699464488,938053921,-438603009,1050296283,1957037587,384732371,-808763360,-489721824,-304137218,1753675606,2024148951,-300744543,-1035509600,-32822872,688701374,1009663742,-1294225366,-163857749,-233064593,850040430,848989806,-256164765,-782520723,-266621119,1893377640,1658822246,-1896137173,1647029358,-29643477,1924904262,1660918894,1267404327,443038830,-76989405,-550880154,-626021266,-1628729813,-1562071446,787425071,-272724114,-356578689,244440107,-890056652,-1225032649,304828966,-1959603927,-1985787890,-1922316212,-1247023059,654438437,-1758762624,742103144,742249578,632131677,-1524240183,-1525975639,-1665903495,28599895,-1296206754,-1011517953,-751483455,1052660090,180109946,-222492584,-692318760,-96582165,-1262764800,916077371,106984995,-1530839260,-193843637,884858460,749457991,-1515359353,-1500546368,-1137295992,956062837,-1394798473,-1459751949,-1405275678,-94035488,452494186,-1572044674,-1604474369,1914470882,1249665390,1113728648,1398408584,1364853139,1614972447,315659807,-32296576,-176966720,-51005482,-329996322,2096152533,-181719104,-250299432,-48483372,158652308,1971101660,-1830074200,-2036446532,369630234,105439276,906668473,-914274380,-2120642762,497799735,321254196,-956094559,178984257,313414718,310972477,243364645,369258915,-701681846,-225533560,-1463111074,654022231,-1809843113,-718444152,-717839926,165846044,165993559,-1794172393,1160730644,-1523080548,151161992,-1656665071,-953333488,338777428,-1581393058,1024811864,-602914047,-585626296,-1657270436,26923038,-560049902,-231070896,1444418376,30380575,1303349813,1294174259,1296541875,-921239165,159975440,152685596,1293618203,-585578104,-854455936,-1718006663,2035916797,2103004145,2031945625,-317053560,381998197,-1301490180,-1224943659,-262907916,-497782282,350663543,652784455,-1561660429,-1295731714,-1226329090,-629873204,-335611922,1741490914,285804561,352917777,-1100172372,-293750801,-2117506309,353004673,-721201024,2136193903,1842068351,1807664653,280773761,-1037024128,2132486502,1025183286,412802059,-219901872,-1033611576,1872317005,-317117908,-1176324688,-1830373992,1348859895,-811119695,-1360664004,-1134216394,1285629975,-591984077,-1627977289,976498860,-1133233186,-1133233449,-55689257,974081458,447494568,-1239139954,740048798,1050951582,-473608840,-2119218926,-1818402378,-841205258,-908304394,2027031901,284869951,45941046,1243161020,-365137414,439553936,1909687708,-53240940,482622902,2085894548,-1650749768,-1176898164,-1127121452,-582714956,1565014277,-1074022019,-1293426259,-54056510,1296069426,1824667904,-1142183881,-2114985585,-591188734,1291895575,-20916640,-6579942,-1731555174,1590889682,1490081041,-1359569702,895602652,531675421,55338530,-968724630,-36487511,2105139128,1068555325,-2108406494,-1015451710,-1128882639,1018927221,715690613,-2108668158,-1049924638,-1128582095,770226805,-1297325185,-501652502,-312235350,751943177,-1949683601,-1225820058,-181404690,1028766857,-1111376595,2085895632,1296343988,1398382004,2044049332,2094284752,2110029541,1573138103,17370241,432076214,1842658928,2126920163,1699265187,839518617,700642716,1020279924,1321472944,-446891045,-1559752831,-2116758092,617926484,1855066385,-430147111,839388569,2422168,1724946840,-1095112149,846197291,-1225786837,842789419,-1507067861,-1430260626,694154364,-1311878042,561869922,-376868829,-1561449622,1618915246,855514491,585104763,-1361340038,-89513113,-1947293849,-1157714834,1038413423,-1696123798,-1163680090,581207394,-1217090962,938786671,787422315,1561639830,487864724,2100575148,1299483373,1572575441,1023704454,155515168,-1076578252,2046098556,1073716628,-469697656,550827068,1054128252,768916092,2110798224,-471534428,1894831852,804567124,1707092852,-409763564,1626403224,1156640912,1858083217,1679305689,1687819665,-1900388050,1311949327,2116749739,190243241,46336292,-1390716561,-918469561,-308580891,-908858267,-876533683,-1440776070,-899858334,-6592088,-585897681,433301773,-1963736707,-1025023234,-845452860,-1928115834,-1659671164,-1158219283,-2106334724,1016843356,547016084,-1294272032,1681741401,1689478941,-156691008,1954968536,1723536728,313501663,1344743383,1949184974,841881295,1890523103,1061922603,894418607,1030733483,930061995,1028360107,835264043,-1118979167,-1463307103,566431267,490970337,1388911650,-1909596767,168762403,1405572154,237492277,-1943457371,-199051996,1650914906,-1594835330,2082250717,755050531,1600869667,1638732322,-1848304087,491134391,1325615104,2130791680,-1414754102,-1147860390,1070812437,1192316641,-1494161272,-369185826,-101192740,-70193156,575444217,-1595338536,-1263617570,-1132548670,1624552393};
float shift3[N_SHIFT3] = {3.7334952,-0.8988213,1.7470958,-0.7675197,3.5782182,-0.991446,2.3430538,3.4235501,3.3207443,1.7231987,3.05125,2.8991604,-1.1323669,-1.4795029,1.3998929,-1.197524,2.0893192,-0.7963838,2.1240652,-0.8850744,3.4783285,4.431291,2.396401,-0.7196637,2.2200303,3.397152,2.7867913,3.651649,-0.8078736,2.6216013,2.0399814,-0.763416,0.70562005,-0.97474724,5.4595017,-1.3010557,2.520718,3.348618,2.2950153,3.4223747,-1.1257293,3.8546834,2.2100174,3.5556896,-1.1296726,4.060798,3.2157502,3.6951265,2.793257,2.438661,-0.99378,2.8891373,-1.4662458,-0.7292521,-1.0883118,3.6071084,3.1583807,-1.2558197,2.2202458,3.1597161,1.2545332,2.574753,3.5589814,-1.3922167};
float bn3_wt[N_BN3_WT] = {-57.160070036403305,-56.32138001149646,-10.927826495497932,-53.18319374835907,-24.239022495182674,-59.92236869936931,-12.557838157719516,-47.48579148842773,-50.33091616152524,-4.788495380251092,-10.074989753946038,-11.357850034080819,-54.82483510512775,-68.45937439885084,-16.187560021438472,-61.77902299343772,-18.827504084667652,-51.94086929858097,-1.8434249660722557,-51.30926831351325,-36.27061643344538,-49.22919936383627,-20.209320588519745,-43.40514719626222,-22.757108669766893,-25.123780031524987,-7.4655298623295465,-24.63980504350492,-52.31936469576219,-41.36726529945672,-25.418737744446545,-54.030862918050836,3.5934710467887534,-52.949812459088704,-65.89585269412669,-58.1523803258727,-34.98422867632357,-20.354457944964743,-24.655882247523124,-37.40751067706957,-70.46318634122666,-24.89368242028987,-41.86044762789176,-18.551073286309276,-59.721310698478334,-51.774111972685915,-9.014367168820048,-37.443513924690166,-25.600762914165614,-40.22584684314708,-58.75287945668164,-34.63263939667188,-84.0859899842869,-47.95811599687103,-57.950103186482906,-34.64943148371508,-15.65435241739003,-61.07380283775062,-26.89118553701682,-34.41751633107153,-30.151788188357056,-15.917727552119722,-48.898252999517524,-65.55522467210163};

int fc1_wt[N_FC1_WT] = {-294867244,107392602,1866305136,641125632,1779861364,1651775232,57674804,-2022426799,1310586548,-1758026176,741338681,1396113104,749096816,1463177049,-2005908172,1698563401,1310047844,-986652092,656879200,1446042581,622989152,-701474475,139495200,-751302336,18455092,-2059884268,824381220,-994444588,956352356,-726066443,22579056,-1871167468,1073480981,1427723719,247464209,2097238980,516423761,1023702724,786236417,464442581,1046151549,1597002179,1003711833,1545630666,1004258397,1545631688,-1144029175,1537397210,-2743971,1376935363,-86875800,1645368770,-86775604,1116894658,-1416911872,1671614931,-272225506,1377197955,-539564876,1711691162,-539235148,1661605275,-1417024236,1670305675,-1907252139,-1790878907,-1437490059,-179221923,-1521110955,-715105443,1046253909,-782237172,173874805,-1250284667,-1932683659,-1250095276,1825166453,-1251424419,1214035013,-1787810040,182033509,360196868,751640181,-1787196650,747198069,-1586377967,1746700149,-2057295099,687644197,904399365,672931109,-176627163,673977637,-177018363,710448385,-2072878587,1321473108,935391744,1340478549,-1212136949,1340544021,-1212153341,1314984980,869298691,172299797,-1215802875,181868053,-1214494195,1121326613,394809871,1181095444,361787919,180690452,-1223144945,35000855,-1246082483,1121325591,362302031,1174673174,9585165,178530870,386452041,328600123,354992745,37117595,-1785181619,1115446801,344998505,444990549,923691540,446960739,1898897430,445002851,1426989589,444609635,1428300293,-1706672579,-1652364747,-1636952971,1300685333,-1771818947,1292280341,374748469,1426598415,-1706806115,79735301,-1704706883,1098951173,-1637600195,1091070469,-1639567937,1145072132,-1725641059,-708285915,-2006577381,-708287963,-1872476645,-574068219,-1687812837,1153458689,-1363037154,-176033272,-1430145770,-1652231287,-1429883498,-1652264309,-297421353,-1726979574,-1966760425,-1248265587,-1966622954,-1784851831,-1965705321,-1650699637,-825837674,-1785695733,-1966761449,-1215763687,-1966632425,-1785144661,180818839,-1785181687,1455739671,349194763,174902838,130574875,315907643,-1752642839,508829470,-1786221879,1449981778,365453912,185372529,872432087,990512401,352348420,-1425111535,469776644,-359885808,337695383,1042038583,872960399,257828711,353908998,1209865545,352877454,-32205771,344507295,1042029861,923290255,236754212,386552327,1780225825,-1794615793,2114721317,84460039,975083573,348654213,1042193968,298342917,1042161203,59530757,169123107,80233005,-1441673675,1556139692,2134738495,-1278164857,1985324607,-1949253201,710255935,1582581806,-1955352929,2039055121,-886668769,1573503667,1130663455,1599701939,1195804127,1577607715,-1957581249,2108203537,1130669595,1435099825,1130802719,1461299857,1128564126,1602806289,459321151,1441278649,1265018685,-16145903,1500284030,-677862891,-1016822758,1466999313,1333435478,875371558,708317018,280727308,50332994,1438046990,54266898,1180995629,1849324922,1006914879,137388443,361119534,49824986,344372014,-1473379318,369543966,1714713454,765775642,1085296906,900001038,70337626,883337998,-1540800502,648465374,607148828,1057246030,1144541454,923062090,1144542494,872827722,70866238,907955018,1312434965,788618175,1853497617,-79565942,-296082416,725679018,1215711312,188799901,253911319,-1086303604,1235772689,-1086237816,-1948187375,-1656663158,262603857,-1622944085,128394517,-1155375993,-2085919472,-1119857012,-2086457968,-1119202172,-2019351152,-1713187709,1200041364,-1718723449,-2037947260,-1785832310,-2021432176,-1852959613,126035349,430888075};
float shift4[N_SHIFT4] = {0.8863653,1.2588288,1.0068649,1.0695432,0.9756623,0.8493732,0.6146961,1.290275,0.6984814,0.20626387};
float bn4_wt[N_BN4_WT] = {-62.831192140570664,-40.89355925180894,-90.74439964501713,-148.6979451353215,-121.43178374582943,-121.32312537876484,-180.04810734319577,-70.1016545209335,-96.09627753036884,-132.30544575858852};
